%YAML:1.0
---
opencv_ml_rtrees:
   format: 3
   is_classifier: 1
   var_all: 78
   var_count: 77
   ord_var_count: 77
   cat_var_count: 1
   training_params:
      use_surrogates: 0
      max_categories: 10
      regression_accuracy: 0.
      max_depth: 5
      min_sample_count: 10
      cross_validation_folds: 0
      nactive_vars: 0
   global_var_idx: 1
   var_idx: [ 0, 1, 2, 3, 4, 5, 6, 7, 8, 9, 10, 11, 12, 13, 14, 15, 16,
       17, 18, 19, 20, 21, 22, 23, 24, 25, 26, 27, 28, 29, 30, 31, 32,
       33, 34, 35, 36, 37, 38, 39, 40, 41, 42, 43, 44, 45, 46, 47, 48,
       49, 50, 51, 52, 53, 54, 55, 56, 57, 58, 59, 60, 61, 62, 63, 64,
       65, 66, 67, 68, 69, 70, 71, 72, 73, 74, 75, 76 ]
   var_type: [ 0, 0, 0, 0, 0, 0, 0, 0, 0, 0, 0, 0, 0, 0, 0, 0, 0, 0, 0,
       0, 0, 0, 0, 0, 0, 0, 0, 0, 0, 0, 0, 0, 0, 0, 0, 0, 0, 0, 0, 0, 0,
       0, 0, 0, 0, 0, 0, 0, 0, 0, 0, 0, 0, 0, 0, 0, 0, 0, 0, 0, 0, 0, 0,
       0, 0, 0, 0, 0, 0, 0, 0, 0, 0, 0, 0, 0, 0, 1 ]
   cat_ofs: [ 0, 0, 0, 0, 0, 0, 0, 0, 0, 0, 0, 0, 0, 0, 0, 0, 0, 0, 0, 0,
       0, 0, 0, 0, 0, 0, 0, 0, 0, 0, 0, 0, 0, 0, 0, 0, 0, 0, 0, 0, 0, 0,
       0, 0, 0, 0, 0, 0, 0, 0, 0, 0, 0, 0, 0, 0, 0, 0, 0, 0, 0, 0, 0, 0,
       0, 0, 0, 0, 0, 0, 0, 0, 0, 0, 0, 0, 0, 0, 0, 0, 0, 0, 0, 0, 0, 0,
       0, 0, 0, 0, 0, 0, 0, 0, 0, 0, 0, 0, 0, 0, 0, 0, 0, 0, 0, 0, 0, 0,
       0, 0, 0, 0, 0, 0, 0, 0, 0, 0, 0, 0, 0, 0, 0, 0, 0, 0, 0, 0, 0, 0,
       0, 0, 0, 0, 0, 0, 0, 0, 0, 0, 0, 0, 0, 0, 0, 0, 0, 0, 0, 0, 0, 0,
       0, 0 ]
   class_labels: [ 0, 1, 2, 5 ]
   missing_subst: [ 0., 0., 0., 0., 0., 0., 0., 0., 0., 0., 0., 0., 0.,
       0., 0., 0., 0., 0., 0., 0., 0., 0., 0., 0., 0., 0., 0., 0., 0.,
       0., 0., 0., 0., 0., 0., 0., 0., 0., 0., 0., 0., 0., 0., 0., 0.,
       0., 0., 0., 0., 0., 0., 0., 0., 0., 0., 0., 0., 0., 0., 0., 0.,
       0., 0., 0., 0., 0., 0., 0., 0., 0., 0., 0., 0., 0., 0., 0., 0.,
       0. ]
   oob_error: 4.3689320388349512e-01
   ntrees: 50
   trees:
      -
         nodes:
            -
               depth: 0
               value: 0.
               norm_class_idx: 0
               splits:
                  - { var:41, quality:1.0975942230224609e+02,
                      le:1.1081884765625000e+03 }
            -
               depth: 1
               value: 0.
               norm_class_idx: 0
               splits:
                  - { var:41, quality:9.7758293151855469e+01,
                      le:4.1807159423828125e+02 }
            -
               depth: 2
               value: 0.
               norm_class_idx: 0
               splits:
                  - { var:7, quality:7.0880950927734375e+01,
                      le:2.4350685546875000e+04 }
            -
               depth: 3
               value: 0.
               norm_class_idx: 0
               splits:
                  - { var:51, quality:4.6496372222900391e+01,
                      le:4.5528984069824219e+00 }
            -
               depth: 4
               value: 0.
               norm_class_idx: 0
               splits:
                  - { var:17, quality:4.0679443359375000e+01,
                      le:2.5132314453125000e+03 }
            -
               depth: 5
               value: 0.
               norm_class_idx: 0
            -
               depth: 5
               value: 0.
               norm_class_idx: 0
            -
               depth: 4
               value: 0.
               norm_class_idx: 0
               splits:
                  - { var:52, quality:1.9538461685180664e+01,
                      le:7.8803691864013672e+00 }
            -
               depth: 5
               value: 0.
               norm_class_idx: 0
            -
               depth: 5
               value: 5.
               norm_class_idx: 3
            -
               depth: 3
               value: 0.
               norm_class_idx: 0
               splits:
                  - { var:6, quality:3.3485294342041016e+01,
                      le:2.7091458129882812e+02 }
            -
               depth: 4
               value: 0.
               norm_class_idx: 0
               splits:
                  - { var:7, quality:3.0615385055541992e+01,
                      le:3.5780476562500000e+04 }
            -
               depth: 5
               value: 0.
               norm_class_idx: 0
            -
               depth: 5
               value: 0.
               norm_class_idx: 0
            -
               depth: 4
               value: 1.
               norm_class_idx: 1
            -
               depth: 2
               value: 0.
               norm_class_idx: 0
               splits:
                  - { var:15, quality:3.3400001525878906e+01,
                      le:2.6021081209182739e-01 }
            -
               depth: 3
               value: 0.
               norm_class_idx: 0
            -
               depth: 3
               value: 0.
               norm_class_idx: 0
            -
               depth: 1
               value: 5.
               norm_class_idx: 3
               splits:
                  - { var:39, quality:2.4027570724487305e+01,
                      le:6.8857967853546143e-01 }
            -
               depth: 2
               value: 1.
               norm_class_idx: 1
               splits:
                  - { var:43, quality:1.5015872955322266e+01,
                      le:2.2949592590332031e+01 }
            -
               depth: 3
               value: 5.
               norm_class_idx: 3
               splits:
                  - { var:46, quality:1.1571428298950195e+01,
                      le:1.4191232299804688e+02 }
            -
               depth: 4
               value: 2.
               norm_class_idx: 2
               splits:
                  - { var:66, quality:8.4038457870483398e+00,
                      le:1.8383816528320312e+02 }
            -
               depth: 5
               value: 1.
               norm_class_idx: 1
            -
               depth: 5
               value: 2.
               norm_class_idx: 2
            -
               depth: 4
               value: 5.
               norm_class_idx: 3
            -
               depth: 3
               value: 1.
               norm_class_idx: 1
               splits:
                  - { var:60, quality:1.0500000000000000e+01,
                      le:2.5713146972656250e+02 }
            -
               depth: 4
               value: 1.
               norm_class_idx: 1
               splits:
                  - { var:12, quality:1.0181818008422852e+01,
                      le:6.8449747562408447e-01 }
            -
               depth: 5
               value: 1.
               norm_class_idx: 1
            -
               depth: 5
               value: 2.
               norm_class_idx: 2
            -
               depth: 4
               value: 0.
               norm_class_idx: 0
            -
               depth: 2
               value: 5.
               norm_class_idx: 3
               splits:
                  - { var:66, quality:1.5166666984558105e+01,
                      le:2.8457458496093750e+02 }
            -
               depth: 3
               value: 5.
               norm_class_idx: 3
               splits:
                  - { var:13, quality:6.2500000000000000e+00,
                      le:5.5082035064697266e+00 }
            -
               depth: 4
               value: 2.
               norm_class_idx: 2
            -
               depth: 4
               value: 5.
               norm_class_idx: 3
            -
               depth: 3
               value: 5.
               norm_class_idx: 3
      -
         nodes:
            -
               depth: 0
               value: 0.
               norm_class_idx: 0
               splits:
                  - { var:50, quality:1.1592355346679688e+02,
                      le:1.0241259765625000e+02 }
            -
               depth: 1
               value: 0.
               norm_class_idx: 0
               splits:
                  - { var:53, quality:9.9926605224609375e+01,
                      le:9.4806137084960938e+00 }
            -
               depth: 2
               value: 0.
               norm_class_idx: 0
               splits:
                  - { var:11, quality:1.0048826599121094e+02,
                      le:3.3730210937500000e+04 }
            -
               depth: 3
               value: 0.
               norm_class_idx: 0
               splits:
                  - { var:61, quality:9.9005767822265625e+01,
                      le:4.1984796142578125e+02 }
            -
               depth: 4
               value: 0.
               norm_class_idx: 0
               splits:
                  - { var:35, quality:9.9382011413574219e+01,
                      le:2.9349956512451172e+00 }
            -
               depth: 5
               value: 0.
               norm_class_idx: 0
            -
               depth: 5
               value: 0.
               norm_class_idx: 0
            -
               depth: 4
               value: 2.
               norm_class_idx: 2
            -
               depth: 3
               value: 1.
               norm_class_idx: 1
            -
               depth: 2
               value: 1.
               norm_class_idx: 1
            -
               depth: 1
               value: 5.
               norm_class_idx: 3
               splits:
                  - { var:46, quality:2.6429166793823242e+01,
                      le:5.8884223937988281e+01 }
            -
               depth: 2
               value: 0.
               norm_class_idx: 0
               splits:
                  - { var:41, quality:8., le:3.1996640625000000e+03 }
            -
               depth: 3
               value: 5.
               norm_class_idx: 3
            -
               depth: 3
               value: 0.
               norm_class_idx: 0
            -
               depth: 2
               value: 5.
               norm_class_idx: 3
               splits:
                  - { var:13, quality:2.4733333587646484e+01,
                      le:4.5652420043945312e+01 }
            -
               depth: 3
               value: 5.
               norm_class_idx: 3
               splits:
                  - { var:23, quality:2.5214284896850586e+01,
                      le:1.0608845949172974e-01 }
            -
               depth: 4
               value: 5.
               norm_class_idx: 3
               splits:
                  - { var:71, quality:2.6074073791503906e+01,
                      le:4.3256132812500000e+03 }
            -
               depth: 5
               value: 5.
               norm_class_idx: 3
            -
               depth: 5
               value: 1.
               norm_class_idx: 1
            -
               depth: 4
               value: 0.
               norm_class_idx: 0
            -
               depth: 3
               value: 0.
               norm_class_idx: 0
      -
         nodes:
            -
               depth: 0
               value: 0.
               norm_class_idx: 0
               splits:
                  - { var:21, quality:1.0155839538574219e+02,
                      le:1.1332312011718750e+02 }
            -
               depth: 1
               value: 0.
               norm_class_idx: 0
               splits:
                  - { var:73, quality:8.6211425781250000e+01,
                      le:8.9328735351562500e+02 }
            -
               depth: 2
               value: 0.
               norm_class_idx: 0
               splits:
                  - { var:6, quality:5.7658706665039062e+01,
                      le:1.0250639343261719e+02 }
            -
               depth: 3
               value: 0.
               norm_class_idx: 0
               splits:
                  - { var:1, quality:3.8455928802490234e+01,
                      le:3.8750000000000000e+02 }
            -
               depth: 4
               value: 2.
               norm_class_idx: 2
            -
               depth: 4
               value: 0.
               norm_class_idx: 0
               splits:
                  - { var:48, quality:3.7049655914306641e+01,
                      le:2.8554553985595703e+01 }
            -
               depth: 5
               value: 1.
               norm_class_idx: 1
            -
               depth: 5
               value: 0.
               norm_class_idx: 0
            -
               depth: 3
               value: 0.
               norm_class_idx: 0
            -
               depth: 2
               value: 0.
               norm_class_idx: 0
               splits:
                  - { var:32, quality:4.0511112213134766e+01,
                      le:1.7076356410980225e+00 }
            -
               depth: 3
               value: 0.
               norm_class_idx: 0
               splits:
                  - { var:58, quality:4.2500000000000000e+01,
                      le:9.7345346212387085e-01 }
            -
               depth: 4
               value: 0.
               norm_class_idx: 0
               splits:
                  - { var:17, quality:3.9500000000000000e+01,
                      le:6.8838701248168945e+00 }
            -
               depth: 5
               value: 5.
               norm_class_idx: 3
            -
               depth: 5
               value: 0.
               norm_class_idx: 0
            -
               depth: 4
               value: 2.
               norm_class_idx: 2
               splits:
                  - { var:35, quality:1.0250000000000000e+01,
                      le:2.7657756805419922e+00 }
            -
               depth: 5
               value: 2.
               norm_class_idx: 2
            -
               depth: 5
               value: 0.
               norm_class_idx: 0
            -
               depth: 3
               value: 5.
               norm_class_idx: 3
            -
               depth: 1
               value: 5.
               norm_class_idx: 3
               splits:
                  - { var:70, quality:2.8998447418212891e+01,
                      le:7.8946395874023438e+01 }
            -
               depth: 2
               value: 0.
               norm_class_idx: 0
               splits:
                  - { var:21, quality:1.6133333206176758e+01,
                      le:9.3795233154296875e+02 }
            -
               depth: 3
               value: 0.
               norm_class_idx: 0
               splits:
                  - { var:55, quality:14., le:2.4626668930053711e+01 }
            -
               depth: 4
               value: 0.
               norm_class_idx: 0
            -
               depth: 4
               value: 0.
               norm_class_idx: 0
            -
               depth: 3
               value: 1.
               norm_class_idx: 1
            -
               depth: 2
               value: 5.
               norm_class_idx: 3
               splits:
                  - { var:52, quality:2.1824390411376953e+01,
                      le:1.0726408958435059e+01 }
            -
               depth: 3
               value: 1.
               norm_class_idx: 1
               splits:
                  - { var:66, quality:1.3181818008422852e+01,
                      le:1.5348571777343750e+02 }
            -
               depth: 4
               value: 5.
               norm_class_idx: 3
            -
               depth: 4
               value: 1.
               norm_class_idx: 1
               splits:
                  - { var:27, quality:11., le:1.5386239624023438e+02 }
            -
               depth: 5
               value: 1.
               norm_class_idx: 1
            -
               depth: 5
               value: 2.
               norm_class_idx: 2
            -
               depth: 3
               value: 5.
               norm_class_idx: 3
               splits:
                  - { var:38, quality:2.2579999923706055e+01,
                      le:8.0709218978881836e-01 }
            -
               depth: 4
               value: 5.
               norm_class_idx: 3
               splits:
                  - { var:3, quality:1.7102941513061523e+01,
                      le:3.4640125930309296e-02 }
            -
               depth: 5
               value: 0.
               norm_class_idx: 0
            -
               depth: 5
               value: 5.
               norm_class_idx: 3
            -
               depth: 4
               value: 2.
               norm_class_idx: 2
               splits:
                  - { var:9, quality:1.2820512771606445e+01,
                      le:2.6466022949218750e+03 }
            -
               depth: 5
               value: 2.
               norm_class_idx: 2
            -
               depth: 5
               value: 1.
               norm_class_idx: 1
      -
         nodes:
            -
               depth: 0
               value: 0.
               norm_class_idx: 0
               splits:
                  - { var:34, quality:1.0333840942382812e+02,
                      le:1.8659150600433350e+00 }
            -
               depth: 1
               value: 0.
               norm_class_idx: 0
               splits:
                  - { var:74, quality:9.9272636413574219e+01,
                      le:8.9794030761718750e+02 }
            -
               depth: 2
               value: 0.
               norm_class_idx: 0
               splits:
                  - { var:53, quality:5.3101352691650391e+01,
                      le:6.4384126663208008e+00 }
            -
               depth: 3
               value: 0.
               norm_class_idx: 0
               splits:
                  - { var:6, quality:5.3841251373291016e+01,
                      le:2.3943351745605469e+01 }
            -
               depth: 4
               value: 0.
               norm_class_idx: 0
               splits:
                  - { var:0, quality:2.8293952941894531e+01,
                      le:1.6458332519531250e+03 }
            -
               depth: 5
               value: 0.
               norm_class_idx: 0
            -
               depth: 5
               value: 0.
               norm_class_idx: 0
            -
               depth: 4
               value: 0.
               norm_class_idx: 0
               splits:
                  - { var:0, quality:3.1320512771606445e+01,
                      le:9.8922412109375000e+02 }
            -
               depth: 5
               value: 1.
               norm_class_idx: 1
            -
               depth: 5
               value: 0.
               norm_class_idx: 0
            -
               depth: 3
               value: 5.
               norm_class_idx: 3
            -
               depth: 2
               value: 0.
               norm_class_idx: 0
               splits:
                  - { var:46, quality:5.4987564086914062e+01,
                      le:1.2641619890928268e-02 }
            -
               depth: 3
               value: 0.
               norm_class_idx: 0
               splits:
                  - { var:41, quality:5.3938312530517578e+01,
                      le:1.1081884765625000e+03 }
            -
               depth: 4
               value: 0.
               norm_class_idx: 0
               splits:
                  - { var:61, quality:5.1111110687255859e+01,
                      le:2.2474314880371094e+02 }
            -
               depth: 5
               value: 0.
               norm_class_idx: 0
            -
               depth: 5
               value: 1.
               norm_class_idx: 1
            -
               depth: 4
               value: 0.
               norm_class_idx: 0
               splits:
                  - { var:8, quality:9.3333330154418945e+00,
                      le:7.3343542480468750e+02 }
            -
               depth: 5
               value: 5.
               norm_class_idx: 3
            -
               depth: 5
               value: 0.
               norm_class_idx: 0
            -
               depth: 3
               value: 0.
               norm_class_idx: 0
               splits:
                  - { var:52, quality:8.2500000000000000e+00,
                      le:8.5959377288818359e+00 }
            -
               depth: 4
               value: 2.
               norm_class_idx: 2
            -
               depth: 4
               value: 0.
               norm_class_idx: 0
            -
               depth: 1
               value: 5.
               norm_class_idx: 3
               splits:
                  - { var:36, quality:1.8392856597900391e+01,
                      le:1.8572676181793213e+00 }
            -
               depth: 2
               value: 2.
               norm_class_idx: 2
               splits:
                  - { var:38, quality:11., le:6.7671525478363037e-01 }
            -
               depth: 3
               value: 5.
               norm_class_idx: 3
               splits:
                  - { var:52, quality:1.0500000000000000e+01,
                      le:4.6640743255615234e+01 }
            -
               depth: 4
               value: 0.
               norm_class_idx: 0
               splits:
                  - { var:14, quality:9.1428575515747070e+00,
                      le:2.1510563790798187e-02 }
            -
               depth: 5
               value: 0.
               norm_class_idx: 0
            -
               depth: 5
               value: 1.
               norm_class_idx: 1
            -
               depth: 4
               value: 5.
               norm_class_idx: 3
            -
               depth: 3
               value: 2.
               norm_class_idx: 2
            -
               depth: 2
               value: 5.
               norm_class_idx: 3
               splits:
                  - { var:30, quality:14., le:4.5975546836853027e+00 }
            -
               depth: 3
               value: 5.
               norm_class_idx: 3
            -
               depth: 3
               value: 1.
               norm_class_idx: 1
      -
         nodes:
            -
               depth: 0
               value: 0.
               norm_class_idx: 0
               splits:
                  - { var:30, quality:1.0228775787353516e+02,
                      le:1.7694393396377563e+00 }
            -
               depth: 1
               value: 0.
               norm_class_idx: 0
               splits:
                  - { var:22, quality:9.3805557250976562e+01,
                      le:1.4789099121093750e+02 }
            -
               depth: 2
               value: 0.
               norm_class_idx: 0
               splits:
                  - { var:65, quality:6.1554363250732422e+01,
                      le:1.7164308166503906e+02 }
            -
               depth: 3
               value: 0.
               norm_class_idx: 0
               splits:
                  - { var:27, quality:5.7854839324951172e+01,
                      le:8.7214501953125000e+02 }
            -
               depth: 4
               value: 0.
               norm_class_idx: 0
               splits:
                  - { var:1, quality:5.7628070831298828e+01,
                      le:6.5891473388671875e+02 }
            -
               depth: 5
               value: 2.
               norm_class_idx: 2
            -
               depth: 5
               value: 0.
               norm_class_idx: 0
            -
               depth: 4
               value: 2.
               norm_class_idx: 2
            -
               depth: 3
               value: 2.
               norm_class_idx: 2
               splits:
                  - { var:1, quality:1.8870967864990234e+01,
                      le:6.5281921386718750e+02 }
            -
               depth: 4
               value: 5.
               norm_class_idx: 3
            -
               depth: 4
               value: 2.
               norm_class_idx: 2
               splits:
                  - { var:22, quality:1.6500000000000000e+01,
                      le:7.3504196166992188e+01 }
            -
               depth: 5
               value: 2.
               norm_class_idx: 2
            -
               depth: 5
               value: 0.
               norm_class_idx: 0
            -
               depth: 2
               value: 0.
               norm_class_idx: 0
               splits:
                  - { var:38, quality:4.2791667938232422e+01,
                      le:1.1589500904083252e+00 }
            -
               depth: 3
               value: 0.
               norm_class_idx: 0
               splits:
                  - { var:32, quality:4.3545455932617188e+01,
                      le:1.5122764110565186e+00 }
            -
               depth: 4
               value: 0.
               norm_class_idx: 0
               splits:
                  - { var:39, quality:44., le:1.0842555761337280e+00 }
            -
               depth: 5
               value: 0.
               norm_class_idx: 0
            -
               depth: 5
               value: 5.
               norm_class_idx: 3
            -
               depth: 4
               value: 2.
               norm_class_idx: 2
            -
               depth: 3
               value: 0.
               norm_class_idx: 0
            -
               depth: 1
               value: 5.
               norm_class_idx: 3
               splits:
                  - { var:15, quality:2.4454837799072266e+01,
                      le:1.1493019014596939e-01 }
            -
               depth: 2
               value: 0.
               norm_class_idx: 0
               splits:
                  - { var:51, quality:1.1384614944458008e+01,
                      le:2.8835788726806641e+01 }
            -
               depth: 3
               value: 5.
               norm_class_idx: 3
               splits:
                  - { var:22, quality:7.1999998092651367e+00,
                      le:1.9095716857910156e+02 }
            -
               depth: 4
               value: 5.
               norm_class_idx: 3
            -
               depth: 4
               value: 0.
               norm_class_idx: 0
            -
               depth: 3
               value: 0.
               norm_class_idx: 0
            -
               depth: 2
               value: 5.
               norm_class_idx: 3
               splits:
                  - { var:20, quality:1.9166666030883789e+01,
                      le:2.5969344377517700e-01 }
            -
               depth: 3
               value: 2.
               norm_class_idx: 2
            -
               depth: 3
               value: 5.
               norm_class_idx: 3
               splits:
                  - { var:30, quality:2.1763635635375977e+01,
                      le:2.0659203529357910e+00 }
            -
               depth: 4
               value: 2.
               norm_class_idx: 2
            -
               depth: 4
               value: 5.
               norm_class_idx: 3
               splits:
                  - { var:74, quality:2.0095237731933594e+01,
                      le:9.6674194335937500e+02 }
            -
               depth: 5
               value: 5.
               norm_class_idx: 3
            -
               depth: 5
               value: 2.
               norm_class_idx: 2
      -
         nodes:
            -
               depth: 0
               value: 0.
               norm_class_idx: 0
               splits:
                  - { var:55, quality:1.0980519104003906e+02,
                      le:4.5200042724609375e+02 }
            -
               depth: 1
               value: 0.
               norm_class_idx: 0
               splits:
                  - { var:63, quality:9.9169639587402344e+01,
                      le:1.7510400390625000e+03 }
            -
               depth: 2
               value: 0.
               norm_class_idx: 0
               splits:
                  - { var:1, quality:1.0376551818847656e+02,
                      le:2.0518232421875000e+03 }
            -
               depth: 3
               value: 0.
               norm_class_idx: 0
               splits:
                  - { var:0, quality:9.0710060119628906e+01,
                      le:4.1066213989257812e+02 }
            -
               depth: 4
               value: 1.
               norm_class_idx: 1
            -
               depth: 4
               value: 0.
               norm_class_idx: 0
               splits:
                  - { var:35, quality:9.1932983398437500e+01,
                      le:1.1366262435913086e+01 }
            -
               depth: 5
               value: 0.
               norm_class_idx: 0
            -
               depth: 5
               value: 5.
               norm_class_idx: 3
            -
               depth: 3
               value: 1.
               norm_class_idx: 1
               splits:
                  - { var:10, quality:2.3600000381469727e+01,
                      le:1.5157875976562500e+03 }
            -
               depth: 4
               value: 0.
               norm_class_idx: 0
               splits:
                  - { var:18, quality:1.7309463500976562e+01,
                      le:1.0447452545166016e+02 }
            -
               depth: 5
               value: 0.
               norm_class_idx: 0
            -
               depth: 5
               value: 1.
               norm_class_idx: 1
            -
               depth: 4
               value: 1.
               norm_class_idx: 1
            -
               depth: 2
               value: 2.
               norm_class_idx: 2
            -
               depth: 1
               value: 5.
               norm_class_idx: 3
               splits:
                  - { var:22, quality:2.2571428298950195e+01,
                      le:1.4677056884765625e+02 }
            -
               depth: 2
               value: 5.
               norm_class_idx: 3
               splits:
                  - { var:62, quality:2.3551723480224609e+01,
                      le:2.3495596313476562e+02 }
            -
               depth: 3
               value: 5.
               norm_class_idx: 3
               splits:
                  - { var:76, quality:2.0589742660522461e+01,
                      le:1.2032049804687500e+04 }
            -
               depth: 4
               value: 5.
               norm_class_idx: 3
               splits:
                  - { var:37, quality:2.1250000000000000e+01,
                      le:1.0401739501953125e+03 }
            -
               depth: 5
               value: 5.
               norm_class_idx: 3
            -
               depth: 5
               value: 0.
               norm_class_idx: 0
            -
               depth: 4
               value: 2.
               norm_class_idx: 2
            -
               depth: 3
               value: 1.
               norm_class_idx: 1
            -
               depth: 2
               value: 0.
               norm_class_idx: 0
      -
         nodes:
            -
               depth: 0
               value: 0.
               norm_class_idx: 0
               splits:
                  - { var:45, quality:1.0837700653076172e+02,
                      le:1.2807089233398438e+02 }
            -
               depth: 1
               value: 0.
               norm_class_idx: 0
               splits:
                  - { var:50, quality:8.1164993286132812e+01,
                      le:8.2480155944824219e+01 }
            -
               depth: 2
               value: 0.
               norm_class_idx: 0
               splits:
                  - { var:27, quality:6.7002067565917969e+01,
                      le:1.9177389526367188e+02 }
            -
               depth: 3
               value: 0.
               norm_class_idx: 0
               splits:
                  - { var:51, quality:6.3979019165039062e+01,
                      le:2.1059928894042969e+01 }
            -
               depth: 4
               value: 0.
               norm_class_idx: 0
               splits:
                  - { var:68, quality:6.2517730712890625e+01,
                      le:4.3233144531250000e+03 }
            -
               depth: 5
               value: 0.
               norm_class_idx: 0
            -
               depth: 5
               value: 2.
               norm_class_idx: 2
            -
               depth: 4
               value: 1.
               norm_class_idx: 1
            -
               depth: 3
               value: 2.
               norm_class_idx: 2
               splits:
                  - { var:32, quality:9.1000003814697266e+00,
                      le:4.8669914245605469e+01 }
            -
               depth: 4
               value: 2.
               norm_class_idx: 2
               splits:
                  - { var:1, quality:9.3333330154418945e+00,
                      le:2.3577592773437500e+03 }
            -
               depth: 5
               value: 2.
               norm_class_idx: 2
            -
               depth: 5
               value: 0.
               norm_class_idx: 0
            -
               depth: 4
               value: 1.
               norm_class_idx: 1
            -
               depth: 2
               value: 5.
               norm_class_idx: 3
               splits:
                  - { var:21, quality:2.2554944992065430e+01,
                      le:2.7379141235351562e+02 }
            -
               depth: 3
               value: 5.
               norm_class_idx: 3
               splits:
                  - { var:54, quality:1.9923076629638672e+01,
                      le:2.5586277770996094e+02 }
            -
               depth: 4
               value: 5.
               norm_class_idx: 3
               splits:
                  - { var:60, quality:2.4090909957885742e+01,
                      le:1.4688887023925781e+02 }
            -
               depth: 5
               value: 5.
               norm_class_idx: 3
            -
               depth: 5
               value: 2.
               norm_class_idx: 2
            -
               depth: 4
               value: 0.
               norm_class_idx: 0
            -
               depth: 3
               value: 0.
               norm_class_idx: 0
               splits:
                  - { var:63, quality:9.6666669845581055e+00,
                      le:2.0535000610351562e+02 }
            -
               depth: 4
               value: 0.
               norm_class_idx: 0
            -
               depth: 4
               value: 5.
               norm_class_idx: 3
            -
               depth: 1
               value: 0.
               norm_class_idx: 0
               splits:
                  - { var:3, quality:4.8618183135986328e+01,
                      le:1.3011911883950233e-02 }
            -
               depth: 2
               value: 1.
               norm_class_idx: 1
            -
               depth: 2
               value: 0.
               norm_class_idx: 0
               splits:
                  - { var:5, quality:4.8226413726806641e+01,
                      le:1.2129179000854492e+01 }
            -
               depth: 3
               value: 0.
               norm_class_idx: 0
               splits:
                  - { var:58, quality:4.8540817260742188e+01,
                      le:1.3067355155944824e+00 }
            -
               depth: 4
               value: 0.
               norm_class_idx: 0
               splits:
                  - { var:61, quality:4.7666667938232422e+01,
                      le:7.0045181274414062e+01 }
            -
               depth: 5
               value: 0.
               norm_class_idx: 0
            -
               depth: 5
               value: 0.
               norm_class_idx: 0
            -
               depth: 4
               value: 0.
               norm_class_idx: 0
            -
               depth: 3
               value: 1.
               norm_class_idx: 1
      -
         nodes:
            -
               depth: 0
               value: 0.
               norm_class_idx: 0
               splits:
                  - { var:3, quality:1.1212443542480469e+02,
                      le:6.3015446066856384e-02 }
            -
               depth: 1
               value: 0.
               norm_class_idx: 0
               splits:
                  - { var:46, quality:1.0119355010986328e+02,
                      le:1.4045524597167969e+02 }
            -
               depth: 2
               value: 0.
               norm_class_idx: 0
               splits:
                  - { var:57, quality:1.0113479614257812e+02,
                      le:8.6654479980468750e+01 }
            -
               depth: 3
               value: 0.
               norm_class_idx: 0
               splits:
                  - { var:7, quality:8.0928482055664062e+01,
                      le:2.8008081054687500e+03 }
            -
               depth: 4
               value: 0.
               norm_class_idx: 0
               splits:
                  - { var:74, quality:3.9369018554687500e+01,
                      le:8.4953515625000000e+02 }
            -
               depth: 5
               value: 0.
               norm_class_idx: 0
            -
               depth: 5
               value: 0.
               norm_class_idx: 0
            -
               depth: 4
               value: 0.
               norm_class_idx: 0
               splits:
                  - { var:60, quality:4.8432434082031250e+01,
                      le:3.7440985107421875e+02 }
            -
               depth: 5
               value: 0.
               norm_class_idx: 0
            -
               depth: 5
               value: 2.
               norm_class_idx: 2
            -
               depth: 3
               value: 0.
               norm_class_idx: 0
               splits:
                  - { var:73, quality:3.0066667556762695e+01,
                      le:8.5487377929687500e+02 }
            -
               depth: 4
               value: 1.
               norm_class_idx: 1
            -
               depth: 4
               value: 0.
               norm_class_idx: 0
               splits:
                  - { var:38, quality:30., le:2.4411981105804443e+00 }
            -
               depth: 5
               value: 0.
               norm_class_idx: 0
            -
               depth: 5
               value: 5.
               norm_class_idx: 3
            -
               depth: 2
               value: 5.
               norm_class_idx: 3
            -
               depth: 1
               value: 5.
               norm_class_idx: 3
               splits:
                  - { var:31, quality:2.1511905670166016e+01,
                      le:9.2217047119140625e+02 }
            -
               depth: 2
               value: 5.
               norm_class_idx: 3
               splits:
                  - { var:50, quality:21., le:1.3858679199218750e+02 }
            -
               depth: 3
               value: 5.
               norm_class_idx: 3
            -
               depth: 3
               value: 1.
               norm_class_idx: 1
            -
               depth: 2
               value: 0.
               norm_class_idx: 0
               splits:
                  - { var:64, quality:1.2375000000000000e+01,
                      le:1.1441275024414062e+02 }
            -
               depth: 3
               value: 1.
               norm_class_idx: 1
               splits:
                  - { var:31, quality:8.2857141494750977e+00,
                      le:9.5062255859375000e+02 }
            -
               depth: 4
               value: 1.
               norm_class_idx: 1
            -
               depth: 4
               value: 0.
               norm_class_idx: 0
            -
               depth: 3
               value: 0.
               norm_class_idx: 0
      -
         nodes:
            -
               depth: 0
               value: 0.
               norm_class_idx: 0
               splits:
                  - { var:11, quality:1.0234225463867188e+02,
                      le:6.1899975585937500e+02 }
            -
               depth: 1
               value: 0.
               norm_class_idx: 0
               splits:
                  - { var:27, quality:9.0286483764648438e+01,
                      le:2.1900845336914062e+02 }
            -
               depth: 2
               value: 0.
               norm_class_idx: 0
               splits:
                  - { var:8, quality:8.9640930175781250e+01,
                      le:3.1148037910461426e+00 }
            -
               depth: 3
               value: 0.
               norm_class_idx: 0
               splits:
                  - { var:6, quality:5.1255439758300781e+01,
                      le:7.2900375366210938e+01 }
            -
               depth: 4
               value: 0.
               norm_class_idx: 0
               splits:
                  - { var:6, quality:2.1976415634155273e+01,
                      le:3.4613937377929688e+01 }
            -
               depth: 5
               value: 0.
               norm_class_idx: 0
            -
               depth: 5
               value: 1.
               norm_class_idx: 1
            -
               depth: 4
               value: 0.
               norm_class_idx: 0
            -
               depth: 3
               value: 0.
               norm_class_idx: 0
               splits:
                  - { var:73, quality:4.7997642517089844e+01,
                      le:8.8126416015625000e+02 }
            -
               depth: 4
               value: 5.
               norm_class_idx: 3
               splits:
                  - { var:20, quality:10., le:2.4165022373199463e-01 }
            -
               depth: 5
               value: 5.
               norm_class_idx: 3
            -
               depth: 5
               value: 0.
               norm_class_idx: 0
            -
               depth: 4
               value: 0.
               norm_class_idx: 0
               splits:
                  - { var:67, quality:4.3823528289794922e+01,
                      le:8.9877885580062866e-01 }
            -
               depth: 5
               value: 0.
               norm_class_idx: 0
            -
               depth: 5
               value: 2.
               norm_class_idx: 2
            -
               depth: 2
               value: 1.
               norm_class_idx: 1
               splits:
                  - { var:1, quality:9.8222217559814453e+00,
                      le:1.5784050292968750e+03 }
            -
               depth: 3
               value: 2.
               norm_class_idx: 2
            -
               depth: 3
               value: 1.
               norm_class_idx: 1
            -
               depth: 1
               value: 5.
               norm_class_idx: 3
               splits:
                  - { var:62, quality:2.6425466537475586e+01,
                      le:1.7584571838378906e+02 }
            -
               depth: 2
               value: 1.
               norm_class_idx: 1
               splits:
                  - { var:61, quality:1.4598930358886719e+01,
                      le:1.4270507812500000e+02 }
            -
               depth: 3
               value: 1.
               norm_class_idx: 1
               splits:
                  - { var:68, quality:1.2238095283508301e+01,
                      le:8.7687963867187500e+02 }
            -
               depth: 4
               value: 1.
               norm_class_idx: 1
               splits:
                  - { var:0, quality:1.1600000381469727e+01,
                      le:2.0625000000000000e+03 }
            -
               depth: 5
               value: 1.
               norm_class_idx: 1
            -
               depth: 5
               value: 1.
               norm_class_idx: 1
            -
               depth: 4
               value: 0.
               norm_class_idx: 0
            -
               depth: 3
               value: 2.
               norm_class_idx: 2
               splits:
                  - { var:65, quality:9.5000000000000000e+00,
                      le:3.3627618408203125e+02 }
            -
               depth: 4
               value: 2.
               norm_class_idx: 2
            -
               depth: 4
               value: 0.
               norm_class_idx: 0
            -
               depth: 2
               value: 5.
               norm_class_idx: 3
               splits:
                  - { var:45, quality:2.3516483306884766e+01,
                      le:4.8471027374267578e+01 }
            -
               depth: 3
               value: 2.
               norm_class_idx: 2
            -
               depth: 3
               value: 5.
               norm_class_idx: 3
               splits:
                  - { var:45, quality:2.3350000381469727e+01,
                      le:1.2843417358398438e+02 }
            -
               depth: 4
               value: 5.
               norm_class_idx: 3
               splits:
                  - { var:55, quality:2.2090909957885742e+01,
                      le:9.4229536056518555e+00 }
            -
               depth: 5
               value: 1.
               norm_class_idx: 1
            -
               depth: 5
               value: 5.
               norm_class_idx: 3
            -
               depth: 4
               value: 0.
               norm_class_idx: 0
               splits:
                  - { var:18, quality:8.8181819915771484e+00,
                      le:1.8253692626953125e+02 }
            -
               depth: 5
               value: 1.
               norm_class_idx: 1
            -
               depth: 5
               value: 0.
               norm_class_idx: 0
      -
         nodes:
            -
               depth: 0
               value: 0.
               norm_class_idx: 0
               splits:
                  - { var:55, quality:1.0914141845703125e+02,
                      le:3.4875219726562500e+02 }
            -
               depth: 1
               value: 0.
               norm_class_idx: 0
               splits:
                  - { var:7, quality:9.9041458129882812e+01,
                      le:5.7032855224609375e+02 }
            -
               depth: 2
               value: 0.
               norm_class_idx: 0
               splits:
                  - { var:66, quality:2.4408496856689453e+01,
                      le:3.2490686035156250e+02 }
            -
               depth: 3
               value: 0.
               norm_class_idx: 0
               splits:
                  - { var:76, quality:2.5433332443237305e+01,
                      le:2.8881164923692205e-38 }
            -
               depth: 4
               value: 1.
               norm_class_idx: 1
               splits:
                  - { var:52, quality:2.1563636779785156e+01,
                      le:1.3431149721145630e+00 }
            -
               depth: 5
               value: 1.
               norm_class_idx: 1
            -
               depth: 5
               value: 5.
               norm_class_idx: 3
            -
               depth: 4
               value: 0.
               norm_class_idx: 0
            -
               depth: 3
               value: 2.
               norm_class_idx: 2
            -
               depth: 2
               value: 0.
               norm_class_idx: 0
               splits:
                  - { var:46, quality:8.5605072021484375e+01,
                      le:9.4816675409674644e-03 }
            -
               depth: 3
               value: 0.
               norm_class_idx: 0
               splits:
                  - { var:14, quality:8.5129669189453125e+01,
                      le:2.6079121977090836e-02 }
            -
               depth: 4
               value: 0.
               norm_class_idx: 0
               splits:
                  - { var:67, quality:8.5753280639648438e+01,
                      le:8.3309328556060791e-01 }
            -
               depth: 5
               value: 0.
               norm_class_idx: 0
            -
               depth: 5
               value: 2.
               norm_class_idx: 2
            -
               depth: 4
               value: 2.
               norm_class_idx: 2
            -
               depth: 3
               value: 2.
               norm_class_idx: 2
               splits:
                  - { var:8, quality:1.1309523582458496e+01,
                      le:1.3780263671875000e+03 }
            -
               depth: 4
               value: 2.
               norm_class_idx: 2
               splits:
                  - { var:48, quality:9.1999998092651367e+00,
                      le:2.9044866561889648e+00 }
            -
               depth: 5
               value: 0.
               norm_class_idx: 0
            -
               depth: 5
               value: 2.
               norm_class_idx: 2
            -
               depth: 4
               value: 1.
               norm_class_idx: 1
            -
               depth: 1
               value: 5.
               norm_class_idx: 3
               splits:
                  - { var:52, quality:2.4125000000000000e+01,
                      le:7.2432449340820312e+01 }
            -
               depth: 2
               value: 0.
               norm_class_idx: 0
               splits:
                  - { var:21, quality:9.9365081787109375e+00,
                      le:1.2847947692871094e+02 }
            -
               depth: 3
               value: 0.
               norm_class_idx: 0
            -
               depth: 3
               value: 2.
               norm_class_idx: 2
            -
               depth: 2
               value: 5.
               norm_class_idx: 3
               splits:
                  - { var:11, quality:2.0260869979858398e+01,
                      le:4.2772451171875000e+03 }
            -
               depth: 3
               value: 5.
               norm_class_idx: 3
               splits:
                  - { var:2, quality:22., le:1.4606016874313354e-01 }
            -
               depth: 4
               value: 5.
               norm_class_idx: 3
            -
               depth: 4
               value: 0.
               norm_class_idx: 0
            -
               depth: 3
               value: 1.
               norm_class_idx: 1
      -
         nodes:
            -
               depth: 0
               value: 0.
               norm_class_idx: 0
               splits:
                  - { var:47, quality:9.7162887573242188e+01,
                      le:4.9897395074367523e-03 }
            -
               depth: 1
               value: 0.
               norm_class_idx: 0
               splits:
                  - { var:35, quality:8.9385238647460938e+01,
                      le:4.4845848083496094e+00 }
            -
               depth: 2
               value: 0.
               norm_class_idx: 0
               splits:
                  - { var:8, quality:8.6018646240234375e+01,
                      le:4.2751823425292969e+01 }
            -
               depth: 3
               value: 0.
               norm_class_idx: 0
               splits:
                  - { var:56, quality:5.8251747131347656e+01,
                      le:1.9679492187500000e+02 }
            -
               depth: 4
               value: 0.
               norm_class_idx: 0
               splits:
                  - { var:60, quality:5.3222591400146484e+01,
                      le:3.9369575500488281e+01 }
            -
               depth: 5
               value: 0.
               norm_class_idx: 0
            -
               depth: 5
               value: 0.
               norm_class_idx: 0
            -
               depth: 4
               value: 5.
               norm_class_idx: 3
               splits:
                  - { var:14, quality:9.7272729873657227e+00,
                      le:2.3252186775207520e+00 }
            -
               depth: 5
               value: 5.
               norm_class_idx: 3
            -
               depth: 5
               value: 1.
               norm_class_idx: 1
            -
               depth: 3
               value: 0.
               norm_class_idx: 0
               splits:
                  - { var:33, quality:3.6604652404785156e+01,
                      le:1.0055346488952637e+00 }
            -
               depth: 4
               value: 0.
               norm_class_idx: 0
               splits:
                  - { var:15, quality:3.7428569793701172e+01,
                      le:3.4369271993637085e-01 }
            -
               depth: 5
               value: 0.
               norm_class_idx: 0
            -
               depth: 5
               value: 5.
               norm_class_idx: 3
            -
               depth: 4
               value: 2.
               norm_class_idx: 2
            -
               depth: 2
               value: 0.
               norm_class_idx: 0
               splits:
                  - { var:66, quality:1.6719999313354492e+01,
                      le:1.9799713134765625e+02 }
            -
               depth: 3
               value: 1.
               norm_class_idx: 1
               splits:
                  - { var:18, quality:1.0727272987365723e+01,
                      le:2.7542080688476562e+02 }
            -
               depth: 4
               value: 1.
               norm_class_idx: 1
               splits:
                  - { var:5, quality:9.6666669845581055e+00,
                      le:3.7641630172729492e+00 }
            -
               depth: 5
               value: 5.
               norm_class_idx: 3
            -
               depth: 5
               value: 1.
               norm_class_idx: 1
            -
               depth: 4
               value: 5.
               norm_class_idx: 3
            -
               depth: 3
               value: 0.
               norm_class_idx: 0
               splits:
                  - { var:73, quality:1.3285714149475098e+01,
                      le:8.8214562988281250e+02 }
            -
               depth: 4
               value: 5.
               norm_class_idx: 3
            -
               depth: 4
               value: 0.
               norm_class_idx: 0
               splits:
                  - { var:68, quality:1.3324999809265137e+01,
                      le:7.1918658447265625e+02 }
            -
               depth: 5
               value: 0.
               norm_class_idx: 0
            -
               depth: 5
               value: 2.
               norm_class_idx: 2
            -
               depth: 1
               value: 5.
               norm_class_idx: 3
               splits:
                  - { var:0, quality:1.6613332748413086e+01,
                      le:3.2007895507812500e+03 }
            -
               depth: 2
               value: 5.
               norm_class_idx: 3
               splits:
                  - { var:32, quality:1.6714284896850586e+01,
                      le:3.0968093872070312e+00 }
            -
               depth: 3
               value: 5.
               norm_class_idx: 3
               splits:
                  - { var:49, quality:16., le:3.2861114501953125e+02 }
            -
               depth: 4
               value: 5.
               norm_class_idx: 3
               splits:
                  - { var:68, quality:1.6117647171020508e+01,
                      le:9.1494262695312500e+02 }
            -
               depth: 5
               value: 5.
               norm_class_idx: 3
            -
               depth: 5
               value: 0.
               norm_class_idx: 0
            -
               depth: 4
               value: 2.
               norm_class_idx: 2
            -
               depth: 3
               value: 2.
               norm_class_idx: 2
            -
               depth: 2
               value: 1.
               norm_class_idx: 1
      -
         nodes:
            -
               depth: 0
               value: 0.
               norm_class_idx: 0
               splits:
                  - { var:1, quality:1.0969947814941406e+02,
                      le:2.6374855957031250e+03 }
            -
               depth: 1
               value: 0.
               norm_class_idx: 0
               splits:
                  - { var:36, quality:1.0482781219482422e+02,
                      le:1.0987734794616699e+00 }
            -
               depth: 2
               value: 0.
               norm_class_idx: 0
               splits:
                  - { var:73, quality:1.0067418670654297e+02,
                      le:9.1467260742187500e+02 }
            -
               depth: 3
               value: 0.
               norm_class_idx: 0
               splits:
                  - { var:53, quality:7.1494873046875000e+01,
                      le:6.2968072891235352e+00 }
            -
               depth: 4
               value: 0.
               norm_class_idx: 0
               splits:
                  - { var:36, quality:6.6958335876464844e+01,
                      le:5.2039337158203125e-01 }
            -
               depth: 5
               value: 0.
               norm_class_idx: 0
            -
               depth: 5
               value: 0.
               norm_class_idx: 0
            -
               depth: 4
               value: 1.
               norm_class_idx: 1
               splits:
                  - { var:46, quality:1.2600000381469727e+01,
                      le:7.5806419372558594e+01 }
            -
               depth: 5
               value: 1.
               norm_class_idx: 1
            -
               depth: 5
               value: 0.
               norm_class_idx: 0
            -
               depth: 3
               value: 0.
               norm_class_idx: 0
               splits:
                  - { var:47, quality:4.0051280975341797e+01,
                      le:4.7951779365539551e+00 }
            -
               depth: 4
               value: 0.
               norm_class_idx: 0
               splits:
                  - { var:35, quality:3.7200000762939453e+01,
                      le:1.1385419368743896e+00 }
            -
               depth: 5
               value: 0.
               norm_class_idx: 0
            -
               depth: 5
               value: 0.
               norm_class_idx: 0
            -
               depth: 4
               value: 2.
               norm_class_idx: 2
            -
               depth: 2
               value: 5.
               norm_class_idx: 3
               splits:
                  - { var:32, quality:1.6573427200317383e+01,
                      le:1.3010687828063965e+00 }
            -
               depth: 3
               value: 0.
               norm_class_idx: 0
               splits:
                  - { var:9, quality:9., le:7.4239509582519531e+01 }
            -
               depth: 4
               value: 0.
               norm_class_idx: 0
            -
               depth: 4
               value: 0.
               norm_class_idx: 0
            -
               depth: 3
               value: 5.
               norm_class_idx: 3
               splits:
                  - { var:56, quality:1.2575163841247559e+01,
                      le:1.3685549316406250e+03 }
            -
               depth: 4
               value: 5.
               norm_class_idx: 3
            -
               depth: 4
               value: 2.
               norm_class_idx: 2
               splits:
                  - { var:12, quality:9.5666666030883789e+00,
                      le:7.2690641880035400e-01 }
            -
               depth: 5
               value: 2.
               norm_class_idx: 2
            -
               depth: 5
               value: 5.
               norm_class_idx: 3
            -
               depth: 1
               value: 5.
               norm_class_idx: 3
               splits:
                  - { var:51, quality:1.5352941513061523e+01,
                      le:2.1642209030687809e-03 }
            -
               depth: 2
               value: 1.
               norm_class_idx: 1
            -
               depth: 2
               value: 5.
               norm_class_idx: 3
               splits:
                  - { var:62, quality:1.5125000000000000e+01,
                      le:3.0074389648437500e+02 }
            -
               depth: 3
               value: 5.
               norm_class_idx: 3
               splits:
                  - { var:34, quality:15., le:4.3945198059082031e+00 }
            -
               depth: 4
               value: 5.
               norm_class_idx: 3
            -
               depth: 4
               value: 1.
               norm_class_idx: 1
            -
               depth: 3
               value: 0.
               norm_class_idx: 0
      -
         nodes:
            -
               depth: 0
               value: 0.
               norm_class_idx: 0
               splits:
                  - { var:35, quality:1.0819841003417969e+02,
                      le:3.6812810897827148e+00 }
            -
               depth: 1
               value: 0.
               norm_class_idx: 0
               splits:
                  - { var:56, quality:8.9097824096679688e+01,
                      le:5.2347827148437500e+03 }
            -
               depth: 2
               value: 0.
               norm_class_idx: 0
               splits:
                  - { var:58, quality:8.9917457580566406e+01,
                      le:9.7576165199279785e-01 }
            -
               depth: 3
               value: 0.
               norm_class_idx: 0
               splits:
                  - { var:73, quality:8.8804512023925781e+01,
                      le:8.8126416015625000e+02 }
            -
               depth: 4
               value: 0.
               norm_class_idx: 0
               splits:
                  - { var:9, quality:5.8516384124755859e+01,
                      le:2.0854751586914062e+01 }
            -
               depth: 5
               value: 0.
               norm_class_idx: 0
            -
               depth: 5
               value: 5.
               norm_class_idx: 3
            -
               depth: 4
               value: 0.
               norm_class_idx: 0
               splits:
                  - { var:71, quality:3.6341464996337891e+01,
                      le:2.3723075866699219e+01 }
            -
               depth: 5
               value: 5.
               norm_class_idx: 3
            -
               depth: 5
               value: 0.
               norm_class_idx: 0
            -
               depth: 3
               value: 2.
               norm_class_idx: 2
            -
               depth: 2
               value: 5.
               norm_class_idx: 3
            -
               depth: 1
               value: 5.
               norm_class_idx: 3
               splits:
                  - { var:15, quality:3.0771015167236328e+01,
                      le:3.9124832153320312e+00 }
            -
               depth: 2
               value: 5.
               norm_class_idx: 3
               splits:
                  - { var:35, quality:2.7263793945312500e+01,
                      le:7.8030786514282227e+00 }
            -
               depth: 3
               value: 5.
               norm_class_idx: 3
               splits:
                  - { var:53, quality:2.1243244171142578e+01,
                      le:1.9401836395263672e+01 }
            -
               depth: 4
               value: 5.
               norm_class_idx: 3
               splits:
                  - { var:72, quality:2.2411764144897461e+01,
                      le:1.1482553710937500e+03 }
            -
               depth: 5
               value: 2.
               norm_class_idx: 2
            -
               depth: 5
               value: 5.
               norm_class_idx: 3
            -
               depth: 4
               value: 1.
               norm_class_idx: 1
            -
               depth: 3
               value: 0.
               norm_class_idx: 0
               splits:
                  - { var:45, quality:1.3914285659790039e+01,
                      le:1.0425389099121094e+02 }
            -
               depth: 4
               value: 0.
               norm_class_idx: 0
               splits:
                  - { var:72, quality:9.0222225189208984e+00,
                      le:5.8275146484375000e+02 }
            -
               depth: 5
               value: 0.
               norm_class_idx: 0
            -
               depth: 5
               value: 0.
               norm_class_idx: 0
            -
               depth: 4
               value: 5.
               norm_class_idx: 3
               splits:
                  - { var:18, quality:9.6666669845581055e+00,
                      le:2.2415170288085938e+02 }
            -
               depth: 5
               value: 5.
               norm_class_idx: 3
            -
               depth: 5
               value: 2.
               norm_class_idx: 2
            -
               depth: 2
               value: 1.
               norm_class_idx: 1
               splits:
                  - { var:22, quality:1.3199999809265137e+01,
                      le:1.4677056884765625e+02 }
            -
               depth: 3
               value: 1.
               norm_class_idx: 1
            -
               depth: 3
               value: 0.
               norm_class_idx: 0
      -
         nodes:
            -
               depth: 0
               value: 0.
               norm_class_idx: 0
               splits:
                  - { var:11, quality:1.0932848358154297e+02,
                      le:6.3221594238281250e+02 }
            -
               depth: 1
               value: 0.
               norm_class_idx: 0
               splits:
                  - { var:7, quality:1.0014707183837891e+02,
                      le:4.3112243652343750e+02 }
            -
               depth: 2
               value: 0.
               norm_class_idx: 0
               splits:
                  - { var:1, quality:2.0681482315063477e+01,
                      le:1.7836257324218750e+03 }
            -
               depth: 3
               value: 1.
               norm_class_idx: 1
               splits:
                  - { var:18, quality:1.1666666984558105e+01,
                      le:9.7768722534179688e+01 }
            -
               depth: 4
               value: 1.
               norm_class_idx: 1
               splits:
                  - { var:69, quality:1.0476190567016602e+01,
                      le:4.3616650390625000e+02 }
            -
               depth: 5
               value: 1.
               norm_class_idx: 1
            -
               depth: 5
               value: 2.
               norm_class_idx: 2
            -
               depth: 4
               value: 5.
               norm_class_idx: 3
            -
               depth: 3
               value: 0.
               norm_class_idx: 0
               splits:
                  - { var:17, quality:1.4800000190734863e+01,
                      le:6.7765668945312500e+03 }
            -
               depth: 4
               value: 0.
               norm_class_idx: 0
               splits:
                  - { var:1, quality:1.6070175170898438e+01,
                      le:2.6242424316406250e+03 }
            -
               depth: 5
               value: 0.
               norm_class_idx: 0
            -
               depth: 5
               value: 2.
               norm_class_idx: 2
            -
               depth: 4
               value: 1.
               norm_class_idx: 1
            -
               depth: 2
               value: 0.
               norm_class_idx: 0
               splits:
                  - { var:60, quality:8.7303169250488281e+01,
                      le:1.1871901702880859e+02 }
            -
               depth: 3
               value: 0.
               norm_class_idx: 0
               splits:
                  - { var:48, quality:5.6590114593505859e+01,
                      le:6.0554550170898438e+01 }
            -
               depth: 4
               value: 0.
               norm_class_idx: 0
               splits:
                  - { var:32, quality:5.2500000000000000e+01,
                      le:1.3283722400665283e+00 }
            -
               depth: 5
               value: 0.
               norm_class_idx: 0
            -
               depth: 5
               value: 1.
               norm_class_idx: 1
            -
               depth: 4
               value: 5.
               norm_class_idx: 3
               splits:
                  - { var:74, quality:1.2600000381469727e+01,
                      le:8.8103698730468750e+02 }
            -
               depth: 5
               value: 5.
               norm_class_idx: 3
            -
               depth: 5
               value: 0.
               norm_class_idx: 0
            -
               depth: 3
               value: 0.
               norm_class_idx: 0
               splits:
                  - { var:18, quality:3.5666667938232422e+01,
                      le:2.5049685668945312e+02 }
            -
               depth: 4
               value: 0.
               norm_class_idx: 0
            -
               depth: 4
               value: 0.
               norm_class_idx: 0
               splits:
                  - { var:58, quality:12., le:1.1384674310684204e+00 }
            -
               depth: 5
               value: 0.
               norm_class_idx: 0
            -
               depth: 5
               value: 2.
               norm_class_idx: 2
            -
               depth: 1
               value: 5.
               norm_class_idx: 3
               splits:
                  - { var:60, quality:2.4556671142578125e+01,
                      le:1.4688887023925781e+02 }
            -
               depth: 2
               value: 0.
               norm_class_idx: 0
               splits:
                  - { var:16, quality:1.8104394912719727e+01,
                      le:2.9789185523986816e+00 }
            -
               depth: 3
               value: 0.
               norm_class_idx: 0
               splits:
                  - { var:7, quality:1.8898395538330078e+01,
                      le:1.5177893066406250e+03 }
            -
               depth: 4
               value: 5.
               norm_class_idx: 3
               splits:
                  - { var:62, quality:6.5555553436279297e+00,
                      le:7.5297828674316406e+01 }
            -
               depth: 5
               value: 1.
               norm_class_idx: 1
            -
               depth: 5
               value: 5.
               norm_class_idx: 3
            -
               depth: 4
               value: 0.
               norm_class_idx: 0
               splits:
                  - { var:8, quality:1.5125000000000000e+01,
                      le:4.5727642822265625e+02 }
            -
               depth: 5
               value: 2.
               norm_class_idx: 2
            -
               depth: 5
               value: 0.
               norm_class_idx: 0
            -
               depth: 3
               value: 5.
               norm_class_idx: 3
               splits:
                  - { var:16, quality:13., le:2.7048727416992188e+02 }
            -
               depth: 4
               value: 5.
               norm_class_idx: 3
            -
               depth: 4
               value: 1.
               norm_class_idx: 1
            -
               depth: 2
               value: 2.
               norm_class_idx: 2
               splits:
                  - { var:64, quality:1.5153845787048340e+01,
                      le:1.7622689819335938e+02 }
            -
               depth: 3
               value: 5.
               norm_class_idx: 3
               splits:
                  - { var:58, quality:1.0675000190734863e+01,
                      le:2.6438355445861816e+00 }
            -
               depth: 4
               value: 5.
               norm_class_idx: 3
               splits:
                  - { var:71, quality:8., le:1.5460046386718750e+03 }
            -
               depth: 5
               value: 5.
               norm_class_idx: 3
            -
               depth: 5
               value: 0.
               norm_class_idx: 0
            -
               depth: 4
               value: 2.
               norm_class_idx: 2
            -
               depth: 3
               value: 2.
               norm_class_idx: 2
      -
         nodes:
            -
               depth: 0
               value: 0.
               norm_class_idx: 0
               splits:
                  - { var:50, quality:1.0865182495117188e+02,
                      le:8.2480155944824219e+01 }
            -
               depth: 1
               value: 0.
               norm_class_idx: 0
               splits:
                  - { var:68, quality:9.8228302001953125e+01,
                      le:1.3628117675781250e+03 }
            -
               depth: 2
               value: 0.
               norm_class_idx: 0
               splits:
                  - { var:14, quality:9.7163269042968750e+01,
                      le:1.1603736132383347e-01 }
            -
               depth: 3
               value: 0.
               norm_class_idx: 0
               splits:
                  - { var:49, quality:9.6552436828613281e+01,
                      le:8.9065093994140625e+01 }
            -
               depth: 4
               value: 0.
               norm_class_idx: 0
               splits:
                  - { var:63, quality:5.0276924133300781e+01,
                      le:1.0588126373291016e+02 }
            -
               depth: 5
               value: 0.
               norm_class_idx: 0
            -
               depth: 5
               value: 2.
               norm_class_idx: 2
            -
               depth: 4
               value: 0.
               norm_class_idx: 0
               splits:
                  - { var:23, quality:5.3448276519775391e+01,
                      le:5.1436297595500946e-02 }
            -
               depth: 5
               value: 0.
               norm_class_idx: 0
            -
               depth: 5
               value: 5.
               norm_class_idx: 3
            -
               depth: 3
               value: 1.
               norm_class_idx: 1
               splits:
                  - { var:63, quality:1.1555555343627930e+01,
                      le:2.1791467285156250e+02 }
            -
               depth: 4
               value: 2.
               norm_class_idx: 2
            -
               depth: 4
               value: 1.
               norm_class_idx: 1
            -
               depth: 2
               value: 2.
               norm_class_idx: 2
            -
               depth: 1
               value: 5.
               norm_class_idx: 3
               splits:
                  - { var:72, quality:2.3935384750366211e+01,
                      le:1.2918413085937500e+03 }
            -
               depth: 2
               value: 2.
               norm_class_idx: 2
               splits:
                  - { var:66, quality:1.3899999618530273e+01,
                      le:2.7800885009765625e+02 }
            -
               depth: 3
               value: 2.
               norm_class_idx: 2
               splits:
                  - { var:50, quality:1.2941176414489746e+01,
                      le:1.7919949340820312e+02 }
            -
               depth: 4
               value: 2.
               norm_class_idx: 2
               splits:
                  - { var:27, quality:1.5153845787048340e+01,
                      le:1.3046632385253906e+02 }
            -
               depth: 5
               value: 2.
               norm_class_idx: 2
            -
               depth: 5
               value: 0.
               norm_class_idx: 0
            -
               depth: 4
               value: 5.
               norm_class_idx: 3
            -
               depth: 3
               value: 5.
               norm_class_idx: 3
            -
               depth: 2
               value: 5.
               norm_class_idx: 3
               splits:
                  - { var:73, quality:1.8057142257690430e+01,
                      le:9.3957080078125000e+02 }
            -
               depth: 3
               value: 5.
               norm_class_idx: 3
               splits:
                  - { var:62, quality:1.9105262756347656e+01,
                      le:1.7991500854492188e+02 }
            -
               depth: 4
               value: 1.
               norm_class_idx: 1
            -
               depth: 4
               value: 5.
               norm_class_idx: 3
               splits:
                  - { var:38, quality:19., le:1.3111028671264648e+00 }
            -
               depth: 5
               value: 5.
               norm_class_idx: 3
            -
               depth: 5
               value: 1.
               norm_class_idx: 1
            -
               depth: 3
               value: 0.
               norm_class_idx: 0
      -
         nodes:
            -
               depth: 0
               value: 0.
               norm_class_idx: 0
               splits:
                  - { var:10, quality:1.0747487640380859e+02,
                      le:2.0155841064453125e+02 }
            -
               depth: 1
               value: 0.
               norm_class_idx: 0
               splits:
                  - { var:6, quality:9.2881622314453125e+01,
                      le:3.3813562393188477e+00 }
            -
               depth: 2
               value: 0.
               norm_class_idx: 0
               splits:
                  - { var:23, quality:2.8009803771972656e+01,
                      le:2.2861373424530029e-01 }
            -
               depth: 3
               value: 0.
               norm_class_idx: 0
               splits:
                  - { var:37, quality:2.7720430374145508e+01,
                      le:3.1419990234375000e+03 }
            -
               depth: 4
               value: 0.
               norm_class_idx: 0
               splits:
                  - { var:0, quality:2.6112852096557617e+01,
                      le:1.7280700683593750e+03 }
            -
               depth: 5
               value: 2.
               norm_class_idx: 2
            -
               depth: 5
               value: 0.
               norm_class_idx: 0
            -
               depth: 4
               value: 1.
               norm_class_idx: 1
            -
               depth: 3
               value: 5.
               norm_class_idx: 3
            -
               depth: 2
               value: 0.
               norm_class_idx: 0
               splits:
                  - { var:23, quality:7.3334159851074219e+01,
                      le:5.3903974592685699e-02 }
            -
               depth: 3
               value: 0.
               norm_class_idx: 0
               splits:
                  - { var:26, quality:7.1963638305664062e+01,
                      le:6.4714779853820801e+00 }
            -
               depth: 4
               value: 0.
               norm_class_idx: 0
               splits:
                  - { var:50, quality:7.2590911865234375e+01,
                      le:1.5613910675048828e+01 }
            -
               depth: 5
               value: 0.
               norm_class_idx: 0
            -
               depth: 5
               value: 0.
               norm_class_idx: 0
            -
               depth: 4
               value: 1.
               norm_class_idx: 1
            -
               depth: 3
               value: 5.
               norm_class_idx: 3
               splits:
                  - { var:23, quality:1.2285714149475098e+01,
                      le:6.7404836416244507e-02 }
            -
               depth: 4
               value: 5.
               norm_class_idx: 3
            -
               depth: 4
               value: 0.
               norm_class_idx: 0
            -
               depth: 1
               value: 5.
               norm_class_idx: 3
               splits:
                  - { var:66, quality:2.4866502761840820e+01,
                      le:2.0400372314453125e+02 }
            -
               depth: 2
               value: 1.
               norm_class_idx: 1
               splits:
                  - { var:10, quality:1.4500000000000000e+01,
                      le:1.5399523925781250e+03 }
            -
               depth: 3
               value: 5.
               norm_class_idx: 3
               splits:
                  - { var:37, quality:1.3186813354492188e+01,
                      le:1.0391286621093750e+03 }
            -
               depth: 4
               value: 5.
               norm_class_idx: 3
               splits:
                  - { var:73, quality:13., le:1.0338037109375000e+03 }
            -
               depth: 5
               value: 5.
               norm_class_idx: 3
            -
               depth: 5
               value: 0.
               norm_class_idx: 0
            -
               depth: 4
               value: 1.
               norm_class_idx: 1
            -
               depth: 3
               value: 1.
               norm_class_idx: 1
               splits:
                  - { var:8, quality:9.5454549789428711e+00,
                      le:1.0777199218750000e+04 }
            -
               depth: 4
               value: 1.
               norm_class_idx: 1
               splits:
                  - { var:63, quality:9.1999998092651367e+00,
                      le:3.3563290405273438e+02 }
            -
               depth: 5
               value: 1.
               norm_class_idx: 1
            -
               depth: 5
               value: 0.
               norm_class_idx: 0
            -
               depth: 4
               value: 0.
               norm_class_idx: 0
            -
               depth: 2
               value: 2.
               norm_class_idx: 2
               splits:
                  - { var:56, quality:2.0613094329833984e+01,
                      le:2.0702397460937500e+03 }
            -
               depth: 3
               value: 2.
               norm_class_idx: 2
               splits:
                  - { var:61, quality:1.5925000190734863e+01,
                      le:1.4523971557617188e+02 }
            -
               depth: 4
               value: 2.
               norm_class_idx: 2
            -
               depth: 4
               value: 2.
               norm_class_idx: 2
               splits:
                  - { var:28, quality:1.4666666984558105e+01,
                      le:2.3074087524414062e+02 }
            -
               depth: 5
               value: 2.
               norm_class_idx: 2
            -
               depth: 5
               value: 2.
               norm_class_idx: 2
            -
               depth: 3
               value: 5.
               norm_class_idx: 3
               splits:
                  - { var:40, quality:9.6923074722290039e+00,
                      le:1.0932652282714844e+02 }
            -
               depth: 4
               value: 5.
               norm_class_idx: 3
               splits:
                  - { var:60, quality:9.8666667938232422e+00,
                      le:1.4688887023925781e+02 }
            -
               depth: 5
               value: 5.
               norm_class_idx: 3
            -
               depth: 5
               value: 2.
               norm_class_idx: 2
            -
               depth: 4
               value: 0.
               norm_class_idx: 0
      -
         nodes:
            -
               depth: 0
               value: 0.
               norm_class_idx: 0
               splits:
                  - { var:11, quality:1.1143121337890625e+02,
                      le:5.5357324218750000e+02 }
            -
               depth: 1
               value: 0.
               norm_class_idx: 0
               splits:
                  - { var:69, quality:94., le:5.7014837646484375e+02 }
            -
               depth: 2
               value: 0.
               norm_class_idx: 0
               splits:
                  - { var:3, quality:9.2667839050292969e+01,
                      le:1.3011911883950233e-02 }
            -
               depth: 3
               value: 0.
               norm_class_idx: 0
               splits:
                  - { var:76, quality:5.8842105865478516e+01,
                      le:3.3631163143795610e-44 }
            -
               depth: 4
               value: 0.
               norm_class_idx: 0
               splits:
                  - { var:60, quality:4.7189189910888672e+01,
                      le:1.2946615600585938e+02 }
            -
               depth: 5
               value: 0.
               norm_class_idx: 0
            -
               depth: 5
               value: 2.
               norm_class_idx: 2
            -
               depth: 4
               value: 0.
               norm_class_idx: 0
            -
               depth: 3
               value: 0.
               norm_class_idx: 0
               splits:
                  - { var:14, quality:4.0529411315917969e+01,
                      le:3.3411193847656250e+01 }
            -
               depth: 4
               value: 0.
               norm_class_idx: 0
               splits:
                  - { var:65, quality:4.0857143402099609e+01,
                      le:4.5121667480468750e+02 }
            -
               depth: 5
               value: 0.
               norm_class_idx: 0
            -
               depth: 5
               value: 2.
               norm_class_idx: 2
            -
               depth: 4
               value: 5.
               norm_class_idx: 3
            -
               depth: 2
               value: 2.
               norm_class_idx: 2
            -
               depth: 1
               value: 5.
               norm_class_idx: 3
               splits:
                  - { var:50, quality:2.8142856597900391e+01,
                      le:8.2480155944824219e+01 }
            -
               depth: 2
               value: 1.
               norm_class_idx: 1
               splits:
                  - { var:65, quality:1.5337499618530273e+01,
                      le:2.9827221679687500e+02 }
            -
               depth: 3
               value: 1.
               norm_class_idx: 1
               splits:
                  - { var:62, quality:1.3642857551574707e+01,
                      le:3.4105297851562500e+02 }
            -
               depth: 4
               value: 1.
               norm_class_idx: 1
               splits:
                  - { var:50, quality:1.3500000000000000e+01,
                      le:3.1044839859008789e+01 }
            -
               depth: 5
               value: 5.
               norm_class_idx: 3
            -
               depth: 5
               value: 1.
               norm_class_idx: 1
            -
               depth: 4
               value: 0.
               norm_class_idx: 0
            -
               depth: 3
               value: 2.
               norm_class_idx: 2
            -
               depth: 2
               value: 5.
               norm_class_idx: 3
               splits:
                  - { var:31, quality:2.3388889312744141e+01,
                      le:8.8546618652343750e+02 }
            -
               depth: 3
               value: 0.
               norm_class_idx: 0
            -
               depth: 3
               value: 5.
               norm_class_idx: 3
               splits:
                  - { var:21, quality:2.2593547821044922e+01,
                      le:1.1332312011718750e+02 }
            -
               depth: 4
               value: 0.
               norm_class_idx: 0
            -
               depth: 4
               value: 5.
               norm_class_idx: 3
               splits:
                  - { var:24, quality:2.2053333282470703e+01,
                      le:3.2459035515785217e-02 }
            -
               depth: 5
               value: 5.
               norm_class_idx: 3
            -
               depth: 5
               value: 2.
               norm_class_idx: 2
      -
         nodes:
            -
               depth: 0
               value: 0.
               norm_class_idx: 0
               splits:
                  - { var:47, quality:1.0927512359619141e+02,
                      le:4.9897395074367523e-03 }
            -
               depth: 1
               value: 0.
               norm_class_idx: 0
               splits:
                  - { var:17, quality:1.0290908813476562e+02,
                      le:2.8239599609375000e+03 }
            -
               depth: 2
               value: 0.
               norm_class_idx: 0
               splits:
                  - { var:7, quality:9.0396881103515625e+01,
                      le:4.3112243652343750e+02 }
            -
               depth: 3
               value: 1.
               norm_class_idx: 1
               splits:
                  - { var:76, quality:19., le:2.8881164923692205e-38 }
            -
               depth: 4
               value: 1.
               norm_class_idx: 1
               splits:
                  - { var:17, quality:1.8200000762939453e+01,
                      le:1.8503029785156250e+03 }
            -
               depth: 5
               value: 2.
               norm_class_idx: 2
            -
               depth: 5
               value: 1.
               norm_class_idx: 1
            -
               depth: 4
               value: 0.
               norm_class_idx: 0
            -
               depth: 3
               value: 0.
               norm_class_idx: 0
               splits:
                  - { var:70, quality:8.0173667907714844e+01,
                      le:2.0116131591796875e+02 }
            -
               depth: 4
               value: 0.
               norm_class_idx: 0
               splits:
                  - { var:67, quality:6.9500000000000000e+01,
                      le:8.1320357322692871e-01 }
            -
               depth: 5
               value: 0.
               norm_class_idx: 0
            -
               depth: 5
               value: 2.
               norm_class_idx: 2
            -
               depth: 4
               value: 0.
               norm_class_idx: 0
               splits:
                  - { var:63, quality:2.0952381134033203e+01,
                      le:2.5455027770996094e+02 }
            -
               depth: 5
               value: 5.
               norm_class_idx: 3
            -
               depth: 5
               value: 0.
               norm_class_idx: 0
            -
               depth: 2
               value: 0.
               norm_class_idx: 0
            -
               depth: 1
               value: 5.
               norm_class_idx: 3
               splits:
                  - { var:74, quality:1.8466667175292969e+01,
                      le:9.4113671875000000e+02 }
            -
               depth: 2
               value: 5.
               norm_class_idx: 3
               splits:
                  - { var:16, quality:1.7500000000000000e+01,
                      le:1.3476354980468750e+02 }
            -
               depth: 3
               value: 5.
               norm_class_idx: 3
               splits:
                  - { var:18, quality:16., le:2.9083078002929688e+02 }
            -
               depth: 4
               value: 5.
               norm_class_idx: 3
            -
               depth: 4
               value: 1.
               norm_class_idx: 1
            -
               depth: 3
               value: 1.
               norm_class_idx: 1
            -
               depth: 2
               value: 2.
               norm_class_idx: 2
      -
         nodes:
            -
               depth: 0
               value: 0.
               norm_class_idx: 0
               splits:
                  - { var:56, quality:1.1107691955566406e+02,
                      le:1.7865783691406250e+03 }
            -
               depth: 1
               value: 0.
               norm_class_idx: 0
               splits:
                  - { var:20, quality:9.9994537353515625e+01,
                      le:4.1268503665924072e-01 }
            -
               depth: 2
               value: 0.
               norm_class_idx: 0
               splits:
                  - { var:14, quality:5.8544601440429688e+01,
                      le:1.1204179525375366e+00 }
            -
               depth: 3
               value: 0.
               norm_class_idx: 0
               splits:
                  - { var:28, quality:5.7752380371093750e+01,
                      le:3.2040069580078125e+02 }
            -
               depth: 4
               value: 0.
               norm_class_idx: 0
               splits:
                  - { var:3, quality:5.6356300354003906e+01,
                      le:5.6935384869575500e-02 }
            -
               depth: 5
               value: 0.
               norm_class_idx: 0
            -
               depth: 5
               value: 5.
               norm_class_idx: 3
            -
               depth: 4
               value: 2.
               norm_class_idx: 2
            -
               depth: 3
               value: 2.
               norm_class_idx: 2
               splits:
                  - { var:72, quality:9.2500000000000000e+00,
                      le:1.2206593017578125e+03 }
            -
               depth: 4
               value: 2.
               norm_class_idx: 2
            -
               depth: 4
               value: 1.
               norm_class_idx: 1
            -
               depth: 2
               value: 0.
               norm_class_idx: 0
               splits:
                  - { var:34, quality:4.9141304016113281e+01,
                      le:2.2089538574218750e+00 }
            -
               depth: 3
               value: 0.
               norm_class_idx: 0
               splits:
                  - { var:16, quality:5.2064517974853516e+01,
                      le:1.1741052246093750e+02 }
            -
               depth: 4
               value: 0.
               norm_class_idx: 0
               splits:
                  - { var:15, quality:5.1007793426513672e+01,
                      le:2.6021081209182739e-01 }
            -
               depth: 5
               value: 0.
               norm_class_idx: 0
            -
               depth: 5
               value: 0.
               norm_class_idx: 0
            -
               depth: 4
               value: 1.
               norm_class_idx: 1
            -
               depth: 3
               value: 0.
               norm_class_idx: 0
            -
               depth: 1
               value: 5.
               norm_class_idx: 3
               splits:
                  - { var:33, quality:2.0657142639160156e+01,
                      le:6.6148638725280762e-01 }
            -
               depth: 2
               value: 5.
               norm_class_idx: 3
               splits:
                  - { var:31, quality:2.0562500000000000e+01,
                      le:1.0473138427734375e+03 }
            -
               depth: 3
               value: 5.
               norm_class_idx: 3
               splits:
                  - { var:20, quality:2.0459259033203125e+01,
                      le:1.2975139617919922e+00 }
            -
               depth: 4
               value: 5.
               norm_class_idx: 3
               splits:
                  - { var:55, quality:2.0559999465942383e+01,
                      le:3.3959362792968750e+02 }
            -
               depth: 5
               value: 0.
               norm_class_idx: 0
            -
               depth: 5
               value: 5.
               norm_class_idx: 3
            -
               depth: 4
               value: 2.
               norm_class_idx: 2
            -
               depth: 3
               value: 0.
               norm_class_idx: 0
            -
               depth: 2
               value: 0.
               norm_class_idx: 0
      -
         nodes:
            -
               depth: 0
               value: 0.
               norm_class_idx: 0
               splits:
                  - { var:14, quality:1.0661085510253906e+02,
                      le:2.6459228515625000e+03 }
            -
               depth: 1
               value: 0.
               norm_class_idx: 0
               splits:
                  - { var:5, quality:1.0760762023925781e+02,
                      le:3.2690343856811523e+00 }
            -
               depth: 2
               value: 0.
               norm_class_idx: 0
               splits:
                  - { var:45, quality:3.5655914306640625e+01,
                      le:1.0433898925781250e+02 }
            -
               depth: 3
               value: 0.
               norm_class_idx: 0
               splits:
                  - { var:76, quality:2.9804597854614258e+01,
                      le:2.2846770162351818e-41 }
            -
               depth: 4
               value: 0.
               norm_class_idx: 0
               splits:
                  - { var:8, quality:2.6761905670166016e+01,
                      le:3.8103311157226562e+02 }
            -
               depth: 5
               value: 0.
               norm_class_idx: 0
            -
               depth: 5
               value: 2.
               norm_class_idx: 2
            -
               depth: 4
               value: 0.
               norm_class_idx: 0
            -
               depth: 3
               value: 5.
               norm_class_idx: 3
               splits:
                  - { var:62, quality:1.3153845787048340e+01,
                      le:2.6278018188476562e+02 }
            -
               depth: 4
               value: 5.
               norm_class_idx: 3
               splits:
                  - { var:51, quality:13., le:7.7406495809555054e-01 }
            -
               depth: 5
               value: 1.
               norm_class_idx: 1
            -
               depth: 5
               value: 5.
               norm_class_idx: 3
            -
               depth: 4
               value: 0.
               norm_class_idx: 0
            -
               depth: 2
               value: 0.
               norm_class_idx: 0
               splits:
                  - { var:47, quality:8.4150001525878906e+01,
                      le:7.3032164946198463e-03 }
            -
               depth: 3
               value: 0.
               norm_class_idx: 0
               splits:
                  - { var:61, quality:8.4842102050781250e+01,
                      le:3.3415747070312500e+02 }
            -
               depth: 4
               value: 0.
               norm_class_idx: 0
               splits:
                  - { var:9, quality:8.3440628051757812e+01,
