%YAML:1.0
---
opencv_ml_rtrees:
   format: 3
   is_classifier: 1
   var_all: 75
   var_count: 74
   ord_var_count: 74
   cat_var_count: 1
   training_params:
      use_surrogates: 0
      max_categories: 15
      regression_accuracy: 0.
      max_depth: 25
      min_sample_count: 5
      cross_validation_folds: 0
      nactive_vars: 20
   global_var_idx: 1
   var_idx: [ 0, 1, 2, 3, 4, 5, 6, 7, 8, 9, 10, 11, 12, 13, 14, 15, 16,
       17, 18, 19, 20, 21, 22, 23, 24, 25, 26, 27, 28, 29, 30, 31, 32,
       33, 34, 35, 36, 37, 38, 39, 40, 41, 42, 43, 44, 45, 46, 47, 48,
       49, 50, 51, 52, 53, 54, 55, 56, 57, 58, 59, 60, 61, 62, 63, 64,
       65, 66, 67, 68, 69, 70, 71, 72, 73 ]
   var_type: [ 0, 0, 0, 0, 0, 0, 0, 0, 0, 0, 0, 0, 0, 0, 0, 0, 0, 0, 0,
       0, 0, 0, 0, 0, 0, 0, 0, 0, 0, 0, 0, 0, 0, 0, 0, 0, 0, 0, 0, 0, 0,
       0, 0, 0, 0, 0, 0, 0, 0, 0, 0, 0, 0, 0, 0, 0, 0, 0, 0, 0, 0, 0, 0,
       0, 0, 0, 0, 0, 0, 0, 0, 0, 0, 0, 1 ]
   cat_ofs: [ 0, 0, 0, 0, 0, 0, 0, 0, 0, 0, 0, 0, 0, 0, 0, 0, 0, 0, 0, 0,
       0, 0, 0, 0, 0, 0, 0, 0, 0, 0, 0, 0, 0, 0, 0, 0, 0, 0, 0, 0, 0, 0,
       0, 0, 0, 0, 0, 0, 0, 0, 0, 0, 0, 0, 0, 0, 0, 0, 0, 0, 0, 0, 0, 0,
       0, 0, 0, 0, 0, 0, 0, 0, 0, 0, 0, 0, 0, 0, 0, 0, 0, 0, 0, 0, 0, 0,
       0, 0, 0, 0, 0, 0, 0, 0, 0, 0, 0, 0, 0, 0, 0, 0, 0, 0, 0, 0, 0, 0,
       0, 0, 0, 0, 0, 0, 0, 0, 0, 0, 0, 0, 0, 0, 0, 0, 0, 0, 0, 0, 0, 0,
       0, 0, 0, 0, 0, 0, 0, 0, 0, 0, 0, 0, 0, 0, 0, 0, 0, 0 ]
   class_labels: [ 0, 5 ]
   missing_subst: [ 0., 0., 0., 0., 0., 0., 0., 0., 0., 0., 0., 0., 0.,
       0., 0., 0., 0., 0., 0., 0., 0., 0., 0., 0., 0., 0., 0., 0., 0.,
       0., 0., 0., 0., 0., 0., 0., 0., 0., 0., 0., 0., 0., 0., 0., 0.,
       0., 0., 0., 0., 0., 0., 0., 0., 0., 0., 0., 0., 0., 0., 0., 0.,
       0., 0., 0., 0., 0., 0., 0., 0., 0., 0., 0., 0., 0., 0. ]
   oob_error: 2.6153846153846155e-01
   var_importance: [ 1.55290877e-02, 2.00641323e-02, 1.30554279e-02,
       1.31470449e-02, 1.30096199e-02, 1.31928539e-02, 1.48877688e-02,
       1.73156206e-02, 1.31470449e-02, 1.31012369e-02, 1.42922578e-02,
       1.37883648e-02, 1.31470449e-02, 1.30096199e-02, 1.31470449e-02,
       1.32844709e-02, 1.53000457e-02, 1.39715988e-02, 1.34677049e-02,
       1.29638109e-02, 1.38341729e-02, 1.45671088e-02, 1.31012369e-02,
       1.30554279e-02, 1.27805769e-02, 1.30554279e-02, 1.32386619e-02,
       1.39257899e-02, 1.31928539e-02, 1.29638109e-02, 1.26889599e-02,
       1.30554279e-02, 1.29638109e-02, 1.30554279e-02, 1.29638109e-02,
       1.32844709e-02, 1.30554279e-02, 1.27347689e-02, 1.30554279e-02,
       1.33302789e-02, 1.30554279e-02, 1.36509389e-02, 1.31012369e-02,
       1.30554279e-02, 1.30554279e-02, 1.30096199e-02, 1.29638109e-02,
       1.33760879e-02, 1.30554279e-02, 1.34218959e-02, 1.31928539e-02,
       1.33302789e-02, 1.46587268e-02, 1.35135129e-02, 1.31928539e-02,
       1.38799818e-02, 1.30554279e-02, 1.31012369e-02, 1.30554279e-02,
       1.29180029e-02, 1.31470449e-02, 1.46129178e-02, 1.35593219e-02,
       1.39715988e-02, 1.36051299e-02, 1.31470449e-02, 1.30554279e-02,
       1.30096199e-02, 1.34677049e-02, 1.36051299e-02, 1.29180029e-02,
       1.35135129e-02, 1.30554279e-02, 1.29638109e-02 ]
   ntrees: 50
   trees:
      -
         nodes:
            -
               depth: 0
               value: 5.
               norm_class_idx: 1
               splits:
                  - { var:52, quality:1.0420111846923828e+02,
                      le:4.6476215362548828e+01 }
            -
               depth: 1
               value: 0.
               norm_class_idx: 0
               splits:
                  - { var:20, quality:9.5787216186523438e+01,
                      le:1.2641260027885437e-01 }
            -
               depth: 2
               value: 5.
               norm_class_idx: 1
               splits:
                  - { var:1, quality:7.8142776489257812e+01,
                      le:2.2222221679687500e+03 }
            -
               depth: 3
               value: 0.
               norm_class_idx: 0
               splits:
                  - { var:18, quality:5.6020832061767578e+01,
                      le:6.2212072753906250e+02 }
            -
               depth: 4
               value: 5.
               norm_class_idx: 1
               splits:
                  - { var:37, quality:5.1844299316406250e+01,
                      le:1.0728493652343750e+03 }
            -
               depth: 5
               value: 5.
               norm_class_idx: 1
               splits:
                  - { var:61, quality:4.9117645263671875e+01,
                      le:1.8346752929687500e+02 }
            -
               depth: 6
               value: 0.
               norm_class_idx: 0
               splits:
                  - { var:5, quality:3.7032257080078125e+01,
                      le:2.4241964721679688e+02 }
            -
               depth: 7
               value: 5.
               norm_class_idx: 1
               splits:
                  - { var:59, quality:3.2711864471435547e+01,
                      le:6.0650260925292969e+01 }
            -
               depth: 8
               value: 5.
               norm_class_idx: 1
               splits:
                  - { var:24, quality:3.0992591857910156e+01,
                      le:1.2532205200195312e+02 }
            -
               depth: 9
               value: 5.
               norm_class_idx: 1
               splits:
                  - { var:31, quality:2.8961538314819336e+01,
                      le:7.0346425781250000e+03 }
            -
               depth: 10
               value: 5.
               norm_class_idx: 1
               splits:
                  - { var:0, quality:3.0045454025268555e+01,
                      le:2.3308823242187500e+03 }
            -
               depth: 11
               value: 5.
               norm_class_idx: 1
               splits:
                  - { var:1, quality:2.5210525512695312e+01,
                      le:4.8484851074218750e+02 }
            -
               depth: 12
               value: 5.
               norm_class_idx: 1
            -
               depth: 12
               value: 0.
               norm_class_idx: 0
               splits:
                  - { var:16, quality:2.0500000000000000e+01,
                      le:2.2894458770751953e+01 }
            -
               depth: 13
               value: 0.
               norm_class_idx: 0
               splits:
                  - { var:2, quality:1.9941177368164062e+01,
                      le:2.0292237548828125e+03 }
            -
               depth: 14
               value: 0.
               norm_class_idx: 0
               splits:
                  - { var:27, quality:1.9562500000000000e+01,
                      le:9.9206500244140625e+02 }
            -
               depth: 15
               value: 0.
               norm_class_idx: 0
               splits:
                  - { var:0, quality:1.9307691574096680e+01, le:1875. }
            -
               depth: 16
               value: 0.
               norm_class_idx: 0
               splits:
                  - { var:5, quality:1.5565217018127441e+01,
                      le:2.3072396850585938e+02 }
            -
               depth: 17
               value: 0.
               norm_class_idx: 0
               splits:
                  - { var:7, quality:1.4212121009826660e+01,
                      le:8.4325527343750000e+03 }
            -
               depth: 18
               value: 5.
               norm_class_idx: 1
               splits:
                  - { var:21, quality:6.1999998092651367e+00,
                      le:4.9603250122070312e+02 }
            -
               depth: 19
               value: 5.
               norm_class_idx: 1
               splits:
                  - { var:17, quality:7., le:5.9523901367187500e+02 }
            -
               depth: 20
               value: 5.
               norm_class_idx: 1
               splits:
                  - { var:9, quality:5.1428570747375488e+00,
                      le:1.1904779296875000e+04 }
            -
               depth: 21
               value: 5.
               norm_class_idx: 1
               splits:
                  - { var:1, quality:5.6666665077209473e+00,
                      le:1.5555555419921875e+03 }
            -
               depth: 22
               value: 5.
               norm_class_idx: 1
            -
               depth: 22
               value: 0.
               norm_class_idx: 0
            -
               depth: 21
               value: 5.
               norm_class_idx: 1
            -
               depth: 20
               value: 0.
               norm_class_idx: 0
            -
               depth: 19
               value: 0.
               norm_class_idx: 0
            -
               depth: 18
               value: 0.
               norm_class_idx: 0
               splits:
                  - { var:5, quality:9.1428575515747070e+00,
                      le:7.8148437500000000e+01 }
            -
               depth: 19
               value: 0.
               norm_class_idx: 0
            -
               depth: 19
               value: 0.
               norm_class_idx: 0
               splits:
                  - { var:6, quality:5.3333334922790527e+00,
                      le:1.1429873657226562e+02 }
            -
               depth: 20
               value: 5.
               norm_class_idx: 1
            -
               depth: 20
               value: 0.
               norm_class_idx: 0
            -
               depth: 17
               value: 5.
               norm_class_idx: 1
            -
               depth: 16
               value: 0.
               norm_class_idx: 0
            -
               depth: 15
               value: 5.
               norm_class_idx: 1
            -
               depth: 14
               value: 5.
               norm_class_idx: 1
            -
               depth: 13
               value: 5.
               norm_class_idx: 1
            -
               depth: 11
               value: 5.
               norm_class_idx: 1
            -
               depth: 10
               value: 0.
               norm_class_idx: 0
            -
               depth: 9
               value: 0.
               norm_class_idx: 0
            -
               depth: 8
               value: 0.
               norm_class_idx: 0
            -
               depth: 7
               value: 0.
               norm_class_idx: 0
            -
               depth: 6
               value: 5.
               norm_class_idx: 1
            -
               depth: 5
               value: 0.
               norm_class_idx: 0
               splits:
                  - { var:0, quality:1.1166666984558105e+01,
                      le:8.4943615722656250e+02 }
            -
               depth: 6
               value: 5.
               norm_class_idx: 1
            -
               depth: 6
               value: 0.
               norm_class_idx: 0
               splits:
                  - { var:31, quality:12., le:3.5548994140625000e+03 }
            -
               depth: 7
               value: 0.
               norm_class_idx: 0
            -
               depth: 7
               value: 5.
               norm_class_idx: 1
            -
               depth: 4
               value: 0.
               norm_class_idx: 0
            -
               depth: 3
               value: 5.
               norm_class_idx: 1
               splits:
                  - { var:52, quality:3.1066667556762695e+01,
                      le:8.1731405258178711e+00 }
            -
               depth: 4
               value: 5.
               norm_class_idx: 1
               splits:
                  - { var:7, quality:2.8399999618530273e+01,
                      le:3.6375718750000000e+04 }
            -
               depth: 5
               value: 5.
               norm_class_idx: 1
            -
               depth: 5
               value: 5.
               norm_class_idx: 1
            -
               depth: 4
               value: 0.
               norm_class_idx: 0
            -
               depth: 2
               value: 0.
               norm_class_idx: 0
               splits:
                  - { var:0, quality:2.9258064270019531e+01,
                      le:6.3425946044921875e+02 }
            -
               depth: 3
               value: 5.
               norm_class_idx: 1
            -
               depth: 3
               value: 0.
               norm_class_idx: 0
               splits:
                  - { var:32, quality:2.7738094329833984e+01,
                      le:3.0414781570434570e+00 }
            -
               depth: 4
               value: 0.
               norm_class_idx: 0
               splits:
                  - { var:20, quality:2.6399999618530273e+01,
                      le:4.6518676757812500e+03 }
            -
               depth: 5
               value: 0.
               norm_class_idx: 0
            -
               depth: 5
               value: 0.
               norm_class_idx: 0
            -
               depth: 4
               value: 0.
               norm_class_idx: 0
            -
               depth: 1
               value: 5.
               norm_class_idx: 1
               splits:
                  - { var:64, quality:21., le:3.9786328125000000e+02 }
            -
               depth: 2
               value: 5.
               norm_class_idx: 1
            -
               depth: 2
               value: 0.
               norm_class_idx: 0
      -
         nodes:
            -
               depth: 0
               value: 0.
               norm_class_idx: 0
               splits:
                  - { var:18, quality:1.0932306671142578e+02,
                      le:3.4444726562500000e+02 }
            -
               depth: 1
               value: 5.
               norm_class_idx: 1
               splits:
                  - { var:16, quality:8.4231887817382812e+01,
                      le:2.4609072875976562e+02 }
            -
               depth: 2
               value: 5.
               norm_class_idx: 1
               splits:
                  - { var:55, quality:8.1103446960449219e+01,
                      le:1.6860786132812500e+03 }
            -
               depth: 3
               value: 5.
               norm_class_idx: 1
               splits:
                  - { var:12, quality:6.2486488342285156e+01,
                      le:6.3209317624568939e-02 }
            -
               depth: 4
               value: 5.
               norm_class_idx: 1
               splits:
                  - { var:61, quality:6.4548385620117188e+01,
                      le:1.9183256530761719e+02 }
            -
               depth: 5
               value: 5.
               norm_class_idx: 1
               splits:
                  - { var:11, quality:5.1214286804199219e+01,
                      le:8.6863359375000000e+03 }
            -
               depth: 6
               value: 0.
               norm_class_idx: 0
               splits:
                  - { var:69, quality:4.4625000000000000e+01,
                      le:2.1262197875976562e+02 }
            -
               depth: 7
               value: 0.
               norm_class_idx: 0
               splits:
                  - { var:64, quality:4.3228572845458984e+01,
                      le:1.2854434204101562e+02 }
            -
               depth: 8
               value: 0.
               norm_class_idx: 0
               splits:
                  - { var:27, quality:3.7876922607421875e+01,
                      le:4.9726333618164062e+02 }
            -
               depth: 9
               value: 0.
               norm_class_idx: 0
               splits:
                  - { var:16, quality:3.4142856597900391e+01,
                      le:3.2495361328125000e+01 }
            -
               depth: 10
               value: 0.
               norm_class_idx: 0
               splits:
                  - { var:7, quality:3.4259258270263672e+01,
                      le:4.2857207031250000e+04 }
            -
               depth: 11
               value: 0.
               norm_class_idx: 0
               splits:
                  - { var:6, quality:2.9464828491210938e+01,
                      le:8.8072052001953125e+01 }
            -
               depth: 12
               value: 0.
               norm_class_idx: 0
               splits:
                  - { var:6, quality:1.5095237731933594e+01,
                      le:3.0853408813476562e+01 }
            -
               depth: 13
               value: 0.
               norm_class_idx: 0
               splits:
                  - { var:31, quality:1.2111110687255859e+01,
                      le:1.2800838623046875e+03 }
            -
               depth: 14
               value: 0.
               norm_class_idx: 0
               splits:
                  - { var:0, quality:1.0050000190734863e+01, le:1450. }
            -
               depth: 15
               value: 5.
               norm_class_idx: 1
               splits:
                  - { var:24, quality:6.3333334922790527e+00,
                      le:2.3162200927734375e+02 }
            -
               depth: 16
               value: 5.
               norm_class_idx: 1
               splits:
                  - { var:18, quality:6., le:1.3842767333984375e+02 }
            -
               depth: 17
               value: 5.
               norm_class_idx: 1
            -
               depth: 17
               value: 0.
               norm_class_idx: 0
            -
               depth: 16
               value: 0.
               norm_class_idx: 0
            -
               depth: 15
               value: 0.
               norm_class_idx: 0
               splits:
                  - { var:0, quality:6.9523811340332031e+00,
                      le:2.2058823242187500e+03 }
            -
               depth: 16
               value: 0.
               norm_class_idx: 0
               splits:
                  - { var:7, quality:5.5000000000000000e+00,
                      le:1.0416682617187500e+04 }
            -
               depth: 17
               value: 0.
               norm_class_idx: 0
            -
               depth: 17
               value: 0.
               norm_class_idx: 0
            -
               depth: 16
               value: 5.
               norm_class_idx: 1
            -
               depth: 14
               value: 0.
               norm_class_idx: 0
            -
               depth: 13
               value: 0.
               norm_class_idx: 0
            -
               depth: 12
               value: 5.
               norm_class_idx: 1
               splits:
                  - { var:0, quality:17., le:2.7083334960937500e+03 }
            -
               depth: 13
               value: 5.
               norm_class_idx: 1
               splits:
                  - { var:6, quality:18., le:1.0419792175292969e+02 }
            -
               depth: 14
               value: 5.
               norm_class_idx: 1
            -
               depth: 14
               value: 0.
               norm_class_idx: 0
               splits:
                  - { var:5, quality:1.3050000190734863e+01,
                      le:2.1038055419921875e+02 }
            -
               depth: 15
               value: 0.
               norm_class_idx: 0
            -
               depth: 15
               value: 5.
               norm_class_idx: 1
            -
               depth: 13
               value: 0.
               norm_class_idx: 0
            -
               depth: 11
               value: 0.
               norm_class_idx: 0
            -
               depth: 10
               value: 5.
               norm_class_idx: 1
            -
               depth: 9
               value: 5.
               norm_class_idx: 1
            -
               depth: 8
               value: 0.
               norm_class_idx: 0
               splits:
                  - { var:68, quality:10., le:3.3388177490234375e+02 }
            -
               depth: 9
               value: 5.
               norm_class_idx: 1
            -
               depth: 9
               value: 0.
               norm_class_idx: 0
            -
               depth: 7
               value: 5.
               norm_class_idx: 1
            -
               depth: 6
               value: 5.
               norm_class_idx: 1
            -
               depth: 5
               value: 5.
               norm_class_idx: 1
            -
               depth: 4
               value: 0.
               norm_class_idx: 0
            -
               depth: 3
               value: 5.
               norm_class_idx: 1
            -
               depth: 2
               value: 0.
               norm_class_idx: 0
            -
               depth: 1
               value: 0.
               norm_class_idx: 0
               splits:
                  - { var:1, quality:3.4190475463867188e+01,
                      le:8.3454541015625000e+02 }
            -
               depth: 2
               value: 5.
               norm_class_idx: 1
            -
               depth: 2
               value: 0.
               norm_class_idx: 0
               splits:
                  - { var:1, quality:3.4631580352783203e+01, le:1950. }
            -
               depth: 3
               value: 0.
               norm_class_idx: 0
            -
               depth: 3
               value: 0.
               norm_class_idx: 0
               splits:
                  - { var:6, quality:1.3171428680419922e+01,
                      le:7.3297996520996094e+00 }
            -
               depth: 4
               value: 5.
               norm_class_idx: 1
            -
               depth: 4
               value: 0.
               norm_class_idx: 0
               splits:
                  - { var:1, quality:14., le:2.0185185546875000e+03 }
            -
               depth: 5
               value: 5.
               norm_class_idx: 1
            -
               depth: 5
               value: 0.
               norm_class_idx: 0
      -
         nodes:
            -
               depth: 0
               value: 0.
               norm_class_idx: 0
               splits:
                  - { var:17, quality:1.0728942108154297e+02,
                      le:5.5293249511718750e+02 }
            -
               depth: 1
               value: 5.
               norm_class_idx: 1
               splits:
                  - { var:71, quality:7.4500000000000000e+01,
                      le:1.3553308105468750e+03 }
            -
               depth: 2
               value: 5.
               norm_class_idx: 1
               splits:
                  - { var:1, quality:6.1666667938232422e+01,
                      le:8.6227563476562500e+02 }
            -
               depth: 3
               value: 5.
               norm_class_idx: 1
               splits:
                  - { var:6, quality:1.6333333969116211e+01,
                      le:1.6221039295196533e+00 }
            -
               depth: 4
               value: 5.
               norm_class_idx: 1
               splits:
                  - { var:24, quality:6., le:1.2532205200195312e+02 }
            -
               depth: 5
               value: 5.
               norm_class_idx: 1
            -
               depth: 5
               value: 0.
               norm_class_idx: 0
            -
               depth: 4
               value: 5.
               norm_class_idx: 1
            -
               depth: 3
               value: 0.
               norm_class_idx: 0
               splits:
                  - { var:69, quality:4.9166667938232422e+01,
                      le:1.5735894775390625e+02 }
            -
               depth: 4
               value: 0.
               norm_class_idx: 0
               splits:
                  - { var:53, quality:4.2845069885253906e+01,
                      le:1.4479902267456055e+01 }
            -
               depth: 5
               value: 0.
               norm_class_idx: 0
               splits:
                  - { var:63, quality:3.8402984619140625e+01,
                      le:1.1671092224121094e+02 }
            -
               depth: 6
               value: 0.
               norm_class_idx: 0
               splits:
                  - { var:27, quality:3.8064517974853516e+01,
                      le:4.3951519775390625e+02 }
            -
               depth: 7
               value: 0.
               norm_class_idx: 0
               splits:
                  - { var:10, quality:3.7368419647216797e+01,
                      le:3.5303017578125000e+03 }
            -
               depth: 8
               value: 0.
               norm_class_idx: 0
               splits:
                  - { var:49, quality:3.5333332061767578e+01,
                      le:1.6373400878906250e+02 }
            -
               depth: 9
               value: 0.
               norm_class_idx: 0
               splits:
                  - { var:21, quality:3.6840000152587891e+01,
                      le:9.3795233154296875e+02 }
            -
               depth: 10
               value: 0.
               norm_class_idx: 0
               splits:
                  - { var:41, quality:3.4081634521484375e+01,
                      le:1.6508826171875000e+04 }
            -
               depth: 11
               value: 0.
               norm_class_idx: 0
               splits:
                  - { var:6, quality:3.6142856597900391e+01,
                      le:9.0839210510253906e+01 }
            -
               depth: 12
               value: 0.
               norm_class_idx: 0
            -
               depth: 12
               value: 0.
               norm_class_idx: 0
               splits:
                  - { var:1, quality:1.6923076629638672e+01,
                      le:2.9166665039062500e+03 }
            -
               depth: 13
               value: 0.
               norm_class_idx: 0
               splits:
                  - { var:7, quality:1.8470588684082031e+01,
                      le:2.8083070312500000e+04 }
            -
               depth: 14
               value: 5.
               norm_class_idx: 1
               splits:
                  - { var:2, quality:5.2500000000000000e+00,
                      le:1.9459736328125000e+03 }
            -
               depth: 15
               value: 5.
               norm_class_idx: 1
               splits:
                  - { var:2, quality:5.1428570747375488e+00,
                      le:4.5787615966796875e+02 }
            -
               depth: 16
               value: 5.
               norm_class_idx: 1
               splits:
                  - { var:6, quality:4.5999999046325684e+00,
                      le:1.1553918457031250e+02 }
            -
               depth: 17
               value: 5.
               norm_class_idx: 1
            -
               depth: 17
               value: 5.
               norm_class_idx: 1
            -
               depth: 16
               value: 0.
               norm_class_idx: 0
            -
               depth: 15
               value: 5.
               norm_class_idx: 1
            -
               depth: 14
               value: 0.
               norm_class_idx: 0
               splits:
                  - { var:7, quality:1.5125000000000000e+01,
                      le:6.5972320312500000e+04 }
            -
               depth: 15
               value: 0.
               norm_class_idx: 0
               splits:
                  - { var:6, quality:1.4399999618530273e+01,
                      le:2.4412083435058594e+02 }
            -
               depth: 16
               value: 0.
               norm_class_idx: 0
            -
               depth: 16
               value: 0.
               norm_class_idx: 0
            -
               depth: 15
               value: 5.
               norm_class_idx: 1
            -
               depth: 13
               value: 5.
               norm_class_idx: 1
            -
               depth: 11
               value: 5.
               norm_class_idx: 1
            -
               depth: 10
               value: 5.
               norm_class_idx: 1
            -
               depth: 9
               value: 5.
               norm_class_idx: 1
            -
               depth: 8
               value: 5.
               norm_class_idx: 1
            -
               depth: 7
               value: 5.
               norm_class_idx: 1
            -
               depth: 6
               value: 5.
               norm_class_idx: 1
            -
               depth: 5
               value: 5.
               norm_class_idx: 1
            -
               depth: 4
               value: 0.
               norm_class_idx: 0
               splits:
                  - { var:14, quality:12., le:1.9127768554687500e+03 }
            -
               depth: 5
               value: 0.
               norm_class_idx: 0
            -
               depth: 5
               value: 5.
               norm_class_idx: 1
            -
               depth: 2
               value: 5.
               norm_class_idx: 1
               splits:
                  - { var:60, quality:24., le:3.4384387207031250e+02 }
            -
               depth: 3
               value: 5.
               norm_class_idx: 1
            -
               depth: 3
               value: 0.
               norm_class_idx: 0
            -
               depth: 1
               value: 0.
               norm_class_idx: 0
               splits:
                  - { var:57, quality:4.1245613098144531e+01,
                      le:2.2782402038574219e+00 }
            -
               depth: 2
               value: 0.
               norm_class_idx: 0
               splits:
                  - { var:18, quality:4.1205127716064453e+01,
                      le:4.2410778808593750e+02 }
            -
               depth: 3
               value: 0.
               norm_class_idx: 0
            -
               depth: 3
               value: 0.
               norm_class_idx: 0
               splits:
                  - { var:18, quality:2.6555555343627930e+01,
                      le:4.9138879394531250e+02 }
            -
               depth: 4
               value: 5.
               norm_class_idx: 1
            -
               depth: 4
               value: 0.
               norm_class_idx: 0
               splits:
                  - { var:1, quality:2.6628570556640625e+01,
                      le:1.9677419433593750e+03 }
            -
               depth: 5
               value: 0.
               norm_class_idx: 0
               splits:
                  - { var:18, quality:1.9250000000000000e+01,
                      le:1.3699945068359375e+03 }
            -
               depth: 6
               value: 0.
               norm_class_idx: 0
               splits:
                  - { var:21, quality:6.2857141494750977e+00,
                      le:1.2664659118652344e+02 }
            -
               depth: 7
               value: 0.
               norm_class_idx: 0
               splits:
                  - { var:1, quality:5.6666665077209473e+00,
                      le:1.8362573242187500e+03 }
            -
               depth: 8
               value: 0.
               norm_class_idx: 0
            -
               depth: 8
               value: 0.
               norm_class_idx: 0
            -
               depth: 7
               value: 0.
               norm_class_idx: 0
            -
               depth: 6
               value: 0.
               norm_class_idx: 0
            -
               depth: 5
               value: 0.
               norm_class_idx: 0
               splits:
                  - { var:21, quality:1.0800000190734863e+01,
                      le:1.2939978027343750e+02 }
            -
               depth: 6
               value: 5.
               norm_class_idx: 1
               splits:
                  - { var:17, quality:7., le:3.0754013671875000e+03 }
            -
               depth: 7
               value: 5.
               norm_class_idx: 1
            -
               depth: 7
               value: 0.
               norm_class_idx: 0
               splits:
                  - { var:0, quality:4.5000000000000000e+00,
                      le:2.4809523925781250e+03 }
            -
               depth: 8
               value: 5.
               norm_class_idx: 1
            -
               depth: 8
               value: 0.
               norm_class_idx: 0
            -
               depth: 6
               value: 0.
               norm_class_idx: 0
            -
               depth: 2
               value: 5.
               norm_class_idx: 1
      -
         nodes:
            -
               depth: 0
               value: 5.
               norm_class_idx: 1
               splits:
                  - { var:48, quality:1.0529069519042969e+02,
                      le:8.9245025634765625e+01 }
            -
               depth: 1
               value: 0.
               norm_class_idx: 0
               splits:
                  - { var:1, quality:9.7892379760742188e+01,
                      le:2.5634921875000000e+03 }
            -
               depth: 2
               value: 0.
               norm_class_idx: 0
               splits:
                  - { var:7, quality:7.9177734375000000e+01,
                      le:1.0982246093750000e+03 }
            -
               depth: 3
               value: 5.
               norm_class_idx: 1
               splits:
                  - { var:63, quality:3.0511110305786133e+01,
                      le:7.2193931579589844e+01 }
            -
               depth: 4
               value: 5.
               norm_class_idx: 1
               splits:
                  - { var:18, quality:2.6857143402099609e+01,
                      le:1.5377006835937500e+03 }
            -
               depth: 5
               value: 5.
               norm_class_idx: 1
               splits:
                  - { var:37, quality:1.9919540405273438e+01,
                      le:7.9055175781250000e+02 }
            -
               depth: 6
               value: 5.
               norm_class_idx: 1
               splits:
                  - { var:71, quality:1.7571428298950195e+01,
                      le:2.8108508300781250e+03 }
            -
               depth: 7
               value: 5.
               norm_class_idx: 1
               splits:
                  - { var:18, quality:1.7120000839233398e+01,
                      le:7.9980432128906250e+02 }
            -
               depth: 8
               value: 5.
               norm_class_idx: 1
               splits:
                  - { var:31, quality:1.6130434036254883e+01,
                      le:7.0346425781250000e+03 }
            -
               depth: 9
               value: 5.
               norm_class_idx: 1
               splits:
                  - { var:2, quality:1.4600000381469727e+01,
                      le:7.9365200195312500e+03 }
            -
               depth: 10
               value: 5.
               norm_class_idx: 1
               splits:
                  - { var:11, quality:1.2666666984558105e+01,
                      le:1.1904780273437500e+03 }
            -
               depth: 11
               value: 5.
               norm_class_idx: 1
               splits:
                  - { var:0, quality:1.0181818008422852e+01,
                      le:2.7857143554687500e+03 }
            -
               depth: 12
               value: 5.
               norm_class_idx: 1
               splits:
                  - { var:0, quality:9.6666669845581055e+00, le:1700. }
            -
               depth: 13
               value: 5.
               norm_class_idx: 1
            -
               depth: 13
               value: 5.
               norm_class_idx: 1
            -
               depth: 12
               value: 0.
               norm_class_idx: 0
            -
               depth: 11
               value: 0.
               norm_class_idx: 0
               splits:
                  - { var:14, quality:5.3333334922790527e+00,
                      le:2.5298378906250000e+03 }
            -
               depth: 12
               value: 0.
               norm_class_idx: 0
               splits:
                  - { var:10, quality:6., le:8.9285849609375000e+03 }
            -
               depth: 13
               value: 0.
               norm_class_idx: 0
            -
               depth: 13
               value: 5.
               norm_class_idx: 1
            -
               depth: 12
               value: 5.
               norm_class_idx: 1
            -
               depth: 10
               value: 5.
               norm_class_idx: 1
            -
               depth: 9
               value: 0.
               norm_class_idx: 0
            -
               depth: 8
               value: 5.
               norm_class_idx: 1
            -
               depth: 7
               value: 0.
               norm_class_idx: 0
            -
               depth: 6
               value: 0.
               norm_class_idx: 0
               splits:
                  - { var:41, quality:4.4000000953674316e+00,
                      le:1.1000195312500000e+04 }
            -
               depth: 7
               value: 0.
               norm_class_idx: 0
            -
               depth: 7
               value: 5.
               norm_class_idx: 1
            -
               depth: 5
               value: 0.
               norm_class_idx: 0
               splits:
                  - { var:1, quality:10., le:1950. }
            -
               depth: 6
               value: 0.
               norm_class_idx: 0
            -
               depth: 6
               value: 5.
               norm_class_idx: 1
            -
               depth: 4
               value: 5.
               norm_class_idx: 1
            -
               depth: 3
               value: 0.
               norm_class_idx: 0
               splits:
                  - { var:4, quality:5.4316455841064453e+01,
                      le:7.9393066465854645e-02 }
            -
               depth: 4
               value: 0.
               norm_class_idx: 0
               splits:
                  - { var:0, quality:5.7278537750244141e+01,
                      le:1.0501125488281250e+03 }
            -
               depth: 5
               value: 5.
               norm_class_idx: 1
               splits:
                  - { var:9, quality:6., le:5.4112634277343750e+02 }
            -
               depth: 6
               value: 5.
               norm_class_idx: 1
            -
               depth: 6
               value: 0.
               norm_class_idx: 0
            -
               depth: 5
               value: 0.
               norm_class_idx: 0
               splits:
                  - { var:52, quality:5.4361110687255859e+01,
                      le:4.3816818237304688e+01 }
            -
               depth: 6
               value: 0.
               norm_class_idx: 0
               splits:
                  - { var:6, quality:5.5500000000000000e+01,
                      le:4.7399112701416016e+01 }
            -
               depth: 7
               value: 0.
               norm_class_idx: 0
            -
               depth: 7
               value: 0.
               norm_class_idx: 0
               splits:
                  - { var:20, quality:2.9857143402099609e+01,
                      le:2.5510241699218750e+03 }
            -
               depth: 8
               value: 0.
               norm_class_idx: 0
               splits:
                  - { var:7, quality:3.1846153259277344e+01,
                      le:9.6917119140625000e+03 }
            -
               depth: 9
               value: 5.
               norm_class_idx: 1
            -
               depth: 9
               value: 0.
               norm_class_idx: 0
               splits:
                  - { var:7, quality:2.9420690536499023e+01,
                      le:2.5000037109375000e+04 }
            -
               depth: 10
               value: 0.
               norm_class_idx: 0
               splits:
                  - { var:17, quality:6.5714287757873535e+00,
                      le:1.5873039550781250e+03 }
            -
               depth: 11
               value: 0.
               norm_class_idx: 0
               splits:
                  - { var:0, quality:7., le:1.4642856445312500e+03 }
            -
               depth: 12
               value: 0.
               norm_class_idx: 0
            -
               depth: 12
               value: 5.
               norm_class_idx: 1
            -
               depth: 11
               value: 0.
               norm_class_idx: 0
            -
               depth: 10
               value: 0.
               norm_class_idx: 0
               splits:
                  - { var:5, quality:25., le:2.2824305725097656e+02 }
            -
               depth: 11
               value: 0.
               norm_class_idx: 0
            -
               depth: 11
               value: 0.
               norm_class_idx: 0
               splits:
                  - { var:5, quality:9., le:2.4241964721679688e+02 }
            -
               depth: 12
               value: 5.
               norm_class_idx: 1
            -
               depth: 12
               value: 0.
               norm_class_idx: 0
            -
               depth: 8
               value: 5.
               norm_class_idx: 1
            -
               depth: 6
               value: 5.
               norm_class_idx: 1
            -
               depth: 4
               value: 5.
               norm_class_idx: 1
            -
               depth: 2
               value: 5.
               norm_class_idx: 1
               splits:
                  - { var:72, quality:3.2529411315917969e+01,
                      le:1.0178063964843750e+03 }
            -
               depth: 3
               value: 5.
               norm_class_idx: 1
               splits:
                  - { var:3, quality:3.2062500000000000e+01,
                      le:1.7568883299827576e-01 }
            -
               depth: 4
               value: 5.
               norm_class_idx: 1
               splits:
                  - { var:6, quality:3.0666666030883789e+01,
                      le:1.6515724182128906e+02 }
            -
               depth: 5
               value: 5.
               norm_class_idx: 1
            -
               depth: 5
               value: 5.
               norm_class_idx: 1
            -
               depth: 4
               value: 0.
               norm_class_idx: 0
            -
               depth: 3
               value: 0.
               norm_class_idx: 0
            -
               depth: 1
               value: 5.
               norm_class_idx: 1
      -
         nodes:
            -
               depth: 0
               value: 5.
               norm_class_idx: 1
               splits:
                  - { var:1, quality:1.0615112304687500e+02,
                      le:1.9460161132812500e+03 }
            -
               depth: 1
               value: 0.
               norm_class_idx: 0
               splits:
                  - { var:18, quality:6.3605495452880859e+01,
                      le:3.4444726562500000e+02 }
            -
               depth: 2
               value: 0.
               norm_class_idx: 0
               splits:
                  - { var:61, quality:4.8852111816406250e+01,
                      le:1.7915164184570312e+02 }
            -
               depth: 3
               value: 0.
               norm_class_idx: 0
               splits:
                  - { var:18, quality:3.9125000000000000e+01,
                      le:1.9740844726562500e+02 }
            -
               depth: 4
               value: 0.
               norm_class_idx: 0
               splits:
                  - { var:2, quality:3.4508476257324219e+01,
                      le:5.4112634277343750e+02 }
            -
               depth: 5
               value: 5.
               norm_class_idx: 1
               splits:
                  - { var:21, quality:3.2333332061767578e+01,
                      le:4.4447796630859375e+02 }
            -
               depth: 6
               value: 5.
               norm_class_idx: 1
               splits:
                  - { var:35, quality:2.9375000000000000e+01,
                      le:7.5506393432617188e+01 }
            -
               depth: 7
               value: 5.
               norm_class_idx: 1
               splits:
                  - { var:7, quality:3.1062500000000000e+01,
                      le:1.2085155273437500e+04 }
            -
               depth: 8
               value: 5.
               norm_class_idx: 1
               splits:
                  - { var:8, quality:2.6642856597900391e+01,
                      le:4.9982727050781250e+02 }
            -
               depth: 9
               value: 5.
               norm_class_idx: 1
               splits:
                  - { var:31, quality:2.4296297073364258e+01,
                      le:7.6327573242187500e+03 }
            -
               depth: 10
               value: 5.
               norm_class_idx: 1
               splits:
                  - { var:6, quality:2.3470588684082031e+01,
                      le:1.0930354595184326e+00 }
            -
               depth: 11
               value: 5.
               norm_class_idx: 1
               splits:
                  - { var:48, quality:1.3533333778381348e+01,
                      le:5.9525598144531250e+02 }
            -
               depth: 12
               value: 5.
               norm_class_idx: 1
               splits:
                  - { var:0, quality:1.3666666984558105e+01,
                      le:6.5601501464843750e+02 }
            -
               depth: 13
               value: 0.
               norm_class_idx: 0
            -
               depth: 13
               value: 5.
               norm_class_idx: 1
            -
               depth: 12
               value: 5.
               norm_class_idx: 1
            -
               depth: 11
               value: 5.
               norm_class_idx: 1
            -
               depth: 10
               value: 0.
               norm_class_idx: 0
            -
               depth: 9
               value: 0.
               norm_class_idx: 0
            -
               depth: 8
               value: 0.
               norm_class_idx: 0
               splits:
                  - { var:0, quality:1.0909090995788574e+01, le:1875. }
            -
               depth: 9
               value: 0.
               norm_class_idx: 0
               splits:
                  - { var:5, quality:8.3333330154418945e+00,
                      le:1.2050099182128906e+02 }
            -
               depth: 10
               value: 0.
               norm_class_idx: 0
            -
               depth: 10
               value: 5.
               norm_class_idx: 1
               splits:
                  - { var:1, quality:6., le:1.6111110839843750e+03 }
            -
               depth: 11
               value: 0.
               norm_class_idx: 0
            -
               depth: 11
               value: 5.
               norm_class_idx: 1
            -
               depth: 9
               value: 0.
               norm_class_idx: 0
            -
               depth: 7
               value: 0.
               norm_class_idx: 0
               splits:
                  - { var:30, quality:6., le:2.2934835815429688e+02 }
            -
               depth: 8
               value: 0.
               norm_class_idx: 0
            -
               depth: 8
               value: 5.
               norm_class_idx: 1
            -
               depth: 6
               value: 0.
               norm_class_idx: 0
            -
               depth: 5
               value: 0.
               norm_class_idx: 0
            -
               depth: 4
               value: 0.
               norm_class_idx: 0
            -
               depth: 3
               value: 5.
               norm_class_idx: 1
               splits:
                  - { var:12, quality:20., le:6.3209317624568939e-02 }
            -
               depth: 4
               value: 5.
               norm_class_idx: 1
            -
               depth: 4
               value: 0.
               norm_class_idx: 0
            -
               depth: 2
               value: 0.
               norm_class_idx: 0
               splits:
                  - { var:7, quality:1.8166666030883789e+01,
                      le:2.4062851562500000e+03 }
            -
               depth: 3
               value: 0.
               norm_class_idx: 0
               splits:
                  - { var:0, quality:1.0500000000000000e+01,
                      le:1.9666667480468750e+03 }
            -
               depth: 4
               value: 0.
               norm_class_idx: 0
            -
               depth: 4
               value: 0.
               norm_class_idx: 0
            -
               depth: 3
               value: 0.
               norm_class_idx: 0
            -
               depth: 1
               value: 5.
               norm_class_idx: 1
               splits:
                  - { var:16, quality:5.4450096130371094e+01,
                      le:2.1760540771484375e+02 }
            -
               depth: 2
               value: 5.
               norm_class_idx: 1
               splits:
                  - { var:7, quality:5.4492309570312500e+01,
                      le:3.6375718750000000e+04 }
            -
               depth: 3
               value: 5.
               norm_class_idx: 1
               splits:
                  - { var:43, quality:5.2555557250976562e+01,
                      le:1.0365381622314453e+02 }
            -
               depth: 4
               value: 5.
               norm_class_idx: 1
               splits:
                  - { var:60, quality:5.2161289215087891e+01,
                      le:1.0454018554687500e+03 }
            -
               depth: 5
               value: 5.
               norm_class_idx: 1
               splits:
                  - { var:37, quality:5.1846153259277344e+01,
                      le:1.0320727539062500e+03 }
            -
               depth: 6
               value: 5.
               norm_class_idx: 1
               splits:
                  - { var:37, quality:3.0315790176391602e+01,
                      le:1.0314788818359375e+03 }
            -
               depth: 7
               value: 5.
               norm_class_idx: 1
               splits:
                  - { var:24, quality:3.0864864349365234e+01,
                      le:6.9663152098655701e-02 }
            -
               depth: 8
               value: 5.
               norm_class_idx: 1
               splits:
                  - { var:7, quality:3.1071428298950195e+01,
                      le:4.2988105468750000e+03 }
            -
               depth: 9
               value: 5.
               norm_class_idx: 1
               splits:
                  - { var:53, quality:2.6090909957885742e+01,
                      le:7.8326282501220703e+00 }
            -
               depth: 10
               value: 5.
               norm_class_idx: 1
               splits:
                  - { var:18, quality:2.0142856597900391e+01,
                      le:1.6233790283203125e+03 }
            -
               depth: 11
               value: 5.
               norm_class_idx: 1
               splits:
                  - { var:1, quality:1.2333333015441895e+01, le:2450. }
            -
               depth: 12
               value: 5.
               norm_class_idx: 1
            -
               depth: 12
               value: 5.
               norm_class_idx: 1
               splits:
                  - { var:21, quality:4.5000000000000000e+00,
                      le:5.4112634277343750e+02 }
            -
               depth: 13
               value: 5.
               norm_class_idx: 1
            -
               depth: 13
               value: 5.
               norm_class_idx: 1
            -
               depth: 11
               value: 5.
               norm_class_idx: 1
            -
               depth: 10
               value: 5.
               norm_class_idx: 1
            -
               depth: 9
               value: 5.
               norm_class_idx: 1
               splits:
                  - { var:0, quality:7.5000000000000000e+00,
                      le:2.4351850585937500e+03 }
            -
               depth: 10
               value: 0.
               norm_class_idx: 0
            -
               depth: 10
               value: 5.
               norm_class_idx: 1
            -
               depth: 8
               value: 0.
               norm_class_idx: 0
            -
               depth: 7
               value: 0.
               norm_class_idx: 0
            -
               depth: 6
               value: 5.
               norm_class_idx: 1
            -
               depth: 5
               value: 0.
               norm_class_idx: 0
            -
               depth: 4
               value: 0.
               norm_class_idx: 0
            -
               depth: 3
               value: 0.
               norm_class_idx: 0
            -
               depth: 2
               value: 0.
               norm_class_idx: 0
               splits:
                  - { var:1, quality:7., le:2.0558066406250000e+03 }
            -
               depth: 3
               value: 5.
               norm_class_idx: 1
            -
               depth: 3
               value: 0.
               norm_class_idx: 0
      -
         nodes:
            -
               depth: 0
               value: 0.
               norm_class_idx: 0
               splits:
                  - { var:17, quality:1.0629899597167969e+02,
                      le:5.7383575439453125e+02 }
            -
               depth: 1
               value: 5.
               norm_class_idx: 1
               splits:
                  - { var:7, quality:7.7282608032226562e+01,
                      le:8.4325527343750000e+03 }
            -
               depth: 2
               value: 5.
               norm_class_idx: 1
               splits:
                  - { var:16, quality:5.7241378784179688e+01,
                      le:1.3494624328613281e+02 }
            -
               depth: 3
               value: 5.
               norm_class_idx: 1
               splits:
                  - { var:1, quality:5.9403297424316406e+01,
                      le:1.9609611816406250e+03 }
            -
               depth: 4
               value: 5.
               norm_class_idx: 1
               splits:
                  - { var:31, quality:2.9299999237060547e+01,
                      le:9.1481695556640625e+02 }
            -
               depth: 5
               value: 5.
               norm_class_idx: 1
               splits:
                  - { var:0, quality:2.8451410293579102e+01,
                      le:1.7429318847656250e+03 }
            -
               depth: 6
               value: 5.
               norm_class_idx: 1
               splits:
                  - { var:59, quality:2.3666666030883789e+01,
                      le:1.6541830444335938e+02 }
            -
               depth: 7
               value: 5.
               norm_class_idx: 1
               splits:
                  - { var:0, quality:2.3086956024169922e+01,
                      le:6.5601501464843750e+02 }
            -
               depth: 8
               value: 0.
               norm_class_idx: 0
            -
               depth: 8
               value: 5.
               norm_class_idx: 1
               splits:
                  - { var:50, quality:2.1153846740722656e+01,
                      le:8.4007892608642578e+00 }
            -
               depth: 9
               value: 5.
               norm_class_idx: 1
               splits:
                  - { var:1, quality:13., le:1.5555555419921875e+03 }
            -
               depth: 10
               value: 5.
               norm_class_idx: 1
            -
               depth: 10
               value: 0.
               norm_class_idx: 0
            -
               depth: 9
               value: 5.
               norm_class_idx: 1
            -
               depth: 7
               value: 0.
               norm_class_idx: 0
            -
               depth: 6
               value: 0.
               norm_class_idx: 0
               splits:
                  - { var:7, quality:11., le:5.0443369140625000e+03 }
            -
               depth: 7
               value: 0.
               norm_class_idx: 0
            -
               depth: 7
               value: 5.
               norm_class_idx: 1
            -
               depth: 5
               value: 0.
               norm_class_idx: 0
               splits:
                  - { var:35, quality:1.0199999809265137e+01,
                      le:1.5441574096679688e+01 }
            -
               depth: 6
               value: 0.
               norm_class_idx: 0
               splits:
                  - { var:24, quality:10., le:1.3153578341007233e-01 }
            -
               depth: 7
               value: 0.
               norm_class_idx: 0
            -
               depth: 7
               value: 5.
               norm_class_idx: 1
            -
               depth: 6
               value: 5.
               norm_class_idx: 1
            -
               depth: 4
               value: 5.
               norm_class_idx: 1
               splits:
                  - { var:72, quality:35., le:4.2082753906250000e+03 }
            -
               depth: 5
               value: 5.
               norm_class_idx: 1
            -
               depth: 5
               value: 0.
               norm_class_idx: 0
            -
               depth: 3
               value: 0.
               norm_class_idx: 0
            -
               depth: 2
               value: 0.
               norm_class_idx: 0
               splits:
                  - { var:6, quality:3.1228448867797852e+01,
                      le:1.7437202453613281e+02 }
            -
               depth: 3
               value: 0.
               norm_class_idx: 0
               splits:
                  - { var:9, quality:2.5296297073364258e+01,
                      le:1.0745222656250000e+04 }
            -
               depth: 4
               value: 0.
               norm_class_idx: 0
               splits:
                  - { var:7, quality:2.3750000000000000e+01,
                      le:1.5557382812500000e+04 }
            -
               depth: 5
               value: 0.
               norm_class_idx: 0
            -
               depth: 5
               value: 0.
               norm_class_idx: 0
               splits:
                  - { var:0, quality:2.2285715103149414e+01,
                      le:2.4047619628906250e+03 }
            -
               depth: 6
               value: 0.
               norm_class_idx: 0
            -
               depth: 6
               value: 0.
               norm_class_idx: 0
               splits:
                  - { var:1, quality:5.6666665077209473e+00,
                      le:2.3680556640625000e+03 }
            -
               depth: 7
               value: 0.
               norm_class_idx: 0
            -
               depth: 7
               value: 0.
               norm_class_idx: 0
            -
               depth: 4
               value: 5.
               norm_class_idx: 1
            -
               depth: 3
               value: 5.
               norm_class_idx: 1
               splits:
                  - { var:1, quality:1.1533333778381348e+01,
                      le:1.7083332519531250e+03 }
            -
               depth: 4
               value: 0.
               norm_class_idx: 0
               splits:
                  - { var:0, quality:4.6666665077209473e+00,
                      le:1.4166667480468750e+03 }
            -
               depth: 5
               value: 0.
               norm_class_idx: 0
            -
               depth: 5
               value: 5.
               norm_class_idx: 1
            -
               depth: 4
               value: 5.
               norm_class_idx: 1
            -
               depth: 1
               value: 0.
               norm_class_idx: 0
               splits:
                  - { var:73, quality:3.7773586273193359e+01,
                      le:1.4320074462890625e+03 }
            -
               depth: 2
               value: 0.
               norm_class_idx: 0
               splits:
                  - { var:20, quality:3.9304843902587891e+01,
                      le:3.3446654677391052e-01 }
            -
               depth: 3
               value: 0.
               norm_class_idx: 0
               splits:
                  - { var:18, quality:1.6715150833129883e+01,
                      le:1.3706160888671875e+03 }
            -
               depth: 4
               value: 0.
               norm_class_idx: 0
               splits:
                  - { var:49, quality:9.1999998092651367e+00,
                      le:2.6330108642578125e+02 }
            -
               depth: 5
               value: 0.
               norm_class_idx: 0
               splits:
                  - { var:16, quality:9., le:9.4614364624023438e+01 }
            -
               depth: 6
               value: 0.
               norm_class_idx: 0
            -
               depth: 6
               value: 0.
               norm_class_idx: 0
            -
               depth: 5
               value: 0.
               norm_class_idx: 0
            -
               depth: 4
               value: 5.
               norm_class_idx: 1
               splits:
                  - { var:17, quality:1.3250000000000000e+01,
                      le:4.2517070312500000e+03 }
            -
               depth: 5
               value: 5.
               norm_class_idx: 1
            -
               depth: 5
               value: 0.
               norm_class_idx: 0
               splits:
                  - { var:0, quality:8., le:2100. }
            -
               depth: 6
               value: 0.
               norm_class_idx: 0
            -
               depth: 6
               value: 5.
               norm_class_idx: 1
            -
               depth: 3
               value: 0.
               norm_class_idx: 0
               splits:
                  - { var:21, quality:2.5142856597900391e+01,
                      le:1.2664659118652344e+02 }
            -
               depth: 4
               value: 0.
               norm_class_idx: 0
               splits:
                  - { var:6, quality:1.2666666984558105e+01,
                      le:4.0130645751953125e+01 }
            -
               depth: 5
               value: 0.
               norm_class_idx: 0
            -
               depth: 5
               value: 0.
               norm_class_idx: 0
            -
               depth: 4
               value: 0.
               norm_class_idx: 0
            -
               depth: 2
               value: 5.
               norm_class_idx: 1
      -
         nodes:
            -
               depth: 0
               value: 5.
               norm_class_idx: 1
               splits:
                  - { var:1, quality:1.1647017669677734e+02,
                      le:1.9460161132812500e+03 }
            -
               depth: 1
               value: 0.
               norm_class_idx: 0
               splits:
                  - { var:60, quality:6.1626373291015625e+01,
                      le:2.4587380981445312e+02 }
            -
               depth: 2
               value: 0.
               norm_class_idx: 0
               splits:
                  - { var:71, quality:6.1298851013183594e+01,
                      le:1.3005599365234375e+03 }
            -
               depth: 3
               value: 0.
               norm_class_idx: 0
               splits:
                  - { var:0, quality:6.1417911529541016e+01,
                      le:1.0884615478515625e+03 }
            -
               depth: 4
               value: 0.
               norm_class_idx: 0
               splits:
                  - { var:0, quality:1.2525252342224121e+01,
                      le:7.3226000976562500e+02 }
            -
               depth: 5
               value: 0.
               norm_class_idx: 0
               splits:
                  - { var:43, quality:9.2222223281860352e+00,
                      le:2.4383046627044678e+00 }
            -
               depth: 6
               value: 0.
               norm_class_idx: 0
               splits:
                  - { var:1, quality:9., le:4.0350878906250000e+02 }
            -
               depth: 7
               value: 5.
               norm_class_idx: 1
            -
               depth: 7
               value: 0.
               norm_class_idx: 0
            -
               depth: 6
               value: 5.
               norm_class_idx: 1
            -
               depth: 5
               value: 5.
               norm_class_idx: 1
               splits:
                  - { var:68, quality:9., le:1.8195077514648438e+02 }
            -
               depth: 6
               value: 5.
               norm_class_idx: 1
            -
               depth: 6
               value: 0.
               norm_class_idx: 0
            -
               depth: 4
               value: 0.
               norm_class_idx: 0
               splits:
                  - { var:11, quality:5.2939392089843750e+01,
                      le:8.6309648437500000e+03 }
            -
               depth: 5
               value: 0.
               norm_class_idx: 0
               splits:
                  - { var:28, quality:5.3507690429687500e+01,
                      le:8.1605346679687500e+02 }
            -
               depth: 6
               value: 0.
               norm_class_idx: 0
               splits:
                  - { var:2, quality:5.3819671630859375e+01,
                      le:2.6785754394531250e+03 }
            -
               depth: 7
               value: 0.
               norm_class_idx: 0
               splits:
                  - { var:16, quality:5.2219512939453125e+01,
                      le:1.5802780399098992e-03 }
            -
               depth: 8
               value: 0.
               norm_class_idx: 0
               splits:
                  - { var:1, quality:3.2820514678955078e+01,
                      le:1.0576923828125000e+03 }
            -
               depth: 9
               value: 0.
               norm_class_idx: 0
            -
               depth: 9
               value: 0.
               norm_class_idx: 0
               splits:
                  - { var:7, quality:3.2095237731933594e+01,
                      le:2.2959218750000000e+04 }
            -
               depth: 10
               value: 0.
               norm_class_idx: 0
               splits:
                  - { var:7, quality:1.9125000000000000e+01,
                      le:5.7234516601562500e+03 }
            -
               depth: 11
               value: 0.
               norm_class_idx: 0
               splits:
                  - { var:17, quality:1.4285714149475098e+01,
                      le:1.0582026367187500e+03 }
            -
               depth: 12
               value: 0.
               norm_class_idx: 0
            -
               depth: 12
               value: 0.
               norm_class_idx: 0
            -
               depth: 11
               value: 0.
               norm_class_idx: 0
            -
               depth: 10
               value: 0.
               norm_class_idx: 0
               splits:
                  - { var:7, quality:1.6125000000000000e+01,
                      le:2.4725312500000000e+04 }
            -
               depth: 11
               value: 5.
               norm_class_idx: 1
            -
               depth: 11
               value: 0.
               norm_class_idx: 0
               splits:
                  - { var:1, quality:15., le:1775. }
            -
               depth: 12
               value: 0.
               norm_class_idx: 0
            -
               depth: 12
               value: 0.
               norm_class_idx: 0
            -
               depth: 8
               value: 0.
               norm_class_idx: 0
            -
               depth: 7
               value: 0.
               norm_class_idx: 0
            -
               depth: 6
               value: 5.
               norm_class_idx: 1
            -
               depth: 5
               value: 5.
               norm_class_idx: 1
            -
               depth: 3
               value: 5.
               norm_class_idx: 1
            -
               depth: 2
               value: 5.
               norm_class_idx: 1
            -
               depth: 1
               value: 5.
               norm_class_idx: 1
               splits:
                  - { var:16, quality:7.1224998474121094e+01,
                      le:1.0396214294433594e+02 }
            -
               depth: 2
               value: 5.
               norm_class_idx: 1
               splits:
                  - { var:29, quality:6.4184211730957031e+01,
                      le:9.0383565425872803e-01 }
            -
               depth: 3
               value: 5.
               norm_class_idx: 1
               splits:
                  - { var:6, quality:6.3306667327880859e+01,
                      le:3.3492187500000000e+02 }
            -
               depth: 4
               value: 5.
               norm_class_idx: 1
               splits:
                  - { var:22, quality:6.5684928894042969e+01,
                      le:1.0608845949172974e-01 }
            -
               depth: 5
               value: 5.
               norm_class_idx: 1
               splits:
                  - { var:6, quality:6.4765396118164062e+01,
                      le:1.0171701049804688e+02 }
            -
               depth: 6
               value: 5.
               norm_class_idx: 1
               splits:
                  - { var:49, quality:6.0032787322998047e+01,
                      le:4.6026394653320312e+02 }
            -
               depth: 7
               value: 5.
               norm_class_idx: 1
               splits:
                  - { var:18, quality:5.9080001831054688e+01,
                      le:9.1123336791992188e+01 }
            -
               depth: 8
               value: 5.
               norm_class_idx: 1
               splits:
                  - { var:0, quality:25., le:1.5833332519531250e+03 }
            -
               depth: 9
               value: 0.
               norm_class_idx: 0
            -
               depth: 9
               value: 5.
               norm_class_idx: 1
            -
               depth: 8
               value: 5.
               norm_class_idx: 1
            -
               depth: 7
               value: 0.
               norm_class_idx: 0
            -
               depth: 6
               value: 5.
               norm_class_idx: 1
               splits:
                  - { var:6, quality:9.2222223281860352e+00,
                      le:1.3290550231933594e+02 }
            -
               depth: 7
               value: 0.
               norm_class_idx: 0
            -
               depth: 7
               value: 5.
               norm_class_idx: 1
               splits:
                  - { var:7, quality:7.5000000000000000e+00,
                      le:3.6375718750000000e+04 }
            -
               depth: 8
               value: 5.
               norm_class_idx: 1
            -
               depth: 8
               value: 5.
               norm_class_idx: 1
            -
               depth: 5
               value: 0.
               norm_class_idx: 0
            -
               depth: 4
               value: 0.
               norm_class_idx: 0
            -
               depth: 3
               value: 0.
               norm_class_idx: 0
            -
               depth: 2
               value: 0.
               norm_class_idx: 0
               splits:
                  - { var:2, quality:1.3500000000000000e+01,
                      le:2.3539292907714844e+02 }
            -
               depth: 3
               value: 0.
               norm_class_idx: 0
            -
               depth: 3
               value: 5.
               norm_class_idx: 1
      -
         nodes:
            -
               depth: 0
               value: 5.
               norm_class_idx: 1
               splits:
                  - { var:0, quality:1.1343312835693359e+02,
                      le:2.1527878417968750e+03 }
            -
               depth: 1
               value: 0.
               norm_class_idx: 0
               splits:
                  - { var:49, quality:7.0805717468261719e+01,
                      le:9.9738906860351562e+01 }
            -
               depth: 2
               value: 0.
               norm_class_idx: 0
               splits:
                  - { var:20, quality:6.4691360473632812e+01,
                      le:7.9163432121276855e-01 }
            -
               depth: 3
               value: 0.
               norm_class_idx: 0
               splits:
                  - { var:7, quality:5.1864864349365234e+01,
                      le:9.6917119140625000e+03 }
            -
               depth: 4
               value: 0.
               norm_class_idx: 0
               splits:
                  - { var:8, quality:2.5666666030883789e+01,
                      le:4.5131243896484375e+02 }
            -
               depth: 5
               value: 5.
               norm_class_idx: 1
               splits:
                  - { var:0, quality:20., le:1.9226190185546875e+03 }
            -
               depth: 6
               value: 5.
               norm_class_idx: 1
               splits:
                  - { var:0, quality:1.6173913955688477e+01,
                      le:5.8248156738281250e+02 }
            -
               depth: 7
               value: 0.
               norm_class_idx: 0
            -
               depth: 7
               value: 5.
               norm_class_idx: 1
               splits:
                  - { var:28, quality:1.5631579399108887e+01,
                      le:1.2652423095703125e+02 }
            -
               depth: 8
               value: 5.
               norm_class_idx: 1
               splits:
                  - { var:21, quality:1.2777777671813965e+01,
                      le:4.9603250122070312e+02 }
            -
               depth: 9
               value: 5.
               norm_class_idx: 1
               splits:
                  - { var:7, quality:1.2133333206176758e+01,
                      le:1.9841300048828125e+03 }
            -
               depth: 10
               value: 5.
               norm_class_idx: 1
               splits:
                  - { var:1, quality:9.7272729873657227e+00, le:950. }
            -
               depth: 11
               value: 0.
               norm_class_idx: 0
            -
               depth: 11
               value: 5.
               norm_class_idx: 1
               splits:
                  - { var:48, quality:7.8888888359069824e+00,
                      le:5.9525598144531250e+02 }
            -
               depth: 12
               value: 5.
               norm_class_idx: 1
               splits:
                  - { var:45, quality:6., le:2.3809560546875000e+03 }
            -
               depth: 13
               value: 5.
               norm_class_idx: 1
               splits:
                  - { var:9, quality:5.3333334922790527e+00,
                      le:1.1904779296875000e+04 }
            -
               depth: 14
               value: 5.
               norm_class_idx: 1
               splits:
                  - { var:1, quality:4.6666665077209473e+00,
                      le:1.4333332519531250e+03 }
            -
               depth: 15
               value: 5.
               norm_class_idx: 1
            -
               depth: 15
               value: 0.
               norm_class_idx: 0
            -
               depth: 14
               value: 5.
               norm_class_idx: 1
            -
               depth: 13
               value: 5.
               norm_class_idx: 1
            -
               depth: 12
               value: 5.
               norm_class_idx: 1
            -
               depth: 10
               value: 5.
               norm_class_idx: 1
            -
               depth: 9
               value: 0.
               norm_class_idx: 0
            -
               depth: 8
               value: 5.
               norm_class_idx: 1
            -
               depth: 6
               value: 0.
               norm_class_idx: 0
               splits:
                  - { var:37, quality:5.1428570747375488e+00,
                      le:7.9055175781250000e+02 }
            -
               depth: 7
               value: 0.
               norm_class_idx: 0
               splits:
                  - { var:21, quality:4.5999999046325684e+00,
                      le:3.9682598876953125e+02 }
            -
               depth: 8
               value: 0.
               norm_class_idx: 0
            -
               depth: 8
               value: 0.
               norm_class_idx: 0
            -
               depth: 7
               value: 0.
               norm_class_idx: 0
            -
               depth: 5
               value: 0.
               norm_class_idx: 0
               splits:
                  - { var:52, quality:12., le:3.2164585113525391e+01 }
            -
               depth: 6
               value: 0.
               norm_class_idx: 0
            -
               depth: 6
               value: 5.
               norm_class_idx: 1
            -
               depth: 4
               value: 0.
               norm_class_idx: 0
               splits:
                  - { var:6, quality:3.3228572845458984e+01,
                      le:3.1408227539062500e+02 }
            -
               depth: 5
               value: 0.
               norm_class_idx: 0
               splits:
                  - { var:1, quality:3.1615385055541992e+01,
                      le:1.6410256347656250e+03 }
            -
               depth: 6
               value: 0.
               norm_class_idx: 0
            -
               depth: 6
               value: 0.
               norm_class_idx: 0
               splits:
                  - { var:1, quality:1.0333333015441895e+01,
                      le:1.8285714111328125e+03 }
            -
               depth: 7
               value: 0.
               norm_class_idx: 0
               splits:
                  - { var:1, quality:3.5000000000000000e+00, le:1775. }
            -
               depth: 8
               value: 0.
               norm_class_idx: 0
            -
               depth: 8
               value: 0.
               norm_class_idx: 0
            -
               depth: 7
               value: 0.
               norm_class_idx: 0
            -
               depth: 5
               value: 5.
               norm_class_idx: 1
            -
               depth: 3
               value: 0.
               norm_class_idx: 0
            -
               depth: 2
               value: 5.
               norm_class_idx: 1
               splits:
                  - { var:18, quality:14., le:1.0555192565917969e+02 }
            -
               depth: 3
               value: 0.
               norm_class_idx: 0
            -
               depth: 3
               value: 5.
               norm_class_idx: 1
            -
               depth: 1
               value: 5.
               norm_class_idx: 1
               splits:
                  - { var:6, quality:5.5400001525878906e+01,
                      le:1.7040714263916016e+01 }
            -
               depth: 2
               value: 5.
               norm_class_idx: 1
               splits:
                  - { var:18, quality:4.9346153259277344e+01,
                      le:3.7698469238281250e+03 }
            -
               depth: 3
               value: 5.
               norm_class_idx: 1
               splits:
                  - { var:72, quality:5.0040000915527344e+01,
                      le:9.6754003906250000e+02 }
            -
               depth: 4
               value: 5.
               norm_class_idx: 1
               splits:
                  - { var:22, quality:50., le:1.2598362565040588e-01 }
            -
               depth: 5
               value: 5.
               norm_class_idx: 1
            -
               depth: 5
               value: 0.
               norm_class_idx: 0
            -
               depth: 4
               value: 0.
               norm_class_idx: 0
            -
               depth: 3
               value: 0.
               norm_class_idx: 0
            -
               depth: 2
               value: 0.
               norm_class_idx: 0
               splits:
                  - { var:9, quality:14., le:2.3246845703125000e+03 }
            -
               depth: 3
               value: 0.
               norm_class_idx: 0
               splits:
                  - { var:0, quality:1.3324675559997559e+01,
                      le:2.5166665039062500e+03 }
            -
               depth: 4
               value: 5.
               norm_class_idx: 1
               splits:
                  - { var:1, quality:5.3333334922790527e+00,
                      le:2.2645349121093750e+03 }
            -
               depth: 5
               value: 5.
               norm_class_idx: 1
               splits:
                  - { var:17, quality:4.5000000000000000e+00,
                      le:1.9841300048828125e+03 }
            -
               depth: 6
               value: 5.
               norm_class_idx: 1
            -
               depth: 6
               value: 5.
               norm_class_idx: 1
            -
               depth: 5
               value: 0.
               norm_class_idx: 0
            -
               depth: 4
               value: 0.
               norm_class_idx: 0
               splits:
                  - { var:1, quality:9.6666669845581055e+00,
                      le:2.1222221679687500e+03 }
            -
               depth: 5
               value: 0.
               norm_class_idx: 0
            -
               depth: 5
               value: 0.
               norm_class_idx: 0
            -
               depth: 3
               value: 5.
               norm_class_idx: 1
      -
         nodes:
            -
               depth: 0
               value: 0.
               norm_class_idx: 0
               splits:
                  - { var:7, quality:1.0960525512695312e+02,
                      le:3.0344758300781250e+03 }
            -
               depth: 1
               value: 5.
               norm_class_idx: 1
               splits:
                  - { var:10, quality:6.0837207794189453e+01,
                      le:1.3364760742187500e+03 }
            -
               depth: 2
               value: 5.
               norm_class_idx: 1
               splits:
                  - { var:45, quality:4.9682865142822266e+01,
                      le:1.2242909240722656e+02 }
            -
               depth: 3
               value: 0.
               norm_class_idx: 0
               splits:
                  - { var:16, quality:3.9299999237060547e+01,
                      le:7.8476257324218750e+00 }
            -
               depth: 4
               value: 5.
               norm_class_idx: 1
               splits:
                  - { var:11, quality:3.4875480651855469e+01,
                      le:1.9927943420410156e+02 }
            -
               depth: 5
               value: 5.
               norm_class_idx: 1
               splits:
                  - { var:37, quality:2.6263158798217773e+01,
                      le:1.2400812500000000e+04 }
            -
               depth: 6
               value: 5.
               norm_class_idx: 1
               splits:
                  - { var:64, quality:2.4378377914428711e+01,
                      le:1.2879440917968750e+03 }
            -
               depth: 7
               value: 5.
               norm_class_idx: 1
               splits:
                  - { var:0, quality:2.4785715103149414e+01,
                      le:1.5964912109375000e+03 }
            -
               depth: 8
               value: 5.
               norm_class_idx: 1
            -
               depth: 8
               value: 5.
               norm_class_idx: 1
               splits:
                  - { var:0, quality:1.7850000381469727e+01,
                      le:1.9666667480468750e+03 }
            -
               depth: 9
               value: 0.
               norm_class_idx: 0
               splits:
                  - { var:28, quality:8., le:4.9603250122070312e+02 }
            -
               depth: 10
               value: 0.
               norm_class_idx: 0
            -
               depth: 10
               value: 5.
               norm_class_idx: 1
            -
               depth: 9
               value: 5.
               norm_class_idx: 1
               splits:
                  - { var:0, quality:1.4461538314819336e+01,
                      le:2.2898979492187500e+03 }
            -
               depth: 10
               value: 5.
               norm_class_idx: 1
            -
               depth: 10
               value: 5.
               norm_class_idx: 1
               splits:
                  - { var:31, quality:8.1999998092651367e+00,
                      le:1.1904780273437500e+03 }
            -
               depth: 11
               value: 5.
               norm_class_idx: 1
               splits:
                  - { var:59, quality:6., le:3.8402514648437500e+02 }
            -
               depth: 12
               value: 0.
               norm_class_idx: 0
               splits:
                  - { var:1, quality:6.4000000953674316e+00,
                      le:2.8863637695312500e+03 }
            -
               depth: 13
               value: 0.
               norm_class_idx: 0
            -
               depth: 13
               value: 5.
               norm_class_idx: 1
            -
               depth: 12
               value: 5.
               norm_class_idx: 1
            -
               depth: 11
               value: 5.
               norm_class_idx: 1
            -
               depth: 7
               value: 0.
               norm_class_idx: 0
            -
               depth: 6
               value: 0.
               norm_class_idx: 0
            -
               depth: 5
               value: 0.
               norm_class_idx: 0
               splits:
                  - { var:16, quality:1.7333333969116211e+01,
                      le:5.9983032941818237e-01 }
            -
               depth: 6
               value: 0.
               norm_class_idx: 0
            -
               depth: 6
               value: 5.
               norm_class_idx: 1
               splits:
                  - { var:38, quality:6., le:8.0607306957244873e-01 }
            -
               depth: 7
               value: 5.
               norm_class_idx: 1
            -
               depth: 7
               value: 0.
               norm_class_idx: 0
            -
               depth: 4
               value: 0.
               norm_class_idx: 0
            -
               depth: 3
               value: 5.
               norm_class_idx: 1
               splits:
                  - { var:69, quality:1.5666666984558105e+01,
                      le:1.8031265258789062e+02 }
            -
               depth: 4
               value: 5.
               norm_class_idx: 1
            -
               depth: 4
               value: 5.
               norm_class_idx: 1
            -
               depth: 2
               value: 5.
               norm_class_idx: 1
            -
               depth: 1
               value: 0.
               norm_class_idx: 0
               splits:
                  - { var:63, quality:5.9807228088378906e+01,
                      le:1.1671092224121094e+02 }
            -
               depth: 2
               value: 0.
               norm_class_idx: 0
               splits:
                  - { var:58, quality:5.6048782348632812e+01,
                      le:4.3283183127641678e-02 }
            -
               depth: 3
               value: 0.
               norm_class_idx: 0
               splits:
                  - { var:70, quality:5.6376811981201172e+01,
                      le:8.1788562011718750e+02 }
            -
               depth: 4
               value: 0.
               norm_class_idx: 0
               splits:
                  - { var:0, quality:4.7904762268066406e+01,
                      le:1.4115384521484375e+03 }
            -
               depth: 5
               value: 5.
               norm_class_idx: 1
               splits:
                  - { var:6, quality:4.6666665077209473e+00,
                      le:1.2875885009765625e+02 }
            -
               depth: 6
               value: 5.
               norm_class_idx: 1
            -
               depth: 6
               value: 5.
               norm_class_idx: 1
            -
               depth: 5
               value: 0.
               norm_class_idx: 0
               splits:
                  - { var:6, quality:4.7606895446777344e+01,
                      le:3.1408227539062500e+02 }
            -
               depth: 6
               value: 0.
               norm_class_idx: 0
               splits:
                  - { var:16, quality:4.5975757598876953e+01,
                      le:2.1166709899902344e+02 }
            -
               depth: 7
               value: 0.
               norm_class_idx: 0
               splits:
                  - { var:1, quality:4.7603775024414062e+01,
                      le:1.0576923828125000e+03 }
            -
               depth: 8
               value: 5.
               norm_class_idx: 1
            -
               depth: 8
               value: 0.
               norm_class_idx: 0
               splits:
                  - { var:1, quality:4.7346153259277344e+01,
                      le:2.9166665039062500e+03 }
            -
               depth: 9
               value: 0.
               norm_class_idx: 0
               splits:
                  - { var:31, quality:4.6360000610351562e+01,
                      le:1.2800838623046875e+03 }
            -
               depth: 10
               value: 0.
               norm_class_idx: 0
               splits:
                  - { var:6, quality:4.4937667846679688e+01,
                      le:1.8234635925292969e+02 }
            -
               depth: 11
               value: 0.
               norm_class_idx: 0
               splits:
                  - { var:7, quality:3.9111110687255859e+01,
                      le:2.4943347656250000e+04 }
            -
               depth: 12
               value: 0.
               norm_class_idx: 0
            -
               depth: 12
               value: 0.
               norm_class_idx: 0
               splits:
                  - { var:5, quality:1.6399999618530273e+01,
                      le:9.9236106872558594e+00 }
            -
               depth: 13
               value: 0.
               norm_class_idx: 0
            -
               depth: 13
               value: 0.
               norm_class_idx: 0
            -
               depth: 11
               value: 0.
               norm_class_idx: 0
               splits:
                  - { var:6, quality:9., le:1.9599133300781250e+02 }
            -
               depth: 12
               value: 5.
               norm_class_idx: 1
            -
               depth: 12
               value: 0.
               norm_class_idx: 0
            -
               depth: 10
               value: 0.
               norm_class_idx: 0
            -
               depth: 9
               value: 5.
               norm_class_idx: 1
            -
               depth: 7
               value: 5.
               norm_class_idx: 1
            -
               depth: 6
               value: 5.
               norm_class_idx: 1
            -
               depth: 4
               value: 0.
               norm_class_idx: 0
            -
               depth: 3
               value: 5.
               norm_class_idx: 1
            -
               depth: 2
               value: 5.
               norm_class_idx: 1
      -
         nodes:
            -
               depth: 0
               value: 5.
               norm_class_idx: 1
               splits:
                  - { var:20, quality:1.1174390411376953e+02,
                      le:4.2150897216796875e+02 }
            -
               depth: 1
               value: 5.
               norm_class_idx: 1
               splits:
                  - { var:41, quality:9.2714286804199219e+01,
                      le:3.0926433105468750e+03 }
            -
               depth: 2
               value: 0.
               norm_class_idx: 0
               splits:
                  - { var:26, quality:6.6446426391601562e+01,
                      le:2.2014203667640686e-01 }
            -
               depth: 3
               value: 5.
               norm_class_idx: 1
               splits:
                  - { var:6, quality:6.1992927551269531e+01,
                      le:3.4425910949707031e+01 }
            -
               depth: 4
               value: 5.
               norm_class_idx: 1
               splits:
                  - { var:9, quality:3.6796611785888672e+01,
                      le:1.4387004394531250e+03 }
            -
               depth: 5
               value: 5.
               norm_class_idx: 1
               splits:
                  - { var:51, quality:3.6894737243652344e+01,
                      le:9.7632644653320312e+01 }
            -
               depth: 6
               value: 5.
               norm_class_idx: 1
               splits:
                  - { var:48, quality:3.6574466705322266e+01,
                      le:1.0370312929153442e+00 }
            -
               depth: 7
               value: 5.
               norm_class_idx: 1
               splits:
                  - { var:64, quality:2.7521739959716797e+01,
                      le:9.7466033935546875e+02 }
            -
               depth: 8
               value: 5.
               norm_class_idx: 1
               splits:
                  - { var:17, quality:3.1951219558715820e+01,
                      le:3.4863999023437500e+03 }
            -
               depth: 9
               value: 5.
               norm_class_idx: 1
               splits:
                  - { var:0, quality:3.0043478012084961e+01, le:2125. }
            -
               depth: 10
               value: 5.
               norm_class_idx: 1
               splits:
                  - { var:1, quality:1.5046154022216797e+01, le:830. }
            -
               depth: 11
               value: 5.
               norm_class_idx: 1
               splits:
                  - { var:6, quality:8.5000000000000000e+00,
                      le:5.9541668891906738e+00 }
            -
               depth: 12
               value: 5.
               norm_class_idx: 1
            -
               depth: 12
               value: 5.
               norm_class_idx: 1
            -
               depth: 11
               value: 0.
               norm_class_idx: 0
               splits:
                  - { var:69, quality:7.6666665077209473e+00,
                      le:1.2531347656250000e+03 }
            -
               depth: 12
               value: 0.
               norm_class_idx: 0
               splits:
                  - { var:52, quality:7.6363635063171387e+00,
                      le:5.9548809051513672e+01 }
            -
               depth: 13
               value: 0.
               norm_class_idx: 0
               splits:
                  - { var:28, quality:9.2222223281860352e+00,
                      le:4.9603250122070312e+02 }
            -
               depth: 14
               value: 0.
               norm_class_idx: 0
               splits:
                  - { var:35, quality:7.2500000000000000e+00,
                      le:4.9603250122070312e+02 }
            -
               depth: 15
               value: 0.
               norm_class_idx: 0
            -
               depth: 15
               value: 0.
               norm_class_idx: 0
            -
               depth: 14
               value: 5.
               norm_class_idx: 1
            -
               depth: 13
               value: 5.
               norm_class_idx: 1
            -
               depth: 12
               value: 5.
               norm_class_idx: 1
            -
               depth: 10
               value: 5.
               norm_class_idx: 1
            -
               depth: 9
               value: 0.
               norm_class_idx: 0
            -
               depth: 8
               value: 0.
               norm_class_idx: 0
            -
               depth: 7
               value: 5.
               norm_class_idx: 1
            -
               depth: 6
               value: 0.
               norm_class_idx: 0
            -
               depth: 5
               value: 0.
               norm_class_idx: 0
            -
               depth: 4
               value: 0.
               norm_class_idx: 0
               splits:
                  - { var:5, quality:3.4740741729736328e+01,
                      le:1.2333631134033203e+02 }
            -
               depth: 5
               value: 0.
               norm_class_idx: 0
               splits:
                  - { var:9, quality:2.2086956024169922e+01,
                      le:2.9220825195312500e+03 }
            -
               depth: 6
               value: 0.
               norm_class_idx: 0
               splits:
                  - { var:6, quality:2.1250000000000000e+01,
                      le:1.0047656250000000e+02 }
            -
               depth: 7
               value: 0.
               norm_class_idx: 0
               splits:
                  - { var:6, quality:8., le:8.9116638183593750e+01 }
            -
               depth: 8
               value: 0.
               norm_class_idx: 0
            -
               depth: 8
               value: 5.
               norm_class_idx: 1
            -
               depth: 7
               value: 0.
               norm_class_idx: 0
            -
               depth: 6
               value: 5.
               norm_class_idx: 1
            -
               depth: 5
