%YAML:1.0
---
opencv_ml_rtrees:
   format: 3
   is_classifier: 1
   var_all: 63
   var_count: 62
   ord_var_count: 62
   cat_var_count: 1
   training_params:
      use_surrogates: 0
      max_categories: 15
      regression_accuracy: 0.
      max_depth: 25
      min_sample_count: 5
      cross_validation_folds: 0
      nactive_vars: 20
   global_var_idx: 1
   var_idx: [ 0, 1, 2, 3, 4, 5, 6, 7, 8, 9, 10, 11, 12, 13, 14, 15, 16,
       17, 18, 19, 20, 21, 22, 23, 24, 25, 26, 27, 28, 29, 30, 31, 32,
       33, 34, 35, 36, 37, 38, 39, 40, 41, 42, 43, 44, 45, 46, 47, 48,
       49, 50, 51, 52, 53, 54, 55, 56, 57, 58, 59, 60, 61 ]
   var_type: [ 0, 0, 0, 0, 0, 0, 0, 0, 0, 0, 0, 0, 0, 0, 0, 0, 0, 0, 0,
       0, 0, 0, 0, 0, 0, 0, 0, 0, 0, 0, 0, 0, 0, 0, 0, 0, 0, 0, 0, 0, 0,
       0, 0, 0, 0, 0, 0, 0, 0, 0, 0, 0, 0, 0, 0, 0, 0, 0, 0, 0, 0, 0, 1 ]
   cat_ofs: [ 0, 0, 0, 0, 0, 0, 0, 0, 0, 0, 0, 0, 0, 0, 0, 0, 0, 0, 0, 0,
       0, 0, 0, 0, 0, 0, 0, 0, 0, 0, 0, 0, 0, 0, 0, 0, 0, 0, 0, 0, 0, 0,
       0, 0, 0, 0, 0, 0, 0, 0, 0, 0, 0, 0, 0, 0, 0, 0, 0, 0, 0, 0, 0, 0,
       0, 0, 0, 0, 0, 0, 0, 0, 0, 0, 0, 0, 0, 0, 0, 0, 0, 0, 0, 0, 0, 0,
       0, 0, 0, 0, 0, 0, 0, 0, 0, 0, 0, 0, 0, 0, 0, 0, 0, 0, 0, 0, 0, 0,
       0, 0, 0, 0, 0, 0, 0, 0, 0, 0, 0, 0, 0, 0, 0, 0 ]
   class_labels: [ 0, 3, 5 ]
   missing_subst: [ 0., 0., 0., 0., 0., 0., 0., 0., 0., 0., 0., 0., 0.,
       0., 0., 0., 0., 0., 0., 0., 0., 0., 0., 0., 0., 0., 0., 0., 0.,
       0., 0., 0., 0., 0., 0., 0., 0., 0., 0., 0., 0., 0., 0., 0., 0.,
       0., 0., 0., 0., 0., 0., 0., 0., 0., 0., 0., 0., 0., 0., 0., 0.,
       0., 0. ]
   oob_error: 4.0506329113924050e-01
   var_importance: [ 2.85738744e-02, 5.46667837e-02, 1.54846441e-02,
       1.42869372e-02, 1.57412961e-02, 1.83933619e-02, 1.63401496e-02,
       1.43724876e-02, 1.45435883e-02, 1.51424417e-02, 1.95055194e-02,
       1.43724876e-02, 1.41158355e-02, 1.45435883e-02, 1.54846441e-02,
       1.53990937e-02, 1.48002403e-02, 1.46291386e-02, 1.38591845e-02,
       1.54846441e-02, 1.66823510e-02, 1.43724876e-02, 1.43724876e-02,
       1.61690488e-02, 1.40302852e-02, 1.42869372e-02, 1.48857906e-02,
       1.43724876e-02, 1.54846441e-02, 1.42869372e-02, 1.48857906e-02,
       1.44580379e-02, 1.62545983e-02, 1.44580379e-02, 1.83078106e-02,
       1.53990937e-02, 1.59123968e-02, 1.52279930e-02, 1.43724876e-02,
       1.59123968e-02, 1.48002403e-02, 1.44580379e-02, 1.44580379e-02,
       1.54846441e-02, 1.56557448e-02, 1.44580379e-02, 1.43724876e-02,
       1.50568914e-02, 1.74523070e-02, 1.44580379e-02, 1.43724876e-02,
       1.46291386e-02, 1.45435883e-02, 1.55701945e-02, 1.44580379e-02,
       1.42013868e-02, 1.72812045e-02, 1.44580379e-02, 1.68534517e-02,
       1.70245543e-02, 1.50568914e-02, 1.70245543e-02 ]
   ntrees: 50
   trees:
      -
         nodes:
            -
               depth: 0
               value: 0.
               norm_class_idx: 0
               splits:
                  - { var:52, quality:8.3663040161132812e+01,
                      le:1.2031529235839844e+02 }
            -
               depth: 1
               value: 0.
               norm_class_idx: 0
               splits:
                  - { var:1, quality:7.7032142639160156e+01,
                      le:1.3714285888671875e+03 }
            -
               depth: 2
               value: 5.
               norm_class_idx: 2
               splits:
                  - { var:61, quality:2.9777778625488281e+01,
                      le:8.9993231201171875e+02 }
            -
               depth: 3
               value: 5.
               norm_class_idx: 2
               splits:
                  - { var:1, quality:2.2032608032226562e+01,
                      le:1.2583332519531250e+03 }
            -
               depth: 4
               value: 5.
               norm_class_idx: 2
               splits:
                  - { var:1, quality:19., le:1.1925925292968750e+03 }
            -
               depth: 5
               value: 5.
               norm_class_idx: 2
               splits:
                  - { var:4, quality:1.9189189910888672e+01,
                      le:2.4981037902832031e+02 }
            -
               depth: 6
               value: 5.
               norm_class_idx: 2
               splits:
                  - { var:0, quality:1.7912698745727539e+01,
                      le:7.0238098144531250e+02 }
            -
               depth: 7
               value: 0.
               norm_class_idx: 0
               splits:
                  - { var:0, quality:6.5000000000000000e+00,
                      le:4.1428570556640625e+02 }
            -
               depth: 8
               value: 5.
               norm_class_idx: 2
            -
               depth: 8
               value: 0.
               norm_class_idx: 0
            -
               depth: 7
               value: 5.
               norm_class_idx: 2
               splits:
                  - { var:2, quality:1.6159999847412109e+01,
                      le:1.3280073242187500e+04 }
            -
               depth: 8
               value: 5.
               norm_class_idx: 2
               splits:
                  - { var:19, quality:1.5434782981872559e+01,
                      le:4.5351543426513672e+01 }
            -
               depth: 9
               value: 5.
               norm_class_idx: 2
               splits:
                  - { var:6, quality:1.4727272987365723e+01,
                      le:1.3949600585937500e+04 }
            -
               depth: 10
               value: 5.
               norm_class_idx: 2
               splits:
                  - { var:15, quality:1.5142857551574707e+01,
                      le:7.1991107177734375e+02 }
            -
               depth: 11
               value: 5.
               norm_class_idx: 2
               splits:
                  - { var:10, quality:1.7421052932739258e+01,
                      le:6.0606152343750000e+03 }
            -
               depth: 12
               value: 5.
               norm_class_idx: 2
               splits:
                  - { var:0, quality:1.6600000381469727e+01,
                      le:1.0384615478515625e+03 }
            -
               depth: 13
               value: 5.
               norm_class_idx: 2
            -
               depth: 13
               value: 5.
               norm_class_idx: 2
            -
               depth: 12
               value: 3.
               norm_class_idx: 1
            -
               depth: 11
               value: 3.
               norm_class_idx: 1
            -
               depth: 10
               value: 3.
               norm_class_idx: 1
            -
               depth: 9
               value: 3.
               norm_class_idx: 1
            -
               depth: 8
               value: 3.
               norm_class_idx: 1
            -
               depth: 6
               value: 0.
               norm_class_idx: 0
            -
               depth: 5
               value: 3.
               norm_class_idx: 1
            -
               depth: 4
               value: 5.
               norm_class_idx: 2
               splits:
                  - { var:1, quality:6.6666665077209473e+00,
                      le:1.3111110839843750e+03 }
            -
               depth: 5
               value: 5.
               norm_class_idx: 2
            -
               depth: 5
               value: 5.
               norm_class_idx: 2
            -
               depth: 3
               value: 5.
               norm_class_idx: 2
            -
               depth: 2
               value: 0.
               norm_class_idx: 0
               splits:
                  - { var:1, quality:5.3636363983154297e+01, le:2550. }
            -
               depth: 3
               value: 0.
               norm_class_idx: 0
               splits:
                  - { var:4, quality:4.7983333587646484e+01,
                      le:2.2578199768066406e+02 }
            -
               depth: 4
               value: 0.
               norm_class_idx: 0
               splits:
                  - { var:55, quality:3.8062500000000000e+01,
                      le:9.0756435546875000e+03 }
            -
               depth: 5
               value: 0.
               norm_class_idx: 0
               splits:
                  - { var:5, quality:3.0071428298950195e+01,
                      le:8.5739997863769531e+01 }
            -
               depth: 6
               value: 0.
               norm_class_idx: 0
               splits:
                  - { var:0, quality:2.6250000000000000e+01,
                      le:2.4444443359375000e+03 }
            -
               depth: 7
               value: 0.
               norm_class_idx: 0
            -
               depth: 7
               value: 0.
               norm_class_idx: 0
            -
               depth: 6
               value: 0.
               norm_class_idx: 0
            -
               depth: 5
               value: 0.
               norm_class_idx: 0
            -
               depth: 4
               value: 0.
               norm_class_idx: 0
               splits:
                  - { var:4, quality:1.2153845787048340e+01,
                      le:3.4753277587890625e+02 }
            -
               depth: 5
               value: 3.
               norm_class_idx: 1
            -
               depth: 5
               value: 0.
               norm_class_idx: 0
               splits:
                  - { var:1, quality:1.1666666984558105e+01, le:2050. }
            -
               depth: 6
               value: 0.
               norm_class_idx: 0
            -
               depth: 6
               value: 0.
               norm_class_idx: 0
            -
               depth: 3
               value: 0.
               norm_class_idx: 0
               splits:
                  - { var:1, quality:9.3999996185302734e+00,
                      le:2.8989897460937500e+03 }
            -
               depth: 4
               value: 5.
               norm_class_idx: 2
            -
               depth: 4
               value: 0.
               norm_class_idx: 0
               splits:
                  - { var:2, quality:8.2222223281860352e+00,
                      le:9.4334716796875000e+03 }
            -
               depth: 5
               value: 0.
               norm_class_idx: 0
               splits:
                  - { var:35, quality:7.5000000000000000e+00,
                      le:3.5146423339843750e+01 }
            -
               depth: 6
               value: 0.
               norm_class_idx: 0
            -
               depth: 6
               value: 0.
               norm_class_idx: 0
            -
               depth: 5
               value: 5.
               norm_class_idx: 2
            -
               depth: 1
               value: 5.
               norm_class_idx: 2
               splits:
                  - { var:7, quality:3.7705265045166016e+01,
                      le:3.2557873535156250e+02 }
            -
               depth: 2
               value: 3.
               norm_class_idx: 1
               splits:
                  - { var:58, quality:2.3567567825317383e+01,
                      le:1.9640478134155273e+01 }
            -
               depth: 3
               value: 5.
               norm_class_idx: 2
            -
               depth: 3
               value: 3.
               norm_class_idx: 1
               splits:
                  - { var:56, quality:2.5059999465942383e+01,
                      le:3.8179455566406250e+02 }
            -
               depth: 4
               value: 3.
               norm_class_idx: 1
               splits:
                  - { var:41, quality:2.3086956024169922e+01,
                      le:5.6448531150817871e+00 }
            -
               depth: 5
               value: 3.
               norm_class_idx: 1
               splits:
                  - { var:28, quality:23., le:7.7429113769531250e+02 }
            -
               depth: 6
               value: 0.
               norm_class_idx: 0
            -
               depth: 6
               value: 3.
               norm_class_idx: 1
            -
               depth: 5
               value: 5.
               norm_class_idx: 2
            -
               depth: 4
               value: 5.
               norm_class_idx: 2
               splits:
                  - { var:19, quality:9., le:9.0490608215332031e+01 }
            -
               depth: 5
               value: 3.
               norm_class_idx: 1
               splits:
                  - { var:51, quality:5., le:1.7180693054199219e+02 }
            -
               depth: 6
               value: 3.
               norm_class_idx: 1
            -
               depth: 6
               value: 0.
               norm_class_idx: 0
            -
               depth: 5
               value: 5.
               norm_class_idx: 2
            -
               depth: 2
               value: 5.
               norm_class_idx: 2
               splits:
                  - { var:19, quality:19., le:1.1909696960449219e+02 }
            -
               depth: 3
               value: 3.
               norm_class_idx: 1
            -
               depth: 3
               value: 5.
               norm_class_idx: 2
      -
         nodes:
            -
               depth: 0
               value: 5.
               norm_class_idx: 2
               splits:
                  - { var:1, quality:9.3475456237792969e+01,
                      le:1.6190476074218750e+03 }
            -
               depth: 1
               value: 5.
               norm_class_idx: 2
               splits:
                  - { var:59, quality:6.3670993804931641e+01,
                      le:1.2192337646484375e+03 }
            -
               depth: 2
               value: 5.
               norm_class_idx: 2
               splits:
                  - { var:1, quality:4.0188899993896484e+01,
                      le:1.2526162109375000e+03 }
            -
               depth: 3
               value: 3.
               norm_class_idx: 1
               splits:
                  - { var:1, quality:31., le:2.7861093139648438e+02 }
            -
               depth: 4
               value: 3.
               norm_class_idx: 1
            -
               depth: 4
               value: 5.
               norm_class_idx: 2
               splits:
                  - { var:10, quality:2.7588235855102539e+01,
                      le:3.1377770996093750e+02 }
            -
               depth: 5
               value: 5.
               norm_class_idx: 2
               splits:
                  - { var:17, quality:2.3913043975830078e+01,
                      le:3.0268145751953125e+02 }
            -
               depth: 6
               value: 5.
               norm_class_idx: 2
               splits:
                  - { var:37, quality:2.2052631378173828e+01,
                      le:1.2268517303466797e+02 }
            -
               depth: 7
               value: 5.
               norm_class_idx: 2
               splits:
                  - { var:14, quality:1.7696969985961914e+01,
                      le:1.0449008941650391e+02 }
            -
               depth: 8
               value: 5.
               norm_class_idx: 2
               splits:
                  - { var:4, quality:1.6962963104248047e+01,
                      le:2.0395727539062500e+02 }
            -
               depth: 9
               value: 5.
               norm_class_idx: 2
               splits:
                  - { var:4, quality:14., le:2.2011191844940186e+00 }
            -
               depth: 10
               value: 5.
               norm_class_idx: 2
               splits:
                  - { var:15, quality:8.2666664123535156e+00,
                      le:1.9047647705078125e+03 }
            -
               depth: 11
               value: 5.
               norm_class_idx: 2
               splits:
                  - { var:1, quality:9.1363639831542969e+00,
                      le:6.4285717773437500e+02 }
            -
               depth: 12
               value: 0.
               norm_class_idx: 0
            -
               depth: 12
               value: 5.
               norm_class_idx: 2
               splits:
                  - { var:1, quality:9.2222223281860352e+00,
                      le:1.0357143554687500e+03 }
            -
               depth: 13
               value: 5.
               norm_class_idx: 2
               splits:
                  - { var:0, quality:9., le:575. }
            -
               depth: 14
               value: 3.
               norm_class_idx: 1
            -
               depth: 14
               value: 5.
               norm_class_idx: 2
            -
               depth: 13
               value: 3.
               norm_class_idx: 1
            -
               depth: 11
               value: 0.
               norm_class_idx: 0
            -
               depth: 10
               value: 5.
               norm_class_idx: 2
               splits:
                  - { var:0, quality:7.4000000953674316e+00,
                      le:9.4871795654296875e+02 }
            -
               depth: 11
               value: 5.
               norm_class_idx: 2
            -
               depth: 11
               value: 5.
               norm_class_idx: 2
            -
               depth: 9
               value: 3.
               norm_class_idx: 1
            -
               depth: 8
               value: 3.
               norm_class_idx: 1
            -
               depth: 7
               value: 5.
               norm_class_idx: 2
            -
               depth: 6
               value: 0.
               norm_class_idx: 0
            -
               depth: 5
               value: 3.
               norm_class_idx: 1
               splits:
                  - { var:12, quality:1.0181818008422852e+01,
                      le:6.6945083618164062e+01 }
            -
               depth: 6
               value: 3.
               norm_class_idx: 1
               splits:
                  - { var:14, quality:11., le:6.1942353515625000e+03 }
            -
               depth: 7
               value: 3.
               norm_class_idx: 1
            -
               depth: 7
               value: 5.
               norm_class_idx: 2
            -
               depth: 6
               value: 5.
               norm_class_idx: 2
            -
               depth: 3
               value: 5.
               norm_class_idx: 2
               splits:
                  - { var:19, quality:1.3571428298950195e+01,
                      le:1.0963471221923828e+02 }
            -
               depth: 4
               value: 5.
               norm_class_idx: 2
               splits:
                  - { var:15, quality:1.0727272987365723e+01,
                      le:7.6190588378906250e+02 }
            -
               depth: 5
               value: 5.
               norm_class_idx: 2
               splits:
                  - { var:44, quality:7.8888888359069824e+00,
                      le:5.0612319335937500e+03 }
            -
               depth: 6
               value: 5.
               norm_class_idx: 2
               splits:
                  - { var:0, quality:7.2500000000000000e+00,
                      le:1.4648148193359375e+03 }
            -
               depth: 7
               value: 0.
               norm_class_idx: 0
            -
               depth: 7
               value: 5.
               norm_class_idx: 2
               splits:
                  - { var:23, quality:6.2857141494750977e+00,
                      le:2.2857177734375000e+03 }
            -
               depth: 8
               value: 5.
               norm_class_idx: 2
               splits:
                  - { var:1, quality:5.4000000953674316e+00,
                      le:1.4166667480468750e+03 }
            -
               depth: 9
               value: 5.
               norm_class_idx: 2
            -
               depth: 9
               value: 5.
               norm_class_idx: 2
            -
               depth: 8
               value: 5.
               norm_class_idx: 2
            -
               depth: 6
               value: 5.
               norm_class_idx: 2
            -
               depth: 5
               value: 5.
               norm_class_idx: 2
            -
               depth: 4
               value: 5.
               norm_class_idx: 2
            -
               depth: 2
               value: 5.
               norm_class_idx: 2
               splits:
                  - { var:51, quality:3.4820514678955078e+01,
                      le:1.4643557739257812e+02 }
            -
               depth: 3
               value: 5.
               norm_class_idx: 2
               splits:
                  - { var:53, quality:3.5216217041015625e+01,
                      le:2.2139445495605469e+02 }
            -
               depth: 4
               value: 5.
               norm_class_idx: 2
               splits:
                  - { var:56, quality:37., le:2.1753544921875000e+03 }
            -
               depth: 5
               value: 5.
               norm_class_idx: 2
            -
               depth: 5
               value: 0.
               norm_class_idx: 0
            -
               depth: 4
               value: 0.
               norm_class_idx: 0
            -
               depth: 3
               value: 3.
               norm_class_idx: 1
            -
               depth: 1
               value: 0.
               norm_class_idx: 0
               splits:
                  - { var:48, quality:4.3275863647460938e+01,
                      le:7.4357452392578125e+00 }
            -
               depth: 2
               value: 0.
               norm_class_idx: 0
               splits:
                  - { var:4, quality:4.2436363220214844e+01,
                      le:5.3210766601562500e+02 }
            -
               depth: 3
               value: 0.
               norm_class_idx: 0
               splits:
                  - { var:0, quality:4.1166667938232422e+01,
                      le:1.5625000000000000e+03 }
            -
               depth: 4
               value: 5.
               norm_class_idx: 2
            -
               depth: 4
               value: 0.
               norm_class_idx: 0
               splits:
                  - { var:1, quality:4.0053215026855469e+01,
                      le:2.5333334960937500e+03 }
            -
               depth: 5
               value: 0.
               norm_class_idx: 0
               splits:
                  - { var:56, quality:3.4032257080078125e+01,
                      le:5.8064604492187500e+03 }
            -
               depth: 6
               value: 0.
               norm_class_idx: 0
               splits:
                  - { var:6, quality:2.5600000381469727e+01,
                      le:1.4857166015625000e+04 }
            -
               depth: 7
               value: 0.
               norm_class_idx: 0
               splits:
                  - { var:0, quality:2.5285715103149414e+01,
                      le:2.8333334960937500e+03 }
            -
               depth: 8
               value: 0.
               norm_class_idx: 0
               splits:
                  - { var:4, quality:2.4380952835083008e+01,
                      le:4.3012899780273438e+02 }
            -
               depth: 9
               value: 0.
               norm_class_idx: 0
               splits:
                  - { var:56, quality:1.9100000381469727e+01,
                      le:3.6391032714843750e+03 }
            -
               depth: 10
               value: 0.
               norm_class_idx: 0
               splits:
                  - { var:60, quality:1.8117647171020508e+01,
                      le:2.8270720214843750e+03 }
            -
               depth: 11
               value: 0.
               norm_class_idx: 0
               splits:
                  - { var:1, quality:1.5199999809265137e+01,
                      le:2.1363637695312500e+03 }
            -
               depth: 12
               value: 0.
               norm_class_idx: 0
               splits:
                  - { var:4, quality:10., le:2.0720500183105469e+02 }
            -
               depth: 13
               value: 0.
               norm_class_idx: 0
            -
               depth: 13
               value: 5.
               norm_class_idx: 2
            -
               depth: 12
               value: 0.
               norm_class_idx: 0
            -
               depth: 11
               value: 0.
               norm_class_idx: 0
            -
               depth: 10
               value: 5.
               norm_class_idx: 2
            -
               depth: 9
               value: 0.
               norm_class_idx: 0
            -
               depth: 8
               value: 0.
               norm_class_idx: 0
            -
               depth: 7
               value: 5.
               norm_class_idx: 2
            -
               depth: 6
               value: 0.
               norm_class_idx: 0
            -
               depth: 5
               value: 0.
               norm_class_idx: 0
               splits:
                  - { var:1, quality:9.6666669845581055e+00,
                      le:2.8968254394531250e+03 }
            -
               depth: 6
               value: 3.
               norm_class_idx: 1
            -
               depth: 6
               value: 0.
               norm_class_idx: 0
            -
               depth: 3
               value: 5.
               norm_class_idx: 2
            -
               depth: 2
               value: 3.
               norm_class_idx: 1
      -
         nodes:
            -
               depth: 0
               value: 5.
               norm_class_idx: 2
               splits:
                  - { var:1, quality:9.8042060852050781e+01,
                      le:1.3833332519531250e+03 }
            -
               depth: 1
               value: 5.
               norm_class_idx: 2
               splits:
                  - { var:28, quality:6.3666667938232422e+01,
                      le:1.2436640625000000e+03 }
            -
               depth: 2
               value: 5.
               norm_class_idx: 2
               splits:
                  - { var:2, quality:6.2850467681884766e+01,
                      le:2.4102601562500000e+04 }
            -
               depth: 3
               value: 5.
               norm_class_idx: 2
               splits:
                  - { var:59, quality:6.3315059661865234e+01,
                      le:1.1983642578125000e+03 }
            -
               depth: 4
               value: 5.
               norm_class_idx: 2
               splits:
                  - { var:1, quality:3.7625000000000000e+01,
                      le:2.7861093139648438e+02 }
            -
               depth: 5
               value: 3.
               norm_class_idx: 1
            -
               depth: 5
               value: 5.
               norm_class_idx: 2
               splits:
                  - { var:18, quality:3.4950820922851562e+01,
                      le:6.1237297952175140e-02 }
            -
               depth: 6
               value: 5.
               norm_class_idx: 2
               splits:
                  - { var:43, quality:3.3500000000000000e+01,
                      le:7.8662742614746094e+01 }
            -
               depth: 7
               value: 5.
               norm_class_idx: 2
               splits:
                  - { var:0, quality:3.0315965652465820e+01,
                      le:1.1305668945312500e+03 }
            -
               depth: 8
               value: 5.
               norm_class_idx: 2
               splits:
                  - { var:0, quality:2.3568181991577148e+01,
                      le:7.6388891601562500e+02 }
            -
               depth: 9
               value: 5.
               norm_class_idx: 2
               splits:
                  - { var:58, quality:6.3571429252624512e+00,
                      le:3.6973758697509766e+01 }
            -
               depth: 10
               value: 5.
               norm_class_idx: 2
               splits:
                  - { var:1, quality:6., le:6.4080456542968750e+02 }
            -
               depth: 11
               value: 5.
               norm_class_idx: 2
            -
               depth: 11
               value: 0.
               norm_class_idx: 0
            -
               depth: 10
               value: 0.
               norm_class_idx: 0
            -
               depth: 9
               value: 5.
               norm_class_idx: 2
               splits:
                  - { var:4, quality:2.2090909957885742e+01,
                      le:1.9325524902343750e+02 }
            -
               depth: 10
               value: 5.
               norm_class_idx: 2
               splits:
                  - { var:1, quality:2.0399999618530273e+01,
                      le:8.9903845214843750e+02 }
            -
               depth: 11
               value: 5.
               norm_class_idx: 2
            -
               depth: 11
               value: 5.
               norm_class_idx: 2
            -
               depth: 10
               value: 0.
               norm_class_idx: 0
            -
               depth: 8
               value: 3.
               norm_class_idx: 1
               splits:
                  - { var:1, quality:1.3515151977539062e+01,
                      le:1.2333332519531250e+03 }
            -
               depth: 9
               value: 3.
               norm_class_idx: 1
               splits:
                  - { var:0, quality:9.3999996185302734e+00,
                      le:1.3402597656250000e+03 }
            -
               depth: 10
               value: 3.
               norm_class_idx: 1
            -
               depth: 10
               value: 3.
               norm_class_idx: 1
            -
               depth: 9
               value: 5.
               norm_class_idx: 2
               splits:
                  - { var:20, quality:4.4000000953674316e+00,
                      le:1.4285736083984375e+03 }
            -
               depth: 10
               value: 5.
               norm_class_idx: 2
            -
               depth: 10
               value: 5.
               norm_class_idx: 2
            -
               depth: 7
               value: 5.
               norm_class_idx: 2
            -
               depth: 6
               value: 3.
               norm_class_idx: 1
            -
               depth: 4
               value: 5.
               norm_class_idx: 2
               splits:
                  - { var:52, quality:3.5500000000000000e+01,
                      le:2.9004421997070312e+02 }
            -
               depth: 5
               value: 5.
               norm_class_idx: 2
            -
               depth: 5
               value: 0.
               norm_class_idx: 0
            -
               depth: 3
               value: 0.
               norm_class_idx: 0
            -
               depth: 2
               value: 3.
               norm_class_idx: 1
            -
               depth: 1
               value: 0.
               norm_class_idx: 0
               splits:
                  - { var:34, quality:4.8225353240966797e+01,
                      le:2.5451715469360352e+01 }
            -
               depth: 2
               value: 0.
               norm_class_idx: 0
               splits:
                  - { var:32, quality:4.4400001525878906e+01,
                      le:9.4080772399902344e+00 }
            -
               depth: 3
               value: 0.
               norm_class_idx: 0
               splits:
                  - { var:61, quality:4.4222221374511719e+01,
                      le:6.4590146484375000e+03 }
            -
               depth: 4
               value: 0.
               norm_class_idx: 0
               splits:
                  - { var:4, quality:4.7436363220214844e+01,
                      le:5.3210766601562500e+02 }
            -
               depth: 5
               value: 0.
               norm_class_idx: 0
               splits:
                  - { var:59, quality:4.1111110687255859e+01,
                      le:3.2252077636718750e+03 }
            -
               depth: 6
               value: 0.
               norm_class_idx: 0
               splits:
                  - { var:2, quality:4.0425533294677734e+01,
                      le:2.4897996093750000e+04 }
            -
               depth: 7
               value: 0.
               norm_class_idx: 0
               splits:
                  - { var:4, quality:3.5075756072998047e+01,
                      le:2.2692520141601562e+02 }
            -
               depth: 8
               value: 0.
               norm_class_idx: 0
               splits:
                  - { var:35, quality:3.3631744384765625e+01,
                      le:9.7417602539062500e+02 }
            -
               depth: 9
               value: 0.
               norm_class_idx: 0
               splits:
                  - { var:0, quality:2.8540229797363281e+01,
                      le:1.5833332519531250e+03 }
            -
               depth: 10
               value: 0.
               norm_class_idx: 0
               splits:
                  - { var:6, quality:3.5999999046325684e+00,
                      le:1.1428588867187500e+04 }
            -
               depth: 11
               value: 0.
               norm_class_idx: 0
            -
               depth: 11
               value: 0.
               norm_class_idx: 0
            -
               depth: 10
               value: 0.
               norm_class_idx: 0
               splits:
                  - { var:1, quality:2.6074073791503906e+01,
                      le:2.7916665039062500e+03 }
            -
               depth: 11
               value: 0.
               norm_class_idx: 0
               splits:
                  - { var:17, quality:2.5079999923706055e+01,
                      le:5.1948132324218750e+02 }
            -
               depth: 12
               value: 0.
               norm_class_idx: 0
               splits:
                  - { var:0, quality:2.3333333969116211e+01,
                      le:2.4605263671875000e+03 }
            -
               depth: 13
               value: 0.
               norm_class_idx: 0
            -
               depth: 13
               value: 0.
               norm_class_idx: 0
               splits:
                  - { var:6, quality:4.4000000953674316e+00,
                      le:2.8095279296875000e+04 }
            -
               depth: 14
               value: 0.
               norm_class_idx: 0
            -
               depth: 14
               value: 0.
               norm_class_idx: 0
            -
               depth: 12
               value: 0.
               norm_class_idx: 0
            -
               depth: 11
               value: 0.
               norm_class_idx: 0
            -
               depth: 9
               value: 0.
               norm_class_idx: 0
            -
               depth: 8
               value: 5.
               norm_class_idx: 2
            -
               depth: 7
               value: 0.
               norm_class_idx: 0
            -
               depth: 6
               value: 3.
               norm_class_idx: 1
            -
               depth: 5
               value: 5.
               norm_class_idx: 2
            -
               depth: 4
               value: 0.
               norm_class_idx: 0
            -
               depth: 3
               value: 5.
               norm_class_idx: 2
            -
               depth: 2
               value: 3.
               norm_class_idx: 1
      -
         nodes:
            -
               depth: 0
               value: 5.
               norm_class_idx: 2
               splits:
                  - { var:34, quality:8.0967567443847656e+01,
                      le:5.9271911621093750e+01 }
            -
               depth: 1
               value: 5.
               norm_class_idx: 2
               splits:
                  - { var:36, quality:8.0961326599121094e+01,
                      le:2.5111634731292725e+00 }
            -
               depth: 2
               value: 0.
               norm_class_idx: 0
               splits:
                  - { var:19, quality:6.3282756805419922e+01,
                      le:2.5082139587402344e+02 }
            -
               depth: 3
               value: 0.
               norm_class_idx: 0
               splits:
                  - { var:1, quality:6.9810012817382812e+01, le:1510. }
            -
               depth: 4
               value: 5.
               norm_class_idx: 2
               splits:
                  - { var:0, quality:4.5125274658203125e+01,
                      le:7.3808239746093750e+02 }
            -
               depth: 5
               value: 0.
               norm_class_idx: 0
               splits:
                  - { var:60, quality:1.4368420600891113e+01,
                      le:9.5343194580078125e+02 }
            -
               depth: 6
               value: 0.
               norm_class_idx: 0
               splits:
                  - { var:0, quality:1.5352941513061523e+01,
                      le:2.8084417724609375e+02 }
            -
               depth: 7
               value: 3.
               norm_class_idx: 1
            -
               depth: 7
               value: 0.
               norm_class_idx: 0
               splits:
                  - { var:40, quality:1.5125000000000000e+01,
                      le:9.1065778732299805e+00 }
            -
               depth: 8
               value: 0.
               norm_class_idx: 0
               splits:
                  - { var:4, quality:16., le:6.7974838256835938e+01 }
            -
               depth: 9
               value: 0.
               norm_class_idx: 0
            -
               depth: 9
               value: 5.
               norm_class_idx: 2
            -
               depth: 8
               value: 3.
               norm_class_idx: 1
            -
               depth: 6
               value: 5.
               norm_class_idx: 2
            -
               depth: 5
               value: 5.
               norm_class_idx: 2
               splits:
                  - { var:9, quality:3.6967742919921875e+01,
                      le:2.3652218627929688e+02 }
            -
               depth: 6
               value: 5.
               norm_class_idx: 2
               splits:
                  - { var:0, quality:3.8465812683105469e+01,
                      le:1.0384615478515625e+03 }
            -
               depth: 7
               value: 5.
               norm_class_idx: 2
               splits:
                  - { var:1, quality:2.4399999618530273e+01,
                      le:9.0178570556640625e+02 }
            -
               depth: 8
               value: 5.
               norm_class_idx: 2
            -
               depth: 8
               value: 5.
               norm_class_idx: 2
            -
               depth: 7
               value: 5.
               norm_class_idx: 2
               splits:
                  - { var:59, quality:1.7379310607910156e+01,
                      le:6.7293634033203125e+02 }
            -
               depth: 8
               value: 5.
               norm_class_idx: 2
               splits:
                  - { var:20, quality:1.3159999847412109e+01,
                      le:4.5351543426513672e+01 }
            -
               depth: 9
               value: 5.
               norm_class_idx: 2
               splits:
                  - { var:44, quality:1.1699999809265137e+01,
                      le:1.0095252929687500e+04 }
            -
               depth: 10
               value: 3.
               norm_class_idx: 1
               splits:
                  - { var:2, quality:1.0375000000000000e+01,
                      le:1.7142883300781250e+03 }
            -
               depth: 11
               value: 3.
               norm_class_idx: 1
               splits:
                  - { var:0, quality:8., le:1.2215686035156250e+03 }
            -
               depth: 12
               value: 3.
               norm_class_idx: 1
            -
               depth: 12
               value: 5.
               norm_class_idx: 2
               splits:
                  - { var:10, quality:6.1999998092651367e+00,
                      le:1.9047647705078125e+03 }
            -
               depth: 13
               value: 5.
               norm_class_idx: 2
            -
               depth: 13
               value: 5.
               norm_class_idx: 2
            -
               depth: 11
               value: 0.
               norm_class_idx: 0
            -
               depth: 10
               value: 5.
               norm_class_idx: 2
            -
               depth: 9
               value: 3.
               norm_class_idx: 1
            -
               depth: 8
               value: 5.
               norm_class_idx: 2
            -
               depth: 6
               value: 3.
               norm_class_idx: 1
            -
               depth: 4
               value: 0.
               norm_class_idx: 0
               splits:
                  - { var:2, quality:3.7715152740478516e+01,
                      le:5.3191801757812500e+03 }
            -
               depth: 5
               value: 0.
               norm_class_idx: 0
               splits:
                  - { var:58, quality:3.5024391174316406e+01,
                      le:3.7493789062500000e+04 }
            -
               depth: 6
               value: 0.
               norm_class_idx: 0
               splits:
                  - { var:56, quality:3.2312500000000000e+01,
                      le:7.5630371093750000e+03 }
            -
               depth: 7
               value: 0.
               norm_class_idx: 0
               splits:
                  - { var:58, quality:2.4838708877563477e+01,
                      le:7.1081503906250000e+03 }
            -
               depth: 8
               value: 0.
               norm_class_idx: 0
               splits:
                  - { var:35, quality:2.5222221374511719e+01,
                      le:2.3758354492187500e+03 }
            -
               depth: 9
               value: 0.
               norm_class_idx: 0
               splits:
                  - { var:0, quality:2.3666666030883789e+01,
                      le:2.4772727050781250e+03 }
            -
               depth: 10
               value: 0.
               norm_class_idx: 0
            -
               depth: 10
               value: 0.
               norm_class_idx: 0
               splits:
                  - { var:56, quality:6., le:2.0126260375976562e+02 }
            -
               depth: 11
               value: 0.
               norm_class_idx: 0
               splits:
                  - { var:35, quality:3.5000000000000000e+00,
                      le:1.6404672851562500e+03 }
            -
               depth: 12
               value: 0.
               norm_class_idx: 0
            -
               depth: 12
               value: 0.
               norm_class_idx: 0
            -
               depth: 11
               value: 0.
               norm_class_idx: 0
            -
               depth: 9
               value: 0.
               norm_class_idx: 0
            -
               depth: 8
               value: 5.
               norm_class_idx: 2
            -
               depth: 7
               value: 0.
               norm_class_idx: 0
            -
               depth: 6
               value: 3.
               norm_class_idx: 1
            -
               depth: 5
               value: 0.
               norm_class_idx: 0
               splits:
                  - { var:4, quality:9.6666669845581055e+00,
                      le:5.7731604003906250e+02 }
            -
               depth: 6
               value: 0.
               norm_class_idx: 0
               splits:
                  - { var:5, quality:8.8000001907348633e+00,
                      le:7.7737602233886719e+01 }
            -
               depth: 7
               value: 0.
               norm_class_idx: 0
               splits:
                  - { var:1, quality:7.5999999046325684e+00, le:2050. }
            -
               depth: 8
               value: 0.
               norm_class_idx: 0
            -
               depth: 8
               value: 0.
               norm_class_idx: 0
            -
               depth: 7
               value: 5.
               norm_class_idx: 2
            -
               depth: 6
               value: 5.
               norm_class_idx: 2
            -
               depth: 3
               value: 5.
               norm_class_idx: 2
            -
               depth: 2
               value: 5.
               norm_class_idx: 2
               splits:
                  - { var:51, quality:2.4851852416992188e+01,
                      le:1.3070376586914062e+02 }
            -
               depth: 3
               value: 5.
               norm_class_idx: 2
               splits:
                  - { var:18, quality:2.5079999923706055e+01,
                      le:3.2273411750793457e-01 }
            -
               depth: 4
               value: 5.
               norm_class_idx: 2
               splits:
                  - { var:30, quality:25., le:2.4051003456115723e+00 }
            -
               depth: 5
               value: 5.
               norm_class_idx: 2
            -
               depth: 5
               value: 0.
               norm_class_idx: 0
            -
               depth: 4
               value: 3.
               norm_class_idx: 1
            -
               depth: 3
               value: 3.
               norm_class_idx: 1
               splits:
                  - { var:56, quality:6., le:5.3446093750000000e+02 }
            -
               depth: 4
               value: 3.
               norm_class_idx: 1
            -
               depth: 4
               value: 5.
               norm_class_idx: 2
            -
               depth: 1
               value: 3.
               norm_class_idx: 1
      -
         nodes:
            -
               depth: 0
               value: 0.
               norm_class_idx: 0
               splits:
                  - { var:0, quality:9.5346023559570312e+01,
                      le:1.5571428222656250e+03 }
            -
               depth: 1
               value: 5.
               norm_class_idx: 2
               splits:
                  - { var:49, quality:4.2589473724365234e+01,
                      le:2.3112091064453125e+02 }
            -
               depth: 2
               value: 5.
               norm_class_idx: 2
               splits:
                  - { var:23, quality:4.2184307098388672e+01,
                      le:8.6909863281250000e+02 }
            -
               depth: 3
               value: 5.
               norm_class_idx: 2
               splits:
                  - { var:56, quality:2.8646154403686523e+01,
                      le:3.8333776855468750e+02 }
            -
               depth: 4
               value: 5.
               norm_class_idx: 2
               splits:
                  - { var:1, quality:2.8969696044921875e+01,
                      le:1.2873015136718750e+03 }
            -
               depth: 5
               value: 5.
               norm_class_idx: 2
               splits:
                  - { var:6, quality:2.6707693099975586e+01,
                      le:2.9504519653320312e+02 }
            -
               depth: 6
               value: 5.
               norm_class_idx: 2
               splits:
                  - { var:9, quality:1.9972972869873047e+01,
                      le:5.1948132324218750e+02 }
            -
               depth: 7
               value: 5.
               norm_class_idx: 2
               splits:
                  - { var:36, quality:1.9322580337524414e+01,
                      le:7.5190224647521973e+00 }
            -
               depth: 8
               value: 5.
               norm_class_idx: 2
               splits:
                  - { var:1, quality:1.4666666984558105e+01,
                      le:9.6428570556640625e+02 }
            -
               depth: 9
               value: 5.
               norm_class_idx: 2
               splits:
                  - { var:19, quality:1.0444444656372070e+01,
                      le:6.0150463867187500e+02 }
            -
               depth: 10
               value: 5.
               norm_class_idx: 2
               splits:
                  - { var:17, quality:8.3529415130615234e+00,
                      le:3.0769277343750000e+03 }
            -
               depth: 11
               value: 5.
               norm_class_idx: 2
               splits:
                  - { var:5, quality:8.3750000000000000e+00,
                      le:2.0414285659790039e+00 }
            -
               depth: 12
               value: 5.
               norm_class_idx: 2
               splits:
                  - { var:4, quality:7.8571429252624512e+00,
                      le:9.3801025390625000e+01 }
            -
               depth: 13
               value: 5.
               norm_class_idx: 2
               splits:
                  - { var:0, quality:8., le:7.4285717773437500e+02 }
            -
               depth: 14
               value: 0.
               norm_class_idx: 0
               splits:
                  - { var:0, quality:6., le:4.1428570556640625e+02 }
            -
               depth: 15
               value: 3.
               norm_class_idx: 1
               splits:
                  - { var:60, quality:3.5999999046325684e+00,
                      le:9.1428710937500000e+03 }
            -
               depth: 16
               value: 3.
               norm_class_idx: 1
            -
               depth: 16
               value: 5.
               norm_class_idx: 2
            -
               depth: 15
               value: 0.
               norm_class_idx: 0
            -
               depth: 14
               value: 5.
               norm_class_idx: 2
            -
               depth: 13
               value: 5.
               norm_class_idx: 2
            -
               depth: 12
               value: 0.
               norm_class_idx: 0
            -
               depth: 11
               value: 0.
               norm_class_idx: 0
            -
               depth: 10
               value: 5.
               norm_class_idx: 2
            -
               depth: 9
               value: 3.
               norm_class_idx: 1
               splits:
                  - { var:59, quality:6.2500000000000000e+00,
                      le:1.2100858398437500e+04 }
            -
               depth: 10
               value: 3.
               norm_class_idx: 1
               splits:
                  - { var:20, quality:4.5714287757873535e+00,
                      le:4.5351543426513672e+01 }
            -
               depth: 11
               value: 3.
               norm_class_idx: 1
               splits:
                  - { var:14, quality:4., le:3.3082756347656250e+03 }
            -
               depth: 12
               value: 3.
               norm_class_idx: 1
               splits:
                  - { var:2, quality:3.5999999046325684e+00,
                      le:1.2415603515625000e+04 }
            -
               depth: 13
               value: 5.
               norm_class_idx: 2
            -
               depth: 13
               value: 3.
               norm_class_idx: 1
            -
               depth: 12
               value: 3.
               norm_class_idx: 1
            -
               depth: 11
               value: 3.
               norm_class_idx: 1
            -
               depth: 10
               value: 5.
               norm_class_idx: 2
            -
               depth: 8
               value: 5.
               norm_class_idx: 2
            -
               depth: 7
               value: 3.
               norm_class_idx: 1
            -
               depth: 6
               value: 3.
               norm_class_idx: 1
               splits:
                  - { var:61, quality:1.1461538314819336e+01,
                      le:8.5323437500000000e+02 }
            -
               depth: 7
               value: 3.
               norm_class_idx: 1
               splits:
                  - { var:20, quality:1.1166666984558105e+01,
                      le:2.2965875244140625e+02 }
            -
               depth: 8
               value: 3.
               norm_class_idx: 1
               splits:
                  - { var:15, quality:1.0399999618530273e+01,
                      le:6.0522094726562500e+01 }
            -
               depth: 9
               value: 3.
               norm_class_idx: 1
            -
               depth: 9
               value: 3.
               norm_class_idx: 1
            -
               depth: 8
               value: 5.
               norm_class_idx: 2
            -
               depth: 7
               value: 5.
               norm_class_idx: 2
            -
               depth: 5
               value: 0.
               norm_class_idx: 0
               splits:
                  - { var:39, quality:7.8000001907348633e+00,
                      le:2.2041477966308594e+02 }
            -
               depth: 6
               value: 0.
               norm_class_idx: 0
            -
               depth: 6
               value: 5.
               norm_class_idx: 2
            -
               depth: 4
               value: 0.
               norm_class_idx: 0
               splits:
                  - { var:49, quality:8., le:1.9438833618164062e+02 }
            -
               depth: 5
               value: 0.
               norm_class_idx: 0
            -
               depth: 5
               value: 5.
               norm_class_idx: 2
            -
               depth: 3
               value: 5.
               norm_class_idx: 2
               splits:
                  - { var:0, quality:1.8380952835083008e+01,
                      le:6.5038299560546875e+02 }
            -
               depth: 4
               value: 0.
               norm_class_idx: 0
            -
               depth: 4
               value: 5.
               norm_class_idx: 2
               splits:
                  - { var:51, quality:1.9100000381469727e+01,
                      le:1.3279212951660156e+02 }
            -
               depth: 5
               value: 5.
               norm_class_idx: 2
               splits:
                  - { var:7, quality:1.8666666030883789e+01,
                      le:5.5377917480468750e+02 }
            -
               depth: 6
               value: 5.
               norm_class_idx: 2
            -
               depth: 6
               value: 5.
               norm_class_idx: 2
            -
               depth: 5
               value: 3.
               norm_class_idx: 1
            -
               depth: 2
               value: 3.
               norm_class_idx: 1
            -
               depth: 1
               value: 0.
               norm_class_idx: 0
               splits:
                  - { var:34, quality:6.2609195709228516e+01,
                      le:2.8323042392730713e+00 }
            -
               depth: 2
               value: 0.
               norm_class_idx: 0
               splits:
                  - { var:1, quality:6.3958419799804688e+01,
                      le:2.5131577148437500e+03 }
            -
               depth: 3
               value: 0.
               norm_class_idx: 0
               splits:
                  - { var:5, quality:6.0643478393554688e+01,
                      le:1.2737654876708984e+02 }
            -
               depth: 4
               value: 0.
               norm_class_idx: 0
               splits:
                  - { var:55, quality:5.9861751556396484e+01,
                      le:1.8599468750000000e+04 }
            -
               depth: 5
               value: 0.
               norm_class_idx: 0
               splits:
                  - { var:61, quality:5.6321430206298828e+01,
                      le:2.8270720214843750e+03 }
            -
               depth: 6
               value: 0.
               norm_class_idx: 0
               splits:
                  - { var:51, quality:5.0339622497558594e+01,
                      le:3.8095294189453125e+02 }
            -
               depth: 7
               value: 0.
               norm_class_idx: 0
               splits:
                  - { var:4, quality:4.8500000000000000e+01,
                      le:4.0726501464843750e+02 }
            -
               depth: 8
               value: 0.
               norm_class_idx: 0
            -
               depth: 8
               value: 0.
               norm_class_idx: 0
            -
               depth: 7
               value: 0.
               norm_class_idx: 0
            -
               depth: 6
               value: 0.
               norm_class_idx: 0
            -
               depth: 5
               value: 0.
               norm_class_idx: 0
               splits:
                  - { var:58, quality:7., le:1.9740289062500000e+04 }
            -
               depth: 6
               value: 5.
               norm_class_idx: 2
            -
               depth: 6
               value: 0.
               norm_class_idx: 0
            -
               depth: 4
               value: 5.
               norm_class_idx: 2
            -
               depth: 3
               value: 5.
               norm_class_idx: 2
               splits:
                  - { var:6, quality:9.6666669845581055e+00,
                      le:1.9554284667968750e+03 }
            -
               depth: 4
               value: 5.
               norm_class_idx: 2
               splits:
                  - { var:2, quality:6., le:9.1428710937500000e+03 }
            -
               depth: 5
               value: 5.
               norm_class_idx: 2
               splits:
                  - { var:57, quality:4.4000000953674316e+00,
                      le:3.1746078491210938e+02 }
            -
               depth: 6
               value: 5.
               norm_class_idx: 2
            -
               depth: 6
               value: 3.
               norm_class_idx: 1
            -
               depth: 5
               value: 5.
               norm_class_idx: 2
            -
               depth: 4
               value: 0.
               norm_class_idx: 0
            -
               depth: 2
               value: 5.
               norm_class_idx: 2
               splits:
                  - { var:4, quality:6., le:1.6332754135131836e+01 }
            -
               depth: 3
               value: 5.
               norm_class_idx: 2
            -
               depth: 3
               value: 3.
               norm_class_idx: 1
      -
         nodes:
            -
               depth: 0
               value: 5.
               norm_class_idx: 2
               splits:
                  - { var:1, quality:8.9725234985351562e+01,
                      le:1.6566820068359375e+03 }
            -
               depth: 1
               value: 5.
               norm_class_idx: 2
               splits:
                  - { var:20, quality:5.6300701141357422e+01,
                      le:1.6173852539062500e+02 }
            -
               depth: 2
               value: 5.
               norm_class_idx: 2
               splits:
                  - { var:34, quality:3.4077293395996094e+01,
                      le:1.6034730672836304e+00 }
            -
               depth: 3
               value: 5.
               norm_class_idx: 2
               splits:
                  - { var:59, quality:2.9548387527465820e+01,
                      le:1.6345762695312500e+04 }
            -
               depth: 4
               value: 5.
               norm_class_idx: 2
               splits:
                  - { var:16, quality:2.4915254592895508e+01,
                      le:1.3498332214355469e+02 }
            -
               depth: 5
               value: 5.
               norm_class_idx: 2
               splits:
                  - { var:20, quality:2.3631578445434570e+01,
                      le:4.5351543426513672e+01 }
            -
               depth: 6
               value: 5.
               norm_class_idx: 2
               splits:
                  - { var:0, quality:2.3273584365844727e+01,
                      le:2.8084417724609375e+02 }
            -
               depth: 7
               value: 3.
               norm_class_idx: 1
            -
               depth: 7
               value: 5.
               norm_class_idx: 2
               splits:
                  - { var:10, quality:2.2803920745849609e+01,
                      le:4.2533793945312500e+03 }
            -
               depth: 8
               value: 5.
               norm_class_idx: 2
               splits:
                  - { var:1, quality:2.4166666030883789e+01,
                      le:1.4262295532226562e+02 }
            -
               depth: 9
               value: 3.
               norm_class_idx: 1
            -
               depth: 9
               value: 5.
               norm_class_idx: 2
               splits:
                  - { var:1, quality:2.3407970428466797e+01,
                      le:9.6153845214843750e+02 }
            -
               depth: 10
               value: 5.
               norm_class_idx: 2
               splits:
                  - { var:4, quality:1.7666666030883789e+01,
                      le:6.7974838256835938e+01 }
            -
               depth: 11
               value: 5.
               norm_class_idx: 2
               splits:
                  - { var:55, quality:15., le:1.2142875000000000e+04 }
            -
               depth: 12
               value: 0.
               norm_class_idx: 0
               splits:
                  - { var:17, quality:1.4399999618530273e+01,
                      le:3.2542526855468750e+03 }
            -
               depth: 13
               value: 5.
               norm_class_idx: 2
               splits:
                  - { var:1, quality:1.3142857551574707e+01,
                      le:6.5952380371093750e+02 }
            -
               depth: 14
               value: 0.
               norm_class_idx: 0
               splits:
                  - { var:57, quality:9.6363639831542969e+00,
                      le:7.1490522460937500e+03 }
            -
               depth: 15
               value: 0.
               norm_class_idx: 0
               splits:
                  - { var:36, quality:7.8000001907348633e+00,
                      le:2.8816113471984863e+00 }
            -
               depth: 16
               value: 0.
               norm_class_idx: 0
               splits:
                  - { var:57, quality:7.1428570747375488e+00,
                      le:2.4489831542968750e+03 }
            -
               depth: 17
               value: 0.
               norm_class_idx: 0
               splits:
                  - { var:1, quality:5.6666665077209473e+00,
                      le:4.1666668701171875e+02 }
            -
               depth: 18
               value: 5.
               norm_class_idx: 2
            -
               depth: 18
               value: 0.
               norm_class_idx: 0
            -
               depth: 17
               value: 0.
               norm_class_idx: 0
            -
               depth: 16
               value: 5.
               norm_class_idx: 2
            -
               depth: 15
               value: 5.
               norm_class_idx: 2
            -
               depth: 14
               value: 5.
               norm_class_idx: 2
            -
               depth: 13
               value: 0.
               norm_class_idx: 0
            -
               depth: 12
               value: 5.
               norm_class_idx: 2
            -
               depth: 11
               value: 5.
               norm_class_idx: 2
            -
               depth: 10
               value: 5.
               norm_class_idx: 2
               splits:
                  - { var:0, quality:1.0606060981750488e+01,
                      le:1.2461300048828125e+03 }
            -
               depth: 11
               value: 3.
               norm_class_idx: 1
               splits:
                  - { var:2, quality:4.6666665077209473e+00,
                      le:7.2727382812500000e+03 }
            -
               depth: 12
               value: 3.
               norm_class_idx: 1
            -
               depth: 12
               value: 3.
               norm_class_idx: 1
            -
               depth: 11
               value: 5.
               norm_class_idx: 2
               splits:
                  - { var:59, quality:7.5999999046325684e+00,
                      le:4.2449042968750000e+03 }
            -
               depth: 12
               value: 5.
               norm_class_idx: 2
               splits:
                  - { var:6, quality:8.2222223281860352e+00,
                      le:4.2328106689453125e+02 }
            -
               depth: 13
               value: 5.
               norm_class_idx: 2
               splits:
                  - { var:4, quality:7.6666665077209473e+00,
                      le:1.7147999572753906e+02 }
            -
               depth: 14
               value: 5.
               norm_class_idx: 2
            -
               depth: 14
               value: 5.
               norm_class_idx: 2
            -
               depth: 13
               value: 0.
               norm_class_idx: 0
            -
               depth: 12
               value: 0.
               norm_class_idx: 0
            -
               depth: 8
               value: 3.
               norm_class_idx: 1
            -
               depth: 6
               value: 3.
               norm_class_idx: 1
            -
               depth: 5
               value: 3.
               norm_class_idx: 1
            -
               depth: 4
               value: 5.
               norm_class_idx: 2
            -
               depth: 3
               value: 3.
               norm_class_idx: 1
               splits:
                  - { var:36, quality:9., le:1.3734590148925781e+02 }
            -
               depth: 4
               value: 3.
               norm_class_idx: 1
            -
               depth: 4
               value: 0.
               norm_class_idx: 0
            -
               depth: 2
               value: 5.
               norm_class_idx: 2
               splits:
                  - { var:60, quality:3.2914287567138672e+01,
                      le:8.4069934082031250e+02 }
            -
               depth: 3
               value: 3.
               norm_class_idx: 1
               splits:
                  - { var:53, quality:9., le:9.9230026245117188e+01 }
            -
               depth: 4
               value: 5.
               norm_class_idx: 2
            -
               depth: 4
               value: 3.
               norm_class_idx: 1
            -
               depth: 3
               value: 5.
               norm_class_idx: 2
               splits:
                  - { var:56, quality:3.1242424011230469e+01,
                      le:4.7836785888671875e+02 }
            -
               depth: 4
               value: 5.
               norm_class_idx: 2
               splits:
                  - { var:17, quality:3.1666666030883789e+01,
                      le:2.1987942504882812e+02 }
            -
               depth: 5
               value: 0.
               norm_class_idx: 0
            -
               depth: 5
               value: 5.
               norm_class_idx: 2
            -
               depth: 4
               value: 0.
               norm_class_idx: 0
            -
               depth: 1
               value: 0.
               norm_class_idx: 0
               splits:
                  - { var:0, quality:4.4936752319335938e+01,
                      le:2.4780952148437500e+03 }
            -
               depth: 2
               value: 0.
               norm_class_idx: 0
               splits:
                  - { var:47, quality:4.1195121765136719e+01,
                      le:1.8937988281250000e+02 }
            -
               depth: 3
               value: 0.
               norm_class_idx: 0
               splits:
                  - { var:2, quality:3.7310607910156250e+01,
                      le:1.0109905273437500e+04 }
            -
               depth: 4
               value: 0.
               norm_class_idx: 0
               splits:
                  - { var:55, quality:3.1222221374511719e+01,
                      le:9.5238242187500000e+03 }
            -
               depth: 5
               value: 0.
               norm_class_idx: 0
            -
               depth: 5
               value: 0.
               norm_class_idx: 0
               splits:
                  - { var:1, quality:9., le:1.9166667480468750e+03 }
            -
               depth: 6
               value: 5.
               norm_class_idx: 2
            -
               depth: 6
               value: 0.
               norm_class_idx: 0
            -
               depth: 4
               value: 0.
               norm_class_idx: 0
               splits:
                  - { var:4, quality:8., le:3.7153997802734375e+02 }
            -
               depth: 5
               value: 5.
               norm_class_idx: 2
            -
               depth: 5
               value: 0.
               norm_class_idx: 0
            -
               depth: 3
               value: 3.
               norm_class_idx: 1
            -
               depth: 2
               value: 5.
               norm_class_idx: 2
               splits:
                  - { var:4, quality:1.8533332824707031e+01,
                      le:2.9442843627929688e+02 }
            -
               depth: 3
               value: 0.
               norm_class_idx: 0
               splits:
                  - { var:35, quality:9.1666669845581055e+00,
                      le:2.1818215332031250e+03 }
            -
               depth: 4
               value: 0.
               norm_class_idx: 0
               splits:
                  - { var:58, quality:8.7272729873657227e+00,
                      le:2.4761941406250000e+04 }
            -
               depth: 5
               value: 0.
               norm_class_idx: 0
               splits:
                  - { var:0, quality:9., le:2550. }
            -
               depth: 6
               value: 0.
               norm_class_idx: 0
            -
               depth: 6
               value: 0.
               norm_class_idx: 0
            -
               depth: 5
               value: 3.
               norm_class_idx: 1
            -
               depth: 4
               value: 5.
               norm_class_idx: 2
            -
               depth: 3
               value: 5.
               norm_class_idx: 2
      -
         nodes:
            -
               depth: 0
               value: 5.
               norm_class_idx: 2
               splits:
                  - { var:1, quality:9.5169715881347656e+01, le:1510. }
            -
               depth: 1
               value: 5.
               norm_class_idx: 2
               splits:
                  - { var:59, quality:6.3891025543212891e+01,
                      le:1.2599140625000000e+03 }
            -
               depth: 2
               value: 5.
               norm_class_idx: 2
               splits:
                  - { var:34, quality:3.9504013061523438e+01,
                      le:3.7833407521247864e-01 }
            -
               depth: 3
               value: 5.
               norm_class_idx: 2
               splits:
                  - { var:36, quality:2.9680000305175781e+01,
                      le:3.5859758853912354e+00 }
            -
               depth: 4
               value: 5.
               norm_class_idx: 2
               splits:
                  - { var:0, quality:2.3560606002807617e+01,
                      le:3.6666668701171875e+02 }
            -
               depth: 5
               value: 3.
               norm_class_idx: 1
               splits:
                  - { var:56, quality:6., le:3.8095295410156250e+03 }
            -
               depth: 6
               value: 3.
               norm_class_idx: 1
            -
               depth: 6
               value: 5.
               norm_class_idx: 2
            -
               depth: 5
               value: 5.
               norm_class_idx: 2
               splits:
                  - { var:0, quality:2.2758974075317383e+01,
                      le:7.0238098144531250e+02 }
            -
               depth: 6
               value: 0.
               norm_class_idx: 0
            -
               depth: 6
               value: 5.
               norm_class_idx: 2
               splits:
                  - { var:1, quality:2.2642856597900391e+01,
                      le:8.2142858886718750e+02 }
            -
               depth: 7
               value: 5.
               norm_class_idx: 2
            -
               depth: 7
               value: 5.
               norm_class_idx: 2
               splits:
                  - { var:15, quality:1.4583333015441895e+01,
                      le:3.0476235351562500e+03 }
            -
               depth: 8
               value: 5.
               norm_class_idx: 2
               splits:
                  - { var:1, quality:1.5285714149475098e+01,
                      le:1.2583332519531250e+03 }
            -
               depth: 9
               value: 3.
               norm_class_idx: 1
               splits:
                  - { var:4, quality:7.1555557250976562e+00,
                      le:1.9325524902343750e+02 }
            -
               depth: 10
               value: 3.
               norm_class_idx: 1
               splits:
                  - { var:1, quality:6.3333334922790527e+00,
                      le:1.0147058715820312e+03 }
            -
               depth: 11
               value: 5.
               norm_class_idx: 2
               splits:
                  - { var:2, quality:4.4000000953674316e+00,
                      le:4.0476250000000000e+03 }
            -
               depth: 12
               value: 5.
               norm_class_idx: 2
            -
               depth: 12
               value: 3.
               norm_class_idx: 1
            -
               depth: 11
               value: 3.
               norm_class_idx: 1
            -
               depth: 10
               value: 0.
               norm_class_idx: 0
            -
               depth: 9
               value: 5.
               norm_class_idx: 2
            -
               depth: 8
               value: 3.
               norm_class_idx: 1
            -
               depth: 4
               value: 5.
               norm_class_idx: 2
            -
               depth: 3
               value: 3.
               norm_class_idx: 1
               splits:
                  - { var:22, quality:1.4041666984558105e+01,
                      le:1.0817170143127441e+00 }
            -
               depth: 4
               value: 3.
               norm_class_idx: 1
               splits:
                  - { var:0, quality:1.4133333206176758e+01,
                      le:1.3768089599609375e+03 }
            -
               depth: 5
               value: 3.
               norm_class_idx: 1
               splits:
                  - { var:51, quality:15., le:1.3776191711425781e+02 }
            -
               depth: 6
               value: 3.
               norm_class_idx: 1
            -
               depth: 6
               value: 5.
               norm_class_idx: 2
            -
               depth: 5
               value: 0.
               norm_class_idx: 0
            -
               depth: 4
               value: 5.
               norm_class_idx: 2
            -
               depth: 2
               value: 5.
               norm_class_idx: 2
               splits:
                  - { var:53, quality:3.7142856597900391e+01,
                      le:2.1895336914062500e+02 }
            -
               depth: 3
               value: 5.
               norm_class_idx: 2
            -
               depth: 3
               value: 0.
               norm_class_idx: 0
               splits:
                  - { var:4, quality:7., le:8.6405792236328125e+00 }
            -
               depth: 4
               value: 0.
               norm_class_idx: 0
            -
               depth: 4
               value: 5.
               norm_class_idx: 2
            -
               depth: 1
               value: 0.
               norm_class_idx: 0
               splits:
                  - { var:32, quality:4.4830986022949219e+01,
                      le:3.7052383422851562e+00 }
            -
               depth: 2
               value: 0.
               norm_class_idx: 0
               splits:
                  - { var:4, quality:4.5477611541748047e+01,
                      le:5.3730401611328125e+02 }
            -
               depth: 3
               value: 0.
               norm_class_idx: 0
               splits:
                  - { var:5, quality:4.2760417938232422e+01,
                      le:9.4598243713378906e+01 }
            -
               depth: 4
               value: 0.
               norm_class_idx: 0
               splits:
                  - { var:0, quality:4.3245716094970703e+01, le:2875. }
            -
               depth: 5
               value: 0.
               norm_class_idx: 0
               splits:
                  - { var:0, quality:3.8780487060546875e+01,
                      le:1.7533332519531250e+03 }
            -
               depth: 6
               value: 0.
               norm_class_idx: 0
               splits:
                  - { var:58, quality:7.2857141494750977e+00,
                      le:5.7142944335937500e+03 }
            -
               depth: 7
               value: 0.
               norm_class_idx: 0
               splits:
                  - { var:35, quality:5.4000000953674316e+00,
                      le:1.4285736083984375e+03 }
            -
               depth: 8
               value: 0.
               norm_class_idx: 0
            -
               depth: 8
               value: 0.
               norm_class_idx: 0
            -
               depth: 7
               value: 5.
               norm_class_idx: 2
            -
               depth: 6
               value: 0.
               norm_class_idx: 0
               splits:
                  - { var:60, quality:3.4032257080078125e+01,
                      le:1.0884370117187500e+03 }
            -
               depth: 7
               value: 0.
               norm_class_idx: 0
               splits:
                  - { var:2, quality:2.4347826004028320e+01,
                      le:2.0897990234375000e+04 }
            -
               depth: 8
               value: 0.
               norm_class_idx: 0
               splits:
                  - { var:35, quality:2.0333333969116211e+01,
                      le:2.3758354492187500e+03 }
            -
               depth: 9
               value: 0.
               norm_class_idx: 0
            -
               depth: 9
               value: 0.
               norm_class_idx: 0
               splits:
                  - { var:35, quality:6., le:2.8571469726562500e+03 }
            -
               depth: 10
               value: 5.
               norm_class_idx: 2
            -
               depth: 10
               value: 0.
               norm_class_idx: 0
            -
               depth: 8
               value: 0.
               norm_class_idx: 0
               splits:
                  - { var:4, quality:6., le:4.3931542968750000e+02 }
            -
               depth: 9
               value: 0.
               norm_class_idx: 0
            -
               depth: 9
               value: 0.
               norm_class_idx: 0
            -
               depth: 7
               value: 0.
               norm_class_idx: 0
            -
               depth: 5
               value: 0.
               norm_class_idx: 0
               splits:
                  - { var:59, quality:8.9090909957885742e+00,
                      le:3.2252077636718750e+03 }
            -
               depth: 6
               value: 0.
               norm_class_idx: 0
               splits:
                  - { var:0, quality:11., le:3.1435405273437500e+03 }
            -
               depth: 7
               value: 5.
               norm_class_idx: 2
            -
               depth: 7
               value: 0.
               norm_class_idx: 0
            -
               depth: 6
               value: 3.
               norm_class_idx: 1
            -
               depth: 4
               value: 5.
               norm_class_idx: 2
            -
               depth: 3
               value: 5.
               norm_class_idx: 2
            -
               depth: 2
               value: 3.
               norm_class_idx: 1
      -
         nodes:
            -
               depth: 0
               value: 5.
               norm_class_idx: 2
               splits:
                  - { var:43, quality:8.9559455871582031e+01,
                      le:1.0490470886230469e+02 }
            -
               depth: 1
               value: 0.
               norm_class_idx: 0
               splits:
                  - { var:8, quality:5.9097221374511719e+01,
                      le:6.1007789611816406e+01 }
            -
               depth: 2
               value: 0.
               norm_class_idx: 0
               splits:
                  - { var:1, quality:7.1403266906738281e+01,
                      le:1.3690476074218750e+03 }
            -
               depth: 3
               value: 5.
               norm_class_idx: 2
               splits:
                  - { var:59, quality:3.0945453643798828e+01,
                      le:1.2580919189453125e+03 }
            -
               depth: 4
               value: 5.
               norm_class_idx: 2
               splits:
                  - { var:1, quality:2.2683332443237305e+01,
                      le:7.3214282226562500e+02 }
            -
               depth: 5
               value: 5.
               norm_class_idx: 2
               splits:
                  - { var:29, quality:8.5714282989501953e+00,
                      le:1.2141023576259613e-01 }
            -
               depth: 6
               value: 5.
               norm_class_idx: 2
               splits:
                  - { var:1, quality:9.5555553436279297e+00,
                      le:6.4285717773437500e+02 }
            -
               depth: 7
               value: 0.
               norm_class_idx: 0
               splits:
                  - { var:28, quality:5., le:3.5679675292968750e+02 }
            -
               depth: 8
               value: 0.
               norm_class_idx: 0
               splits:
                  - { var:1, quality:8., le:5.1428570556640625e+02 }
            -
               depth: 9
               value: 5.
               norm_class_idx: 2
            -
               depth: 9
               value: 0.
               norm_class_idx: 0
            -
               depth: 8
               value: 0.
               norm_class_idx: 0
            -
               depth: 7
               value: 5.
               norm_class_idx: 2
            -
               depth: 6
               value: 3.
               norm_class_idx: 1
            -
               depth: 5
               value: 3.
               norm_class_idx: 1
               splits:
                  - { var:0, quality:1.8568628311157227e+01,
                      le:7.0833337402343750e+02 }
            -
               depth: 6
               value: 0.
               norm_class_idx: 0
               splits:
                  - { var:15, quality:6., le:1.9047647705078125e+03 }
            -
               depth: 7
               value: 3.
               norm_class_idx: 1
            -
               depth: 7
               value: 0.
               norm_class_idx: 0
            -
               depth: 6
               value: 3.
               norm_class_idx: 1
               splits:
                  - { var:15, quality:1.8500000000000000e+01,
                      le:3.0075231933593750e+02 }
            -
               depth: 7
               value: 5.
               norm_class_idx: 2
               splits:
                  - { var:23, quality:1.4250000000000000e+01,
                      le:2.2857177734375000e+03 }
            -
               depth: 8
               value: 3.
               norm_class_idx: 1
               splits:
                  - { var:5, quality:1.2100000381469727e+01,
                      le:2.0414285659790039e+00 }
            -
               depth: 9
               value: 5.
               norm_class_idx: 2
               splits:
                  - { var:0, quality:1.1604395866394043e+01,
                      le:8.5780883789062500e+02 }
            -
               depth: 10
               value: 3.
               norm_class_idx: 1
               splits:
                  - { var:0, quality:5., le:8.0909094238281250e+02 }
            -
               depth: 11
               value: 3.
               norm_class_idx: 1
            -
               depth: 11
               value: 3.
               norm_class_idx: 1
            -
               depth: 10
               value: 5.
               norm_class_idx: 2
               splits:
                  - { var:9, quality:9.7272729873657227e+00,
                      le:5.1948132324218750e+02 }
            -
               depth: 11
               value: 5.
               norm_class_idx: 2
               splits:
                  - { var:0, quality:9.1999998092651367e+00,
                      le:1.4722221679687500e+03 }
            -
               depth: 12
               value: 5.
               norm_class_idx: 2
               splits:
                  - { var:19, quality:10., le:4.5351543426513672e+01 }
            -
               depth: 13
               value: 5.
               norm_class_idx: 2
            -
               depth: 13
               value: 3.
               norm_class_idx: 1
            -
               depth: 12
               value: 3.
               norm_class_idx: 1
            -
               depth: 11
               value: 3.
               norm_class_idx: 1
            -
               depth: 9
               value: 0.
               norm_class_idx: 0
            -
               depth: 8
               value: 5.
               norm_class_idx: 2
            -
               depth: 7
               value: 3.
               norm_class_idx: 1
            -
               depth: 4
               value: 5.
               norm_class_idx: 2
            -
               depth: 3
               value: 0.
               norm_class_idx: 0
               splits:
                  - { var:4, quality:5.1175926208496094e+01,
                      le:2.9328521728515625e+02 }
            -
               depth: 4
               value: 0.
               norm_class_idx: 0
               splits:
                  - { var:35, quality:4.0520084381103516e+01,
                      le:9.7417602539062500e+02 }
            -
               depth: 5
               value: 0.
               norm_class_idx: 0
               splits:
                  - { var:58, quality:3.5619049072265625e+01,
                      le:3.9619105468750000e+04 }
            -
               depth: 6
               value: 0.
               norm_class_idx: 0
               splits:
                  - { var:0, quality:3.5500000000000000e+01,
                      le:2.9583334960937500e+03 }
            -
               depth: 7
               value: 0.
               norm_class_idx: 0
               splits:
                  - { var:58, quality:3.2230770111083984e+01,
                      le:4.3909838867187500e+03 }
            -
               depth: 8
               value: 0.
               norm_class_idx: 0
               splits:
                  - { var:61, quality:2.2260869979858398e+01,
                      le:1.4285735351562500e+04 }
            -
               depth: 9
               value: 0.
               norm_class_idx: 0
               splits:
                  - { var:5, quality:1.9272727966308594e+01,
                      le:2.4368209838867188e+02 }
            -
               depth: 10
               value: 0.
               norm_class_idx: 0
               splits:
                  - { var:51, quality:1.8299999237060547e+01,
                      le:1.2244915771484375e+03 }
            -
               depth: 11
               value: 0.
               norm_class_idx: 0
               splits:
                  - { var:1, quality:1.7111110687255859e+01,
                      le:1.5833332519531250e+03 }
            -
               depth: 12
               value: 0.
               norm_class_idx: 0
            -
               depth: 12
               value: 0.
               norm_class_idx: 0
            -
               depth: 11
               value: 0.
               norm_class_idx: 0
            -
               depth: 10
               value: 0.
               norm_class_idx: 0
            -
               depth: 9
               value: 0.
               norm_class_idx: 0
            -
               depth: 8
               value: 0.
               norm_class_idx: 0
            -
               depth: 7
               value: 0.
               norm_class_idx: 0
               splits:
                  - { var:0, quality:6., le:3.2559523925781250e+03 }
            -
               depth: 8
               value: 5.
               norm_class_idx: 2
            -
               depth: 8
               value: 0.
               norm_class_idx: 0
            -
               depth: 6
               value: 3.
               norm_class_idx: 1
            -
               depth: 5
               value: 0.
               norm_class_idx: 0
            -
               depth: 4
               value: 5.
               norm_class_idx: 2
               splits:
                  - { var:2, quality:16., le:1.9428601562500000e+04 }
            -
               depth: 5
               value: 5.
               norm_class_idx: 2
               splits:
                  - { var:1, quality:11., le:1.9038461914062500e+03 }
            -
               depth: 6
               value: 0.
               norm_class_idx: 0
            -
               depth: 6
               value: 5.
               norm_class_idx: 2
            -
               depth: 5
               value: 0.
               norm_class_idx: 0
               splits:
                  - { var:1, quality:8.2500000000000000e+00, le:2050. }
            -
               depth: 6
               value: 0.
               norm_class_idx: 0
               splits:
                  - { var:2, quality:5.1428570747375488e+00,
                      le:2.3183707031250000e+04 }
            -
               depth: 7
               value: 5.
               norm_class_idx: 2
            -
               depth: 7
               value: 0.
               norm_class_idx: 0
               splits:
                  - { var:4, quality:7., le:4.0726501464843750e+02 }
            -
               depth: 8
               value: 0.
               norm_class_idx: 0
            -
               depth: 8
               value: 5.
               norm_class_idx: 2
            -
               depth: 6
               value: 0.
               norm_class_idx: 0
            -
               depth: 2
               value: 3.
               norm_class_idx: 1
            -
               depth: 1
               value: 5.
               norm_class_idx: 2
               splits:
                  - { var:51, quality:3.9428569793701172e+01,
                      le:1.3091088867187500e+02 }
            -
               depth: 2
               value: 5.
               norm_class_idx: 2
               splits:
                  - { var:52, quality:3.8195121765136719e+01,
                      le:2.9308099365234375e+02 }
            -
               depth: 3
               value: 5.
               norm_class_idx: 2
               splits:
                  - { var:24, quality:3.7888889312744141e+01,
                      le:1.5071127414703369e+00 }
            -
               depth: 4
               value: 5.
               norm_class_idx: 2
            -
               depth: 4
               value: 5.
               norm_class_idx: 2
               splits:
                  - { var:37, quality:9., le:1.2293283081054688e+02 }
            -
               depth: 5
               value: 3.
               norm_class_idx: 1
            -
               depth: 5
               value: 5.
               norm_class_idx: 2
            -
               depth: 3
               value: 3.
               norm_class_idx: 1
            -
               depth: 2
               value: 3.
               norm_class_idx: 1
      -
         nodes:
            -
               depth: 0
               value: 5.
               norm_class_idx: 2
               splits:
                  - { var:43, quality:9.3518020629882812e+01,
                      le:1.1046499633789062e+02 }
            -
               depth: 1
               value: 0.
               norm_class_idx: 0
               splits:
                  - { var:0, quality:7.8196746826171875e+01,
                      le:1.3245614013671875e+03 }
            -
               depth: 2
               value: 5.
               norm_class_idx: 2
               splits:
                  - { var:6, quality:3.5257575988769531e+01,
                      le:1.4192857360839844e+02 }
            -
               depth: 3
               value: 5.
               norm_class_idx: 2
               splits:
                  - { var:0, quality:3.3333332061767578e+01,
                      le:7.6388891601562500e+02 }
            -
               depth: 4
               value: 5.
               norm_class_idx: 2
               splits:
                  - { var:58, quality:6.4000000953674316e+00,
                      le:2.5850378417968750e+03 }
            -
               depth: 5
               value: 5.
               norm_class_idx: 2
               splits:
                  - { var:60, quality:5., le:9.1428710937500000e+03 }
            -
               depth: 6
               value: 5.
               norm_class_idx: 2
            -
               depth: 6
               value: 5.
               norm_class_idx: 2
            -
               depth: 5
               value: 0.
               norm_class_idx: 0
            -
               depth: 4
               value: 5.
               norm_class_idx: 2
               splits:
                  - { var:9, quality:3.0399999618530273e+01,
                      le:5.1948132324218750e+02 }
            -
               depth: 5
               value: 5.
               norm_class_idx: 2
               splits:
                  - { var:1, quality:2.9823530197143555e+01,
                      le:8.9903845214843750e+02 }
            -
               depth: 6
               value: 5.
               norm_class_idx: 2
            -
               depth: 6
               value: 5.
               norm_class_idx: 2
               splits:
                  - { var:20, quality:1.3500000000000000e+01,
                      le:4.5351543426513672e+01 }
            -
               depth: 7
               value: 5.
               norm_class_idx: 2
               splits:
                  - { var:0, quality:14., le:1.1293706054687500e+03 }
            -
               depth: 8
               value: 0.
               norm_class_idx: 0
            -
               depth: 8
               value: 5.
               norm_class_idx: 2
            -
               depth: 7
               value: 3.
               norm_class_idx: 1
            -
               depth: 5
               value: 3.
               norm_class_idx: 1
            -
               depth: 3
               value: 3.
               norm_class_idx: 1
               splits:
                  - { var:12, quality:6.9333333969116211e+00,
                      le:5.9109311103820801e+00 }
            -
               depth: 4
               value: 3.
               norm_class_idx: 1
               splits:
                  - { var:5, quality:4.6666665077209473e+00,
                      le:4.3506412506103516e+01 }
            -
               depth: 5
               value: 3.
               norm_class_idx: 1
            -
               depth: 5
               value: 3.
               norm_class_idx: 1
            -
               depth: 4
               value: 0.
               norm_class_idx: 0
            -
               depth: 2
               value: 0.
               norm_class_idx: 0
               splits:
                  - { var:1, quality:5.4851470947265625e+01, le:1510. }
            -
               depth: 3
               value: 5.
               norm_class_idx: 2
               splits:
                  - { var:2, quality:1.0733333587646484e+01,
                      le:1.2486791015625000e+04 }
            -
               depth: 4
               value: 5.
               norm_class_idx: 2
               splits:
                  - { var:60, quality:9., le:4.2596643066406250e+02 }
            -
               depth: 5
               value: 5.
               norm_class_idx: 2
            -
               depth: 5
               value: 5.
               norm_class_idx: 2
            -
               depth: 4
               value: 0.
               norm_class_idx: 0
            -
               depth: 3
               value: 0.
               norm_class_idx: 0
               splits:
                  - { var:4, quality:5.3864864349365234e+01,
                      le:5.3730401611328125e+02 }
            -
               depth: 4
               value: 0.
               norm_class_idx: 0
               splits:
                  - { var:12, quality:4.9452053070068359e+01,
                      le:4.1847634315490723e+00 }
            -
               depth: 5
               value: 0.
               norm_class_idx: 0
               splits:
                  - { var:58, quality:5.1760562896728516e+01,
                      le:3.6281667968750000e+04 }
            -
               depth: 6
               value: 0.
               norm_class_idx: 0
               splits:
                  - { var:1, quality:5.3178787231445312e+01,
                      le:2.6190476074218750e+03 }
            -
